-900 -246 -1905 -1260 1253 3978 -4723 1582 -3681 1349 1485 2833 -393 3825 -2015 1867 875 -367 1667 1233 739 -2352 -402 3657 570 -267 -85 -1883 961 -1657
2049 519 -3266 1299 3083 270 683 -715 -2340 -592 150 1604 -1457 2724 148 -1602 -153 -2225 2580 548 2103 3800 193 1392 413 -4799 4819 -3118 2520 -2958
2100 -3906 8634 -2626 4824 -1750 -2249 -903 391 4654 -747 -1136 2283 2157 -2360 990 581 3738 3936 5028 2105 1139 -2197 6511 575 -3562 4595 -2915 5135 -929
-419 900 1505 -5705 99 3062 -520 -4047 2273 -320 -3433 293 1661 -1066 1565 1455 -3219 -2768 -2275 -294 -2095 949 4422 -3610 -2652 -3669 2491 -2573 3569 -2157
-5114 5819 -197 2030 1250 -1826 -4722 2425 -2579 1587 4 -621 -60 -284 -2016 3670 -1079 -4821 2586 -7 -449 3277 1773 -6011 817 -2440 -68 -1271 -3518 1486
-2524 95 -1423 -1361 2248 -177 -2715 5483 1815 305 3392 286 923 -790 4836 2556 4933 -3129 4099 793 -280 -1936 1711 2080 1196 2892 -1493 1476 -512 -2389
-1757 2178 3897 3744 2534 2562 4832 736 4680 -567 1915 -651 2823 115 3501 -2060 4266 -3308 499 -1103 -701 1579 -1601 3470 601 -992 3277 778 -143 1230
147 -1505 658 1013 493 -443 -4238 -2664 -2382 2087 -2867 -1152 -1557 -1633 685 -2912 2834 -2953 3059 3490 -595 -2134 431 -1197 -474 -2371 941 1728 4715 -1259
-1260 1261 4919 1963 -216 -2189 964 -2170 377 1277 537 -739 -1038 -560 3027 749 2910 -2063 834 1539 2435 -1736 1402 544 -4735 2548 -1209 2128 -1730 -414
1630 2142 1115 -2380 -633 -470 4648 -800 -403 -2280 3203 -1940 2109 -1726 -766 -3366 363 2233 -3304 2027 6166 -462 2735 -2051 -2955 1375 -791 3902 -2903 -1055
-822 -849 129 3941 -1804 -2903 -1265 82 -3249 376 -5814 780 4446 -6056 2847 2972 -137 -3549 -4432 -4310 -2594 -1658 -3785 1287 -2616 -1014 -1984 -4042 -557 898
-3178 2177 -1619 -252 -5442 1528 1093 -1835 161 1289 4258 300 -198 -3610 -732 -532 -732 -738 -1880 4001 -1720 1400 -364 2509 -3679 -2740 2083 -267 413 -3020
679 7467 1065 960 -3283 918 -1118 -1289 -530 -571 -4756 -1329 912 -2337 -1723 3766 -3689 237 130 2040 -1261 3645 -753 -2900 445 -767 3513 -69 3807 1223
1243 -705 -3422 1586 -3933 100 -4554 -2087 425 -734 2289 -4335 1908 -2754 -3884 833 2390 -2575 -89 -1394 -1825 -2006 -3294 2283 1100 1701 614 2830 2969 -3375
-897 2144 -285 -2514 -3000 -3079 944 -210 314 -1761 -1010 1906 366 1315 -901 5139 2327 -2042 -897 3572 2463 -3319 -1361 37 41 1640 1294 -2324 -3982 -866
5021 518 -5030 1054 6793 -776 -1708 -3326 2388 -3262 1245 1381 1717 425 -738 47 1510 -177 3450 344 -4526 1111 -605 1418 3428 -4400 -3801 4000 2899 1046
1146 -3730 2294 -1764 475 306 4207 -6377 162 -2598 5477 -756 919 1410 1677 -144 3204 4011 2878 2218 1239 2000 -1862 2381 1175 -40 1181 4237 -3393 -106
1153 2693 3071 302 2356 -583 1623 2512 -1596 413 -7 -3255 1636 -762 426 927 2590 1005 -1355 -1793 -1328 820 3343 -3649 -3323 6363 -5836 -5455 -2026 2334
-1901 -5449 236 -184 -3190 3196 1572 229 -7078 -1128 213 140 -2168 1891 -993 2698 -3937 -3277 888 95 -1602 -3061 -1283 1337 -1603 -715 3696 2597 665 2822
1222 2045 2139 1216 -1716 -2678 -3780 1634 1544 1209 -119 -4 -887 -2001 -2647 -1459 1332 -3022 -2021 -846 860 1029 1799 1479 -334 -2289 -861 -2587 -1140 1314
2425 231 1816 -3028 3135 -3494 419 117 951 -569 -459 1006 139 125 1963 1992 939 -1109 -1266 4570 128 -2266 -4823 4445 -6058 -4090 -791 -1955 58 1451
-4147 3970 3430 1092 -1024 2115 2312 -5675 4137 -4309 -2031 320 1955 -1403 6 -4997 -2150 5062 -1201 869 -1373 -1912 803 -2174 3273 -871 3458 -1484 -1081 -752
2989 194 847 110 -1853 934 632 -1824 2705 -2051 -287 4306 -3716 -1121 -1451 2091 6512 2020 -3701 -349 936 1012 987 4369 -1836 -373 -3464 -5922 2453 2319
2243 2367 476 6105 -2289 2624 -475 -2360 3541 -3311 -3194 2875 -2571 454 -2085 -2238 -3868 -2409 5161 2086 681 -5218 311 -3729 -5845 36 5184 502 2097 701
1088 2609 1058 -1613 486 1872 4500 511 3372 2472 -82 1701 1791 -4560 -5056 -2821 525 1144 -4176 -7822 1050 -265 2613 -4477 2020 4378 -908 -4218 2539 -1007
-502 -336 -911 4638 -3580 4103 -751 -1421 3704 -859 2353 -324 -2983 -468 -1258 -450 2863 -578 158 1942 1410 339 -1169 29 -48 -2483 2930 -540 2634 602
951 864 -624 -156 165 -693 -264 389 3159 -3842 5902 159 -2173 -230 -3159 -6532 -1367 -2241 -337 -552 1533 -1466 -438 1085 5265 -1233 -758 -1528 -2242 684
-1791 -2661 -1663 -2718 2903 -2600 -1790 159 -8 -1215 6407 510 -4155 -618 1453 -3271 -1253 -3866 803 -981 584 1629 -826 -3695 -2921 772 -3002 2583 -556 986
-228 -1040 4762 -892 656 3698 -2932 -3064 480 385 1059 4876 -4649 2217 -2627 -2454 4267 -4523 -1106 -3165 813 523 -4274 590 201 -2135 377 924 3380 -2266
1006 1151 -1212 1916 1812 2638 284 -418 -1956 2566 -572 -10 -2828 291 -246 -2523 200 -3044 -1418 -1925 -459 1582 1598 -2226 -525 -1304 1745 -61 1760 2172
165 -2015 2647 86 416 -3617 3288 3864 -1075 563 -2008 1756 303 -1836 1477 488 -5383 -349 996 1183 1035 -1613 -119 1871 -3081 -30 787 2419 -2972 1231
-2044 1818 7580 356 1030 -1317 -1169 -1383 2518 -2828 -2174 -949 -998 -2123 -2338 -227 -3124 1346 -499 1138 1259 -1956 1083 2011 2499 -855 -797 6555 1389 -1608
-2910 368 -4840 323 2265 -83 2387 -1575 -1500 -3793 3780 2684 -3518 -2473 -1959 2449 2476 963 -12 6679 5939 2865 -835 -2537 634 3110 -2546 1616 -2871 -1469
919 -78 -2348 3371 2443 -722 415 1748 4230 2292 224 1638 613 -365 7260 963 922 82 1375 800 736 -2563 -4889 4082 1475 2412 2393 3876 5170 -2443
2829 1676 -3548 2698 2639 6487 -820 -484 2292 -3648 -2346 4348 1472 -4973 -540 -1812 3509 4259 -411 -1313 3351 -131 2099 2059 1763 -582 1052 5257 3638 -147
4347 4089 3023 5774 656 802 590 -1757 -2183 1286 682 3106 -285 -669 1671 1670 -3581 -1790 -3731 -1760 -734 298 -370 2547 1605 4827 -486 -1783 3817 2183
-2728 975 -4921 -3962 -2978 -4219 -1536 4137 -646 2221 1641 4812 4058 -4186 -2607 5158 -478 2317 6109 340 -536 -1895 1101 -1059 -1499 -1616 -3680 -450 321 892
1314 -139 345 3297 1225 -1892 -2157 -1996 1022 2323 1526 -2603 -2068 -2453 1261 4769 -2965 2804 514 1322 13 4456 -229 1537 1279 3139 -187 -1388 -2405 -207
3248 -3272 -493 2073 1539 2923 -1497 -1662 -2183 -726 -2057 652 3210 -2659 -3071 1695 -248 -896 2244 3872 1685 -1495 -2205 -1880 -3929 2979 220 -3391 -50 -176
-2340 -1751 1550 1212 -3236 437 -5730 573 -719 164 1410 2756 87 -2625 2393 -199 3616 -2697 -2469 -4144 736 -432 4292 -5092 -3852 -1301 2095 1087 -1580 -2388
-2065 -608 1994 -3657 682 2078 -42 3878 2040 2090 2231 -714 -141 1918 893 -2605 5705 1856 -1784 1202 -968 -5001 2000 -1369 -426 64 1098 -1381 -144 -231
4583 -458 555 -2487 854 -194 -3893 -4399 773 -613 2720 1109 -927 9 -181 263 1310 444 -5854 -924 186 -3023 1190 -3677 390 876 -1099 -603 -126 -1295
-2177 -219 1706 -653 -4559 -1259 856 -4005 -570 -132 -2391 547 -2003 2014 -4020 -2688 3961 -219 -237 1285 2689 -1974 3954 -1222 -4033 -776 -184 -3502 -3944 1320
1107 2582 1087 1149 794 4320 100 -1605 1808 -2224 -3448 4588 -1074 18 1432 2824 -2132 379 2749 2306 4732 -6128 -676 -5767 333 -3957 -840 1834 2822 2982
453 -3576 -2691 594 -4601 -2703 -2239 1074 -775 4740 -1555 2429 3372 365 304 -75 -475 3375 2548 -4148 593 -1419 4189 1327 -1332 -603 717 5042 5072 -4172
1174 390 2852 -595 -292 -63 -4006 -2100 499 356 1295 -538 933 1296 3173 3500 761 971 -741 1570 3442 2634 5465 -3847 -6897 2217 1554 -1386 2223 2775
3471 1347 -6065 3077 3311 1827 -2612 1595 -2462 -3677 -2604 -2130 740 -2868 1940 -1410 -690 -649 -1254 1614 -5954 -3159 -2262 -257 -2681 -2978 -1970 2840 3882 604
-102 -2069 670 -963 3187 1591 -4914 2593 4044 3393 1534 -963 1593 -208 -1306 -3744 -6330 -575 -89 1519 -633 2712 1285 -2393 -3197 2011 1599 -3077 479 -1030
1311 -1799 -2171 2718 1391 -412 1655 -2291 -1944 -1089 -4608 1194 5133 2197 -524 -1432 -1434 3165 200 1080 -3202 -1290 -150 -4159 1109 -1142 -4199 -681 3009 -1876
96 1984 2469 2508 2235 6053 3721 -1312 2360 5563 297 -2764 -4630 -754 3271 -2868 -3324 -163 3441 -840 -1347 -2466 -2132 -424 716 -2228 -1573 -2860 5147 2877
1138 3041 807 925 950 2096 -5063 -1010 -838 702 3627 2415 2656 991 1706 4783 1884 -1017 -764 -1900 -1207 356 559 1290 2834 1061 -4691 -3868 -3766 392
1107 -1007 -1419 396 3046 1546 4033 4791 -2104 -830 -424 -4269 -3339 2354 2413 2510 -3509 -7018 1612 4883 2913 865 -2689 2717 2636 -873 906 -1275 2699 2197
-5191 -281 815 -4552 3135 725 2 -407 -272 -1884 4792 1061 3563 4074 -1344 -4281 -2234 2402 2644 -2441 -4707 -2570 -1228 -1378 -1158 3855 7396 -4699 985 29
4441 787 728 -1993 3702 -345 -691 3370 684 -2869 -2341 -3049 -1305 200 -3688 -2968 447 -11 1497 2079 1732 875 -3548 -2456 4637 -2050 -2998 -221 -1495 -979
-787 -2625 -1869 1440 5204 -506 606 -1759 546 -2211 710 -3154 -1862 3148 5297 317 1300 -1709 -2322 2370 3870 -2323 -947 -834 253 297 -1785 -575 430 -1519
-2088 1924 -1420 -1779 1322 -1588 -2944 -2683 1996 -1156 -3081 823 4297 -771 -591 -210 394 -87 -4209 -568 -2158 -2427 -1481 693 -1015 -2084 -5045 5156 -537 -1868
-3099 27 1454 -3133 -5974 2024 1397 -758 308 2050 -2912 -931 4978 -998 -1004 2 1209 -598 -3857 2733 1184 -152 1610 395 682 12 4843 -2290 2210 -629
-1596 2218 2330 2926 3376 421 1536 -1272 -2652 -1310 -887 -551 4296 164 -2373 -565 -2038 -3124 -3148 558 -1093 201 5979 6547 -3957 -5525 2793 -363 5489 -218
-1132 -1295 -1223 2294 2729 -2044 1497 -4090 -2736 710 -115 -2671 -2098 -1796 -4424 787 2309 5560 1543 -2245 135 -524 -1122 -407 -2146 -3922 -2982 -623 373 -4003
-2296 688 4257 630 1601 -1365 356 3028 4276 3009 -340 -1040 1074 3441 158 3642 -2365 -3655 -1815 311 2507 -677 -2254 1928 -214 1306 -1803 2855 5633 1500
-639 -483 -2390 190 -4914 126 1879 718 3257 4276 -359 -1835 1621 -1725 -375 -906 3104 1456 -965 -765 2729 -777 3934 -650 -1435 2307 2640 2807 1551 166
-2973 -2425 1526 -2175 4350 5194 -5725 1425 -2185 -353 -2025 2354 -3282 1097 2999 -2169 4094 -3398 -487 -4640 -2823 696 -244 917 -4302 1655 -3931 -2102 -3108 -654
-1875 -175 1449 718 1575 963 -1497 266 4663 589 -5574 -3593 -462 3525 737 3776 2556 1098 2156 -3653 427 1484 2071 2382 545 1402 -3221 1308 2989 -2427
-3005 3208 -6587 2780 5362 -1778 -167 -1696 -2519 1587 3748 -2291 -3742 281 -2436 -6542 587 3407 -3103 -222 -3217 4273 -1754 1694 -422 1510 -1239 840 -2144 -1761
7583 -2491 1090 1613 -5905 -145 2142 -4307 119 -253 -2721 2301 889 218 3896 -2500 -2688 -3135 1021 162 877 3942 1750 -1133 -1017 -1013 -123 385 -1539 3446
1112 618 -1509 -4716 -1902 3740 1424 -1983 -5117 3613 -4026 1190 1947 -5071 2290 850 973 1646 -2621 -3337 -1644 1759 390 -4022 1065 -3105 -2871 -1269 -1997 294
504 1261 -3684 -2492 1580 5276 1671 1498 629 -896 -1669 1016 3346 787 737 135 -1836 2493 -3895 -796 5 -14 439 -4265 -946 3643 1992 -902 -1675 206
-2556 -3210 3484 1145 -276 -1976 6401 -488 -815 -632 -1511 -1900 1300 2860 -1043 -1876 -1663 295 1705 1862 -1395 2184 3402 -764 -1805 509 1255 1471 -3733 1641
-1533 1583 -660 626 -1738 1531 -1108 -821 -5456 -245 -2553 -1319 849 590 1118 5040 601 -1879 -3917 -52 -2882 2662 3407 -4791 813 414 -1021 5072 -1059 2303
-3653 75 4073 1095 -2400 673 1198 2210 134 453 601 -2301 -1037 3603 -3883 -1203 3137 440 -206 4829 3055 -1603 -1582 725 1976 1049 1856 -5076 -24 565
-453 -3325 757 481 -1414 599 -3754 2386 -181 -668 -1092 4794 45 -2294 5116 -1833 -5804 -1472 2646 -2276 1147 187 4650 625 -1453 390 -1990 4412 5766 -1027
-2008 -3373 -558 -180 -1304 2509 823 3491 729 -2588 -2662 495 -3401 4221 -3088 -2061 5221 3911 1581 -197 2127 386 1027 -984 -525 -2236 -5628 -181 1576 1861
2065 -999 739 -196 -1644 56 -914 -2914 -1721 5570 3199 2368 -3098 991 2332 -1198 -5547 6195 3946 -552 2251 -6768 5986 158 -2528 3889 2098 255 7889 320
269 -2126 7341 -337 3362 -1533 1575 -2634 -2926 -4669 1320 -705 2334 -2626 -2099 -3350 3440 724 -1363 -656 -1886 -2349 2898 -1530 -3540 -2693 1682 3908 -3537 -1659
524 2528 -5287 867 -4746 697 7174 -3562 1319 4351 -10 -221 -5629 1046 2024 -1294 -3062 2700 3191 -2846 2313 3254 1440 425 437 4747 1169 -1483 -2616 -1043
-904 -1048 3084 3082 -3580 -1786 1256 3969 -1110 1935 -901 -693 1749 42 5223 -4688 6692 -1766 26 -2481 2849 -5985 3174 -437 -3194 -347 541 -1612 -164 -1187
-454 5517 2109 -2087 -2322 5055 -3494 3578 -3351 4244 2558 -1957 -3451 1619 3000 659 -950 568 1497 2327 1336 -2889 378 -2720 335 3858 -4515 -3722 389 1003
1813 1218 -844 -2772 691 -2240 5192 -2821 -3051 368 -4277 2246 1216 1196 1201 -3821 -424 1606 -2294 3777 1310 -1748 2564 3106 5222 -1068 -3560 1744 -3183 -2824
-2489 6385 234 -2246 1675 1033 -2517 433 608 1566 2098 -1102 -3360 2136 4041 437 -3309 -1904 731 -418 -302 2238 934 -2319 -3054 103 -176 -4035 -2099 -873
1863 495 -3750 -4518 -2333 2077 3211 -3632 -3930 1279 108 -5602 278 1307 4082 1045 -3089 -1880 -1333 -235 2585 488 3183 -1751 -2217 -2827 3558 -22 682 -1622
-1443 4899 -1875 1853 -744 -1991 -860 1931 1253 462 -2969 1461 -1211 3880 -3246 -274 -2556 636 2602 -1757 2358 1299 -4099 -2460 2145 555 -877 -2213 -609 -290
631 124 -4307 -1069 274 3768 -2242 -90 -1963 -1792 5031 -4088 2888 -871 -2258 -481 492 -2571 1615 -2333 242 4394 214 665 -1815 1497 2429 -3772 -333 2948
-1120 4771 2762 -1702 -1750 2615 4979 3501 -2210 -571 -3834 652 3917 -431 -5838 -1700 -4978 2950 784 -361 1257 2313 2888 -11408 1087 -868 2840 -3146 2234 -5065
1769 -589 1417 -2173 -1758 2828 -1486 -1952 -281 -762 6502 -1110 2767 -1362 2185 -377 2173 3814 -4180 -4408 -615 1266 2537 -209 1182 3035 -3254 -450 2152 5484
-2498 1990 456 -246 2490 2224 -3277 663 -1198 -259 2156 -1461 -1438 -1985 -1183 733 -7840 -590 1221 2176 3889 -725 778 -1776 1716 -3419 73 3399 -1986 3127
1619 1817 -2153 -1642 3074 1052 856 1399 -1379 1159 1023 731 -2652 1315 1932 1252 -332 835 -5098 -3738 -5717 2635 1646 -336 -1549 1749 1384 -2605 -2445 585
-784 808 897 2666 -5488 499 1348 -426 -951 3088 -1642 -1414 903 5159 251 902 -2343 -2965 5255 2349 82 -157 6807 3448 -4338 -4558 2552 736 -570 5996
1647 462 -2642 1343 1722 3044 -2498 -2567 -3757 -1451 3833 -2968 2006 -2986 1828 1758 -5381 5651 1046 -2168 1306 -989 -6890 -2164 -178 -2504 -2 -1939 -1964 675
8 -2580 -1337 406 -320 311 208 1220 5001 365 787 -2116 4565 877 2879 -1716 -4822 -1327 1362 1241 -442 -3056 -599 6353 1315 -1661 3289 255 3011 -257
-255 784 1950 -4363 -524 3490 1856 -1578 -2677 1827 -1999 1549 -1144 1799 -1351 676 2421 1312 -2956 383 485 977 -2651 -2834 1553 2643 256 -2151 3405 -1829
-1639 -1607 -165 -5530 3049 1687 -3709 -1324 -2005 -3325 929 1449 1205 3482 672 -2112 -3890 1923 -571 428 -809 -3167 -3885 7 -1368 -7502 -3664 -1802 -4460 -3536
-1983 2611 -2091 -304 -3031 -2163 3557 -1425 2784 3211 -1305 -4854 2118 688 -5601 -1365 -4830 -4038 882 672 -1562 -3548 459 -1228 -3156 -641 2697 3091 1501 461
2459 2696 -2392 -1493 -644 -2244 -5269 -121 2352 2264 2203 2791 563 -2057 -1729 -1505 -4036 -8219 1917 4251 -1878 1442 2035 -1971 -470 1777 2457 5745 1516 -895
2637 600 4106 -5064 -935 -1574 -1884 -1169 -2909 3226 1616 -611 1164 1784 1241 -969 -505 1324 8286 6298 300 -1004 -3821 -2232 -2046 -1649 -1696 -1229 6463 -133
-5906 2228 -2436 -3736 541 158 -4391 2218 -4241 -208 90 -5004 303 -912 969 1873 -1210 1548 -2368 -2168 -1789 -3129 -4724 -1153 -2865 -5025 2718 -19 1359 -2383
-4130 -835 556 5163 1630 -4399 -337 966 228 -1579 -1322 -498 -1220 -3325 -1892 1622 -1333 2134 2644 2726 -3144 208 1762 -3499 -2510 2675 193 2127 -3730 281
-3760 1927 5975 2221 -1500 -5547 294 776 871 2607 -2567 954 2327 -722 1299 122 466 -4117 -519 1306 -1156 3279 154 -1198 2934 837 3326 -1100 16 -232
-2888 1678 2905 -437 -7880 3190 -2457 3336 -3473 -1372 -305 1835 1235 -1757 -100 5977 258 -4658 -5743 -3104 -678 -5394 -6037 1782 -1993 1191 75 -3899 2461 2151
1649 685 6702 -300 4 -1597 3266 -25 999 -3663 -1235 -3620 -906 -1968 5426 971 -211 661 -1695 -761 -1857 -7884 -2679 1442 -791 2374 -1287 -2707 2459 2315
-1227 1890 -1549 -1320 1603 286 -1823 -3316 -6844 1246 -1547 1192 531 -5799 -1541 -914 -1975 -772 2701 1361 3903 -1842 2993 3946 -6004 706 1872 4001 -1182 -3373
3823 4740 -614 781 1034 5236 5756 -3513 209 -1661 -3146 -6151 -1781 1611 -3106 1579 6152 1208 -532 -202 -2761 1087 4313 -5241 -1210 821 4117 -3721 -5719 4686
1234 1010 -1579 758 741 2337 356 -2889 3571 478 1414 497 4433 -2015 1746 5028 -2472 3150 -1660 -2304 -4147 -2838 244 1001 1324 6594 -3126 -3191 -1252 -386
1751 -342 -467 1464 -6355 -1132 -1430 -942 91 -2009 -3217 1569 -1773 -3963 -1614 -3157 -1931 -3299 -2052 -3943 2285 103 2446 -676 -1760 -1941 -2067 -2125 -724 -2282
2846 829 -3443 -574 -1136 2315 535 3104 -1762 1909 -3662 -2857 -6773 -1597 -235 -2260 -1510 -2088 1502 530 6471 6212 2138 2266 2976 935 -2383 -3858 -447 -1010
-2738 -5084 -5276 -767 588 1080 -575 1415 -787 -3619 481 -600 4030 985 -2542 -5868 -1168 3736 -3820 -2176 896 -3606 3765 1263 1076 2292 -7316 3908 5011 -1344
-1996 -3058 -1802 -1927 1722 -2901 726 -2549 743 -2399 1718 -2698 969 -777 -3029 -689 -3902 -189 -6319 603 -911 942 -2407 1260 1599 2724 -1681 697 -2338 6796
510 -2146 -3483 300 1426 -6930 -72 -1699 625 -6377 1703 2206 4833 1207 3560 -3308 1473 10 1143 -951 -112 2284 1088 3905 2472 1761 762 2712 3787 2474
3212 -833 5011 5327 -1385 1952 -2929 558 2884 1383 3443 126 555 1524 1475 122 -601 3695 5165 -1693 -1719 -776 -931 685 -3544 -1594 2201 -1064 2079 -415
35 -1815 1171 1988 -4150 -3512 4733 720 830 1867 -6525 -277 3738 1938 -171 3015 3248 2448 1041 -884 5338 -3137 -2903 -4308 1047 3540 -2362 3922 -112 -60
-567 -1309 1006 177 -1095 125 -8784 -689 -158 -825 -3420 2829 1325 1851 -2533 733 -1674 -2924 1615 1554 -973 -1883 -446 1819 16 -3482 2314 1211 -3486 1395
2857 -2802 -2553 -3447 -1376 487 -2108 -3174 2259 -959 1953 -4260 714 -5524 -506 1740 1685 3248 360 -554 -573 2939 -476 -1166 -1801 -1305 4339 -3275 116 1393
1702 2037 -1069 4508 1915 -8749 342 -2422 -1414 -965 -635 2402 -5921 -200 808 4859 214 2093 -5153 1856 -442 -3132 1174 -28 -5317 3248 2642 -2626 2172 -3544
-1829 -3760 -952 1771 -1874 -2121 57 -749 295 -7545 2880 -536 55 5273 5986 -782 1195 -1472 -2104 2451 -1955 -3740 -444 3940 -3118 -1143 3196 -4805 746 1549
-2021 -4084 2149 855 2487 -748 -1841 -4219 -926 -1964 -2935 4466 -5352 917 -2335 -124 1652 -1316 2330 3297 4090 -1543 1275 -1640 -145 -4798 3589 -2166 1026 -2653
1091 -1635 1974 -2116 -363 2859 798 1340 3224 -4903 -1557 664 1117 -4377 -4223 -2143 1514 -3160 4213 2969 -980 -814 1449 853 -2673 392 -3852 -2385 -1955 -1246
2155 4412 996 2441 -68 2351 -883 542 2815 -1583 3595 236 1120 -1523 1090 -154 -928 4509 -359 83 -356 5127 461 -1386 -574 628 195 -582 -1435 1464
1430 3806 421 1266 3538 673 199 1042 -2162 -452 2851 -919 -875 -5474 -1783 -1215 2589 4810 -1435 -2367 2561 -79 -7954 -2569 176 468 3585 -3133 2310 -1966
-1629 4073 -248 -4645 -3148 466 1455 4720 5662 1650 -1410 -1903 -1519 1560 1675 -2673 3424 -1713 -1875 738 1949 -4969 -342 1467 1314 3983 2418 5023 1995 -1089
-935 -713 -2220 -3286 -1406 -3962 -762 -109 2168 -1585 -2182 -39 -4780 602 2205 -2660 110 -773 -501 -1269 1771 2706 1564 -3981 -277 1937 -1272 969 -2352 -2683
-750 -1715 -1680 -846 3085 783 -2842 -2596 -1152 -1212 -712 2814 -2191 2962 -1250 2716 1385 -259 -817 3564 -269 1729 -2901 208 -906 -3495 -1892 -3456 818 1408
1564 -1322 1371 507 1929 4321 1649 -1448 -758 -1830 -1069 2105 -2357 -1525 1093 -227 104 -852 -1632 454 601 1450 2224 -34 -3429 -325 1296 -2913 -1339 -891
895 -2116 5687 -2966 -450 370 2479 -1093 -1233 1549 -3666 774 3432 -68 -617 2126 -786 -1950 1562 1744 1057 2006 466 3269 1675 784 -3074 3452 43 -2058
-3465 5765 -3668 -1406 -206 -1901 -2777 -4244 -1979 -5959 5539 82 312 193 1715 1633 -2820 742 -3950 1585 -5657 2712 -272 -195 637 868 542 -1421 1428 95
-1145 -723 -1700 2115 976 10 599 338 -4312 1406 3014 -1156 2945 5745 1027 -2128 1033 -2006 1047 1102 -1162 337 1173 -782 124 974 -48 840 -3027 4669
-4654 -3113 -3713 -3340 -1625 -1390 302 2457 -2463 -3203 -1094 923 575 -4633 2389 -1484 6465 1871 889 -588 -2875 -1143 -1270 34 -1450 -5240 -2141 -1410 -1133 -2386
-834 -3640 1942 4536 -218 2938 -1501 -1635 33 71 -1134 -976 -630 -381 2516 996 -4585 -1145 -4245 -318 -471 -1435 2371 269 -899 -815 -53 -340 2635 144
-425 -1070 -5916 -3974 -1920 2060 -2151 -1456 -467 2175 -833 2870 715 278 -4853 974 -2307 1241 2243 3883 995 1635 -2669 -1668 756 319 -679 -1680 -2413 2000
-718 1030 1402 3846 -1158 370 264 712 -626 1335 2514 -1164 4238 1111 -662 4437 -2125 64 -3009 -2830 -439 -1402 4529 -138 -1262 3086 -2743 4046 1027 -389
1017 829 -384 -2080 -85 -2986 42 -2341 304 -1567 658 2698 -1221 -1121 -2915 -4515 -6828 2451 3068 3301 3492 -1893 -2770 2541 2600 1538 -165 -2362 -213 1246
3935 -1939 -2017 3109 -4 418 -3824 1542 -5823 2950 -1507 2118 1084 -1895 -2323 1813 1626 -6429 1766 -5990 272 -83 -4187 2292 -2603 -593 3605 288 -3691 -1330
-1215 1625 1569 -789 -5 1708 4864 2009 2563 -4600 3782 -1523 -276 -821 470 -3988 -2312 -1114 900 3054 -3124 1871 1536 828 1433 -2385 -3826 -1089 -132 -996
3510 1157 -413 -1164 6191 3552 -4584 -371 1078 1610 -2300 -3205 -4060 -228 -794 2070 -2980 -1138 -934 -1497 1008 -6611 -1971 -1279 -340 1042 3193 483 -159 -3600
1265 -1194 -1795 799 -2339 212 -92 -1524 -1956 -3183 -229 2973 -262 -1237 -2843 -4864 4131 -5579 -559 -2329 104 -829 184 -1946 -98 2680 -1020 -445 -1778 -1620
-372 2145 882 4204 4438 -3364 -576 -1325 951 -1064 -6268 -1297 -4764 -431 -2003 4796 -3855 -2751 941 3828 3245 -197 613 1641 -2054 -2740 795 -1150 -2904 -1689
2670 -436 -780 -383 2009 3804 101 -1657 603 -2605 -466 -1755 -1301 -4799 -589 -3094 274 -626 -302 -4255 621 -4825 -1128 608 3157 940 1606 -1332 1866 94
-601 -1810 1203 -889 -4080 -1873 -1949 836 -3045 923 835 520 1835 685 1321 878 -3339 1012 -1388 -268 3609 7219 702 -2472 4170 2773 3400 -1236 -1973 2291
474 2726 1194 590 1726 1721 -554 -1682 -2244 -615 -2814 -3780 -2421 -3402 2287 -1712 -984 -1663 -1135 -382 -1342 -5650 656 5460 -3152 1260 -2635 -3655 -312 -2351
717 -614 -264 294 1072 2080 -409 4319 1848 -12 1107 3061 -440 -3882 -2807 2693 -4602 529 -124 546 1447 1663 -1697 1968 454 -1759 3239 -347 2791 3451
167 -2261 3778 -160 664 -2118 -495 -1128 -2318 707 -1378 -222 3569 -582 -339 -1332 192 2571 128 -1693 -3177 -2385 1202 -869 1445 -16 3808 -659 -3470 -2476
-34 742 -3849 2827 900 3300 1136 -547 4425 1559 -170 -725 -2114 43 1428 -165 -1751 1944 -1947 -145 -2239 48 -4571 1059 782 -181 46 2621 2755 2972
-1140 -220 -2366 -598 1662 2756 2617 -5646 -3606 5027 3197 875 1209 -2176 2705 382 -294 1080 1397 -2644 -3469 -177 585 480 3362 1834 2151 -2164 1579 -1603
3182 599 2650 1366 -1972 -1349 2261 1171 1715 -2297 -1864 796 -6713 -113 -4536 4213 4670 2082 2822 1435 378 -1605 1643 818 699 -908 872 2407 4369 -339
-914 -1999 -1577 381 3088 1019 -1561 -4657 -888 133 2889 1385 -1734 -2486 2072 -438 3160 -982 900 -186 -45 621 -981 -1226 -574 -3871 8218 256 1515 3410
480 1577 2402 -3274 507 -1973 -1094 758 3115 5938 -4103 -1608 -854 -2448 -3195 3594 -1274 774 823 8 496 -2376 1490 2140 -628 672 -758 519 442 -3193
2493 -1119 124 2497 -312 -28 -1350 -2542 2429 -3228 3679 -2250 -4592 762 885 1725 3267 -3403 -3651 4556 3452 3823 98 1175 1062 -2484 296 3676 389 599
1613 3642 2519 2800 -2997 -5181 3601 2366 4168 805 1636 993 744 2543 1959 -2818 -4082 -2248 -3977 -692 1598 608 1367 -1600 -276 2312 4827 2315 -865 2932
-435 1369 -2292 -5577 -1547 1669 -914 3949 -2605 -2502 2798 1928 2819 -4552 -3071 -623 1757 751 1053 -2510 616 -509 -3348 -1150 -1386 3038 -1935 684 2278 663
-1064 707 3879 3157 -1323 837 1500 1112 7621 3767 -1149 -508 -1989 -1713 -2738 -4238 -1743 -4326 -1817 431 -3296 -547 1444 -405 3947 -409 5686 4638 5992 -693
385 574 -1221 -1001 3063 -2253 -819 252 -1068 3400 -1557 1387 -3558 -3298 -1447 1413 2469 2021 -6776 -2570 -4761 -1714 -3667 1053 -508 -3509 2811 -2079 -2456 -1471
-1794 -1671 1816 41 -647 -1312 1828 2427 2951 -76 977 703 -622 711 -1608 426 -4936 -1179 577 -2420 -1422 -398 -661 1021 3055 2604 -3055 -2676 110 516
-160 -511 1320 2679 5027 -652 -983 1036 -855 -888 3144 1880 1815 444 -485 -353 -2667 365 -3912 -1829 -1390 1104 1335 330 -2291 -4054 701 -214 -3674 1401
2502 2246 2147 4962 1962 -2062 2151 2389 2186 1702 -4641 -1254 1942 -1918 -3392 554 2841 61 4254 -887 -972 2215 -747 -2616 -269 3520 3518 901 305 1026
3444 2123 -1189 -5342 -2067 -1406 360 -619 4096 -4080 -1566 5360 -3524 -6845 -4689 -251 -2161 -1 -4372 -1996 -1432 -1002 1507 -4544 -1945 -1574 2315 -399 1934 -1591
137 -1167 194 -1449 731 4034 1429 1100 -586 -188 656 -381 -835 1542 719 -1550 3213 264 3640 -1135 -1281 -681 -3651 -5205 2848 -95 -1049 174 2746 501
-1605 -3191 -5366 1452 3213 -1016 1366 3354 4135 276 -3109 -240 1119 84 1819 5706 -2874 4446 3217 -2648 -849 -1681 -3177 5535 2955 -579 860 -1619 -2454 -1428
2438 -3977 1695 4619 405 1161 2665 1848 1858 575 3352 -2448 235 -428 1369 -3051 1613 6625 -3706 -5195 -2813 -2156 1804 2312 2241 2431 226 679 -2969 167
3959 4898 2780 -1653 -5333 -3275 -1007 -5629 -634 -2244 -596 -2192 1158 630 -253 -9531 -1027 -3937 3030 3735 336 -358 -2977 1879 -997 3391 1521 -1049 -844 681
2764 -1929 1656 -1109 -3064 271 -1238 -315 -6550 281 4434 2105 3241 -1120 3475 5977 -1693 -4262 2332 -4759 62 -3943 -22 -1662 -428 -297 438 -236 1167 1456
3983 4892 813 -5118 1131 1613 6377 -3057 1049 -2028 597 2901 1212 -2445 1550 -7764 -5061 794 -2731 -9 2880 1861 2355 -843 744 6266 -165 -919 832 1719
-798 -2095 -651 3780 3571 3538 -5204 -1572 -1289 3458 -239 2946 -569 -2095 1730 -3248 976 -3184 -988 -838 -5008 -2111 6042 -155 -348 3280 1749 607 -1345 -3222
-1601 -1813 -507 -2787 -2087 2938 -966 -1369 -2749 -1307 163 969 968 -662 1790 1112 703 -1633 69 1827 -3643 3366 3957 -5940 4482 -1733 -2364 -2975 1715 2835
2454 6565 -1705 -2868 -749 -1130 -1106 1160 -390 5529 -2225 -323 -2772 -922 -549 1448 -410 3421 1669 1371 1296 -1330 -2240 -1419 1472 -792 -1443 740 -1866 -3130
793 -3234 165 350 -665 -2733 -2341 -1021 -2159 -668 1317 4781 233 -485 498 -1213 1334 -1302 -1747 340 -4122 756 -867 -4293 2995 -1636 317 -466 -1310 -1424
-4511 -4388 -2128 -1357 3441 1847 2060 1223 379 -1701 -2214 -4962 -127 79 -2455 3283 580 -504 -1333 3072 5438 4389 -2513 -112 3213 -3994 -1332 -3488 -1931 -419
-1514 -1008 -85 2005 776 4507 -660 -1834 255 -189 -1187 1083 -2192 -2033 963 -3678 -2266 48 1306 220 -2030 -1700 1826 -262 -6091 -2703 -1901 3770 7376 3029
-46 -525 1936 3127 -945 936 -6470 -1048 -1582 975 2896 200 -1576 4179 -1716 3834 1259 -390 -1362 4186 -342 745 5260 -1405 1737 -2431 -604 3926 -899 587
-692 1124 3185 1028 -1384 -1873 3043 -2678 -3406 -392 2861 -238 50 -2281 -3099 -3016 4389 2377 -3439 -127 -491 3080 3039 525 241 5499 -1528 -5014 -1717 313
-1026 -3916 405 2748 -1409 970 -398 4402 798 1158 474 -1531 783 2370 -2742 76 -806 1078 -1255 -194 -1530 1575 853 -805 -297 -3635 -379 -1351 4828 -1207
-835 3396 -625 -833 972 853 -586 375 206 3572 -3043 163 -574 -2791 1933 -743 1191 -2588 2018 3638 2991 1438 -504 1596 1658 -71 -4735 3453 -411 -6146
1492 1077 -2423 -2754 -1430 521 642 5924 1572 -3315 753 3072 788 -2970 574 1416 901 -71 2940 331 -1900 854 -1367 1216 -718 -1817 -152 147 -1890 3546
-4197 -3571 2288 -3495 4203 488 2243 990 -3602 -1487 1381 1746 1197 114 2859 1251 -152 -1441 -956 -2926 -195 -835 -4746 -689 3274 5367 3388 -4919 3724 -1206
459 1226 -3347 971 -907 -2007 2033 -66 1464 -2825 2830 -1151 -3042 -1808 2267 3472 3584 -281 -1972 4165 1481 784 -319 -2499 -116 5966 -4513 505 -1096 530
853 -2266 -8 773 -1862 3128 -1387 1464 -1548 -2950 803 -3751 -77 1871 3195 -2226 -3083 -4289 2842 6216 290 1327 -3872 -3934 -977 -1395 767 5603 126 2873
-1963 1674 -409 -837 -1933 -2021 806 2879 1176 3790 2497 -1880 1236 647 -4662 55 -2612 -1224 1934 -1943 2663 -1345 -691 -164 23 8110 -188 -1337 -398 -5610
-883 4150 -4240 -1589 1856 285 3329 -1344 -2178 -2713 5431 2237 1148 -4383 2015 -779 1465 566 -1409 2388 1339 2285 2216 -1804 -1138 -3287 -6391 2882 3485 1538
876 5134 2384 2526 -529 -2281 -402 -1523 116 4031 271 -2547 -5277 4081 1196 -383 1205 828 2945 -2119 -3 2603 1407 1992 2228 649 2758 -703 3566 -16
-2398 -344 -1692 -760 -53 -409 -2836 -1253 3181 -651 3582 -3379 -2631 -1899 -1634 4781 4086 -1634 -2281 -3928 -674 -4954 -2834 -157 -1794 -1723 789 101 466 1575
-995 -1438 219 529 1247 1323 36 2118 4697 -1795 -4396 638 2304 3505 -1992 502 -2008 -1409 -5839 -761 -768 -561 5249 -299 1802 2534 -213 3070 2886 1982
4184 1840 -1025 863 3358 -1254 3052 -450 3327 -2931 -813 -2117 966 2790 517 -1431 -181 -1365 347 -977 -534 1609 338 -627 -2072 -3304 481 1826 2308 190
1821 154 -1452 4453 995 -236 -1643 -377 317 -2016 3842 230 2396 317 -1743 2960 1111 -166 5946 -266 298 -2542 -1121 -1448 406 334 -2941 -2679 1661 -2523
-1381 -433 49 2660 191 -69 271 3367 -328 1925 -2580 -1607 3491 -2581 -2762 -796 -497 3351 2191 -1573 3662 -81 -23 1026 662 -864 1971 3096 49 -1011
-272 -402 2759 5561 862 1586 -850 -630 1995 -2161 120 1916 2185 -1526 1426 1805 1120 -29 -1609 454 -2498 2438 -1252 -2283 462 1898 598 -439 -355 -1149
1783 -659 339 5234 1784 2354 4694 -991 -993 -377 -1615 -3329 349 -47 333 3192 1298 717 735 503 2906 1657 -3094 -1829 -3421 1663 -380 1097 -7526 489
290 7433 -1513 -2213 4198 -320 -2449 561 5373 1724 98 1008 -1922 -2895 -180 -1740 4003 4238 -3458 1836 2720 -1113 -2878 2936 -506 3973 1114 1130 -1850 -480
5159 625 970 1532 -2419 2008 2578 2433 2305 -3321 464 6648 897 2167 3510 -4166 377 554 544 761 726 -5082 361 -1242 1338 485 2231 -285 168 4137
-2922 1499 2479 1180 2131 3236 1764 2231 -2217 353 1781 2349 -1685 1668 785 1977 1301 -840 1062 -4378 -2446 3938 -1896 -1209 1776 -2825 -4659 -2730 455 4533
-1070 -3975 -2335 -2113 -593 -1984 -2275 -886 2069 3539 3200 3774 436 -1145 2747 6448 -3898 -50 -2269 1942 2873 -5209 939 2344 -521 -1267 -1089 -3683 -736 -3578
806 -1467 -159 -1982 -88 2617 1557 2579 4131 2233 825 -1352 -1425 2750 909 -5383 -3248 4526 1156 3465 -197 1964 591 2186 1611 4683 -286 -1664 -3999 370
2081 -1192 -8587 1026 -1271 1467 -1751 1308 -454 2879 1209 3884 3369 3715 -2670 1143 -1108 1467 -283 -469 -153 203 2181 -3467 -2001 2701 1659 611 -587 -3014
-2907 2440 323 -1289 -373 -2070 1166 -495 3535 5079 4926 -1091 -82 1881 -5535 694 -1633 761 -461 -1176 -928 -1404 -3480 1074 3821 -478 875 -3589 2698 2277
957 -3158 3295 -1398 3428 -767 1837 1985 2816 7140 3456 -2102 3176 2473 -977 -4099 -3177 -463 -2604 300 1240 3603 2129 2187 4586 3943 2087 3521 125 -1622
-685 1486 2783 -195 277 561 679 -56 -305 -4304 -599 -2140 305 2870 -1818 -2421 1368 -1311 -6026 709 697 19 185 -273 -612 1403 -3951 1629 -962 -1023
-2468 -1347 234 1646 1292 -479 1698 1484 2231 1513 3956 -1165 242 575 941 4271 -3024 411 654 -157 1661 -3525 -898 594 -3018 -2454 1596 -2765 -3051 -1741
2913 -1500 3124 -128 2576 -136 124 -348 1365 -1621 -239 4914 3149 2066 4384 -190 7996 -1000 -2675 2591 -5068 -3584 -3459 -2257 -2711 -1821 -4510 4110 -2590 -767
-2956 -602 -2390 -934 1177 -1470 -598 3155 -4470 3522 -2372 2608 -1440 231 -2595 1633 -3921 4887 486 -2281 -5186 2534 -834 -3090 -3252 1495 1059 -737 2249 -1474
-1346 -4050 3369 1155 -438 -1282 1218 3391 -3373 -2541 -21 -5093 -117 1707 6055 -1268 4153 -1128 424 135 -1460 -2577 2573 -1749 -5930 -3517 5328 -4206 -804 -962
323 1332 -2677 1957 -1329 828 -2167 -182 -123 445 -2444 -2596 -5628 -592 -2520 2072 -3064 -3433 -3643 -866 -883 93 -3174 -1389 -3156 -760 -1759 1090 1404 118
-2816 -4306 -133 -4839 71 -535 1212 -5896 3159 -684 -1956 1 3778 907 -3269 -5349 -609 1563 -74 1834 1595 1340 2154 2194 1307 1246 412 671 1107 1069
-332 -331 -1635 3558 1984 767 -1536 1433 5742 -3748 393 1787 -2546 1807 -5312 -2175 -1002 1661 -2156 3378 1295 2043 -3885 2686 198 -4303 -1900 -3069 -233 3858
-2423 -758 561 932 4522 4645 4455 684 -90 2073 954 -2972 3609 -4347 -1153 -1937 -1730 3070 342 1977 3198 612 478 -2020 -1562 -282 2285 -3671 2213 -2298
411 -294 -89 2013 -494 2781 3184 -1025 5055 -248 -269 1798 -2392 1206 -1115 -2533 1909 -775 -759 -1783 -263 1073 1755 186 -96 5540 -6474 2199 -3620 869
-292 -3741 -3387 -1384 1846 -1144 49 3287 909 -1292 4419 2127 2464 2586 1001 -4413 -1047 -3252 -2428 -2187 240 825 1405 2756 1501 -1717 -2196 -1478 945 4504
-1259 4039 1795 -4272 1709 1892 128 1739 -3237 -1722 -2539 1461 2895 3234 -2404 -3178 -4082 5540 -1631 -1504 -2220 -2204 -829 -955 3689 2245 3535 4672 2881 -1408
3157 -2698 -7528 199 1864 1080 -3190 -3340 -645 868 2013 -1261 -1424 395 2660 2668 6737 701 -303 -463 -4065 3805 -4472 1129 1990 1954 -699 391 -3046 1262
-1160 -141 -1014 -2509 2258 -3815 -2246 -2610 -2355 961 -5786 -541 933 -1362 3168 3956 2021 -45 5363 1723 670 -1697 -2196 -1865 1613 1212 1173 1043 972 -1926
-2916 -2909 -1456 -5551 -1162 -591 -3655 -147 -3616 470 1464 1298 -996 -571 2001 -2830 1062 2190 -9244 1870 -2156 -271 -1955 391 -4329 351 -4713 -4289 710 -2083
2145 256 917 -1690 -4050 1411 2830 -4184 -1155 4129 -2314 -1777 149 4393 3560 -1443 632 1301 5344 2628 1405 -160 6390 -1498 -4014 -1132 2202 2015 2202 -166
-817 3071 -1535 -1074 4560 1596 -1579 -1845 -2723 596 3358 1147 1619 -509 -1011 713 3149 901 876 1601 -648 -705 -2244 167 -277 -739 -1696 869 1027 -186
-455 -2691 -238 4624 1523 -3606 1589 2654 3063 -572 -4869 -2451 -2377 -1588 -724 307 138 -244 2147 1831 2126 -280 -523 586 692 757 -1168 -181 4080 784
78 2038 -509 3332 3402 -3135 -2866 5384 -462 4400 -957 314 -57 96 2062 881 -3200 27 -2909 946 685 1202 617 1999 232 1603 3184 4143 1130 1970
-231 -562 -3020 -1907 278 -1251 -924 -1202 3851 -2683 -183 -105 -1548 -1190 -3819 -1416 -445 117 -760 -2100 -2880 -854 3746 -3983 175 -743 1726 651 -13 -486
-259 -649 1285 123 3517 -894 -2614 -2947 -1878 446 -4394 477 1342 1989 -19 -1007 5814 6522 222 -836 -3178 1381 1397 -2269 -6423 1033 -8523 -1109 -6876 805
-2060 -3894 -3251 -2190 3245 1748 -1013 2185 -157 -2176 958 -4831 -1771 913 -198 -730 -1376 1491 2688 -1118 -3510 3715 -1593 -5480 -3048 3715 830 -2914 -2191 1807
636 1499 -956 3747 -1034 -2024 4704 1689 185 2756 -376 -4216 3701 1525 -1361 -2109 -970 4184 -2791 -2446 -4444 1150 -1336 3936 549 -1190 -1263 2170 -2457 1082
1727 1453 712 -2766 1022 -1802 83 -1876 -2898 -446 569 1183 4616 5916 -1027 -7059 1804 -477 1 3003 -6561 3213 -1699 -5103 -4491 -1481 -2947 -3604 -2381 -839
-1224 556 -901 -2394 -843 7052 1206 -6615 -1510 2609 570 2225 1208 934 3046 6676 -2671 -4158 -5197 -2711 -1591 424 -535 -2241 -1580 -1129 406 -4557 -2471 909
-3162 -3171 -1023 -1823 -1950 2478 1967 1350 2773 -224 -3427 5000 -1010 1497 589 986 -252 7714 -671 5303 -2866 6953 -120 -4438 5424 1077 -981 1447 1805 3018
1291 3257 -1929 2317 1643 4979 -1620 3168 -3818 -3161 -1580 358 -1810 1771 -1232 -1830 -6462 -3845 5296 846 910 -1126 7074 -756 -1217 3968 5145 7752 -987 3040
-5767 -4207 -3859 -4611 740 1317 2295 -3288 -3414 -1285 740 4023 2598 659 86 -598 -3167 -847 948 4405 855 -120 -275 1559 4394 -2850 1450 4896 2440 385
1065 340 4282 -340 -980 -3590 3993 5420 -2268 5070 979 -499 -4677 -1564 457 804 -4744 569 7778 -3044 -3938 4312 -2094 1829 2317 1589 1439 -2168 -5852 596
-3506 1680 -1752 1944 -1051 7053 1121 -1690 2387 -2960 1874 -303 -663 1444 -2577 -5649 -521 -3073 1730 3640 2636 5204 3766 -802 -1849 3063 -1756 4013 -1905 -2046
1608 -1325 979 3596 3602 -1062 921 2841 -4556 -6860 -4632 105 -969 3692 4478 3472 1869 2351 4026 -4024 1408 -1741 -300 -2395 -323 -404 -1178 -4588 2995 5211
3426 -3312 1253 1404 -142 5628 -3930 1131 3342 2570 61 884 -3987 -3436 -1697 -3089 1019 -917 1951 -364 540 -3002 3286 449 2187 1463 -711 3664 -3320 -6699
3416 5441 4190 1710 4307 30 1048 -6294 -4670 2161 -3086 4451 211 4887 4301 2434 533 132 3972 4066 -348 -3657 1886 -7114 -5502 1912 -5521 -1299 917 854
-1246 -1979 -2562 1713 2602 -1449 2656 869 1020 -806 -715 -4255 -1204 -5794 -1571 -2113 659 2177 785 -1616 -729 2265 1911 -2260 2360 1642 1472 -1535 -8511 -2724
-1131 -90 86 4060 -1052 -847 -464 -879 3840 -961 315 4717 1425 2631 2603 747 3698 3333 1724 -846 2889 -4325 -2361 57 -1876 -3547 -1135 -2673 -5300 949
2225 2911 3894 -80 -974 1914 -506 -2452 520 1639 -3571 2120 -2215 -4483 1723 -185 -3052 -544 -268 -1637 1446 -1541 -1733 -147 3876 -927 -4100 1695 1082 -2434
1215 -2653 -4912 863 -3239 699 2030 -133 -4489 -3434 639 830 -4112 1129 2085 -2504 -2288 -305 2418 -2421 4076 4351 3706 3553 1908 -256 3250 -4728 -3660 614
-11 -1853 319 -3437 -69 3492 2063 8272 -1106 -1642 -4989 1918 5019 -51 1680 -69 -1884 309 -4194 -3454 3196 -626 -333 -4354 6576 278 -1266 -2658 4420 2019
1207 -4454 599 766 -5640 3191 5601 -3548 -3336 3408 516 -3970 -1299 -1725 -3836 -2809 -2138 301 -2285 90 -2180 1471 2134 -2308 -2514 6170 3118 2267 1152 -875
1402 2056 -1764 1395 534 -3076 -812 875 1352 3523 -338 3921 2290 -1087 -5252 -1265 -559 -3914 414 -5649 -2687 3149 2747 2439 2513 -5123 -1166 -3699 2093 -3938
-2889 -6698 1019 -529 -3530 -1108 1007 2276 5290 -870 -68 -4341 -1143 2524 -630 2499 -3028 -2316 -3758 -2392 2670 2818 -2808 539 -1258 836 -520 -1713 3270 -1423
1209 3791 -2436 -817 -1325 -3762 1565 -2207 -4521 -1522 3212 4890 -60 -3531 -5219 -1789 -1726 232 368 -4745 -2185 -777 11 -2570 1110 1944 4217 2714 909 -1641
-147 4019 2458 -5038 -2773 1060 2414 3034 3137 310 2294 -1849 3258 2332 1456 670 3136 -2939 -3960 -1553 144 9095 3663 3233 887 -3137 390 1022 4146 2097
-1426 -2821 4954 -21 -861 1234 -6890 -670 -4386 -3325 5362 -278 -1457 -3234 -1010 8307 1290 2016 3577 3521 -2347 -3041 -1442 -226 -2874 2678 6640 1069 -3181 -2160
2332 -1252 -1976 74 105 -1550 1761 5315 -763 -877 2595 -1937 3450 -4538 -1016 952 -2548 -562 -2456 -5825 -455 -213 4745 810 169 451 1520 523 -2785 2183
1763 1182 -1137 3064 -491 -1668 1597 835 -3589 2585 3433 -3325 963 -961 4287 -1492 -3879 1999 5408 567 864 6596 1021 4491 -592 3180 -947 3803 -3225 2015
1497 2538 419 3723 913 770 -3187 -3939 -1851 3218 2316 7148 -4237 -692 -2463 -894 -1262 -1394 2620 -534 -2174 -6462 -2045 467 -505 -2473 774 2011 2591 2581
-3018 407 -4201 -1432 993 -1250 1576 6751 1678 570 -1968 -366 1037 -494 1344 1019 -3727 5739 -1182 2298 -13 -1034 -315 -1465 3559 7802 9240 -2089 -2741 1285
1108 -451 2746 -1918 2200 4956 -249 -2942 3075 -2893 -1528 -127 -3692 1956 -1188 -361 -925 694 -1572 1444 -840 -428 2032 2907 2660 -115 944 545 1068 -345
-422 2087 170 -2347 6986 2888 3096 3975 -798 -1412 497 -2897 -1791 -604 -4205 598 1398 2672 -2656 -2210 3167 648 -2365 2250 1076 448 3658 4824 -2769 -1188
446 1031 -3418 4916 484 2496 -119 -232 2474 -962 3103 -3344 -571 824 -3705 2267 1444 -2307 -5471 -1988 1492 3573 1412 1563 3227 4819 8066 509 1577 2470
-826 -607 5509 1205 2770 -160 -125 -3570 -462 1057 -4730 2647 3823 1837 1242 -420 2518 -2340 2088 -4683 4046 4222 6034 924 191 1326 4497 2597 -997 1471
401 -1862 1626 -2327 2215 2434 -5604 -202 2874 -2995 -2498 4015 -983 -52 2743 1915 5961 1547 3132 -3471 2232 5023 3098 -882 -1103 -3447 3459 -2184 689 -680
-2852 -1330 -4807 18 1930 5027 332 2171 2024 3441 -1376 -2933 -2946 1192 -2668 231 -2603 1629 4965 -1829 1471 -128 549 65 -2036 -1381 -2630 -4168 1109 2180
-714 -3927 -2252 3165 5118 -784 -1728 -1404 2424 853 -239 1043 183 -986 -3648 -2883 658 398 1045 -2695 453 1814 -4421 -3070 -443 78 213 75 -821 3606
2027 -3073 742 334 -251 -1291 1097 -2737 -1224 1311 3727 2328 3742 1797 3712 -961 2009 -3992 -674 -2043 1712 87 -3769 2810 440 4132 4940 -3970 -4127 1384
176 1189 2513 -1954 -882 4269 1638 -1607 -1038 1244 7415 5749 3836 1599 4275 -4775 -115 2145 -1064 -3935 -4405 80 -4096 -1463 2706 2863 2904 -7034 -2208 2049
2900 776 983 -4573 516 1362 4693 -2199 -2735 1396 8315 2458 3307 1562 3702 -2405 -2394 -2361 567 -1836 2516 -33 -485 -1156 -258 2636 981 -4049 -677 -936
493 6259 3859 -4695 -466 -1359 4030 -4312 1493 2188 4196 -1912 3206 -145 2157 -2066 -3242 2882 -2470 -2077 -285 -1400 3035 374 3257 -1504 -4836 1444 4420 626
983 875 3846 1248 1643 -2515 -348 -350 2094 4847 4632 747 -3451 468 -2046 -3516 -2719 -1984 1579 140 -3125 -3119 -1686 -3959 2666 3822 1667 -2258 -3836 -371
-3008 -1847 727 1958 449 2674 1226 -5950 345 2734 2504 1677 2352 -2671 -3378 -1035 -1124 -3313 -1480 -2659 -3294 340 -3160 -2540 2091 1588 -3085 -669 4046 -2894
-2608 -3164 -4766 773 107 -852 -2169 1193 1450 1904 -118 -4485 -2611 -1742 358 -1139 -6348 710 888 -511 -3427 863 -2602 -17 -706 -3721 4242 -176 -1307 -2803
-1765 -3194 -5970 708 -3002 408 -4454 2125 2731 1554 -2663 2370 -1649 -1227 -3718 -1406 479 -3140 -1478 414 -527 1545 3719 -2571 2543 -494 -1119 3618 3336 -1384
-786 -1180 427 231 3097 -778 -5197 -2486 -3806 -4404 -64 -1065 -2054 328 -2201 109 1473 801 -1698 337 -1603 1866 -3514 -2450 -697 44 844 2023 3864 324
1630 -2375 2952 -4928 -5889 -2778 1633 -2526 363 -6597 -1853 -5199 -5104 997 -1929 262 -201 -2110 -663 -4 -6142 1386 5076 3342 1781 2300 3546 -1112 -1916 995
328 1738 -513 -2157 -2939 -3350 5818 -2134 402 -1566 2215 306 -5696 5277 2586 73 5454 2684 132 2390 -2546 2362 -139 4241 4613 1565 -3739 -4800 63 3870
-1461 23 5704 -615 -4019 2797 2434 -2687 61 4302 3817 -3146 -1089 653 -915 -745 6913 1625 1518 774 252 -2755 -1018 -2558 2084 1239 -3586 -1267 576 -2467
638 869 -4416 272 588 3153 964 2081 2936 2351 -1535 1064 -2130 6027 -1069 -2059 1159 1112 951 4396 1853 -4238 -882 2784 -3242 78 -2685 357 -1321 -2805
-2491 -2811 -1444 -5401 2953 4647 -2236 1137 -228 4671 -2095 1397 4289 1415 -268 -2633 -1437 -840 2581 -1204 3262 -1584 -5925 -3267 -1822 1510 -666 182 -1375 -1223
-757 1993 2676 -2272 877 7407 540 494 2771 -878 -790 904 1358 -1433 1830 -3071 -3870 1598 1624 1838 6809 329 -3779 1895 -2592 -2350 2051 1831 754 293
652 3571 -2495 -2223 7059 -538 -4985 527 869 2588 -902 3685 1887 -1955 4248 1982 1810 3671 553 597 2760 1736 -2896 -994 127 3665 -2393 -5104 2265 1969
2029 -594 -2114 -1951 1195 1732 401 -4119 -1778 -1310 -3524 -2985 103 710 2240 -2361 657 6478 5547 1943 3167 -67 -1167 -343 2815 5963 -680 3656 501 237
3668 1749 1082 -1802 2209 3587 -1232 -2242 -4331 1572 4411 -3185 33 -471 -5130 -3340 3453 -2170 2667 3486 2185 4281 -516 -2662 693 4003 551 -2139 2004 33
3862 8581 1588 -405 -239 2055 795 -356 817 6016 -227 -3352 -843 -897 2325 -818 -3198 49 -633 -2474 -191 -2055 3333 -2675 -3330 1837 420 1171 3507 -257
2205 -832 -2274 -2895 659 3468 -371 -91 -2738 966 4342 31 -1571 -2517 1784 -71 -2506 -2734 -1759 -3278 3507 3609 -5083 -6596 -3611 -833 279 129 4700 -218
266 210 412 2118 -2283 -395 2079 -668 1748 222 1541 -2876 -3096 448 2050 -4733 -2267 -1303 -1362 -2128 -931 -577 -829 -4069 -7710 -573 5355 1261 2411 482
255 153 -2856 -2963 -1705 -480 389 5519 801 4955 161 -2379 -1892 1062 -2130 -295 969 -1792 -5806 -4251 -392 -1296 -2140 731 -2413 1408 -833 -502 -2030 2312
2065 61 -51 -1992 712 3700 2161 -1325 -981 -2591 747 3973 2897 4057 -2031 -2258 -2235 -36 1404 239 -1480 -3457 -1448 -1494 354 -3522 -10125 1057 763 25
575 -511 -3331 3275 2723 3074 -5053 1446 2947 -1953 981 -1387 3591 1926 -2436 4407 2505 -963 -2226 -3643 -1748 197 -735 -1246 -4052 -2830 174 1212 -2956 -286
-2228 2417 781 2880 142 3607 -1804 568 -6182 1603 -222 -423 455 -162 3535 -1379 1745 1081 1859 53 2455 -1329 -2346 -1510 -538 1081 424 -1179 -2276 -3018
205 -3897 2434 -454 429 -1446 1632 3094 -907 -3806 2070 4813 5307 -2432 -1072 406 -5068 -5560 290 -4263 -627 5228 650 1231 -2030 2650 -2346 3723 316 1664
-1132 4949 1447 4472 1044 -1494 -737 535 5061 470 -316 -4601 5091 -2782 -3127 2097 -284 4459 1485 5009 -3074 2271 -3988 1303 3000 -1751 -2648 2985 1418 -2248
-1220 2117 -5031 -926 -488 759 2837 -458 -36 -2563 2140 -365 -3354 1480 680 -4329 2782 -560 -1991 2615 5322 452 -5690 -1062 -3747 1574 -409 -94 -5910 3787
-39 -7599 4323 -2274 637 1670 266 -2180 -2984 2588 1623 4395 -3905 1361 4890 -511 3899 3605 -1609 -2692 -2203 -2953 2390 -4303 2347 -1094 766 -503 1814 3357
-1351 -367 2513 3503 632 640 -1965 2224 7478 725 -2401 3808 -563 -5349 659 2784 770 3898 -994 1038 1988 -1030 -199 5124 4799 1066 1272 5908 -300 -2017
1890 -2087 -836 1922 -4437 3732 -2303 -457 1406 1930 1430 2197 -3456 4122 -2801 -862 -3179 1876 905 371 2453 -1966 -1214 1904 -88 1679 -1006 -5891 -5201 -359
-796 -1414 862 -2381 -1174 220 1990 -3669 -2411 811 1278 -2176 970 2768 -403 1687 -862 3700 -2410 -3910 4797 -399 -3817 -4986 -958 1200 -1444 1981 -1090 3167
-1651 2847 1656 4688 -180 -3401 432 2534 3269 1747 2540 189 -3357 2019 1811 4618 -1655 -3710 755 710 -5603 -256 -3521 511 1624 1115 -3441 1056 -3665 -1506
1890 3832 -2105 1824 1871 -790 1893 -2294 -3544 170 -2118 314 -1202 1178 -7807 -3584 -2537 -2588 -18 -4092 2385 1557 -1702 2801 -1508 -3433 9371 173 529 389
137 -1877 -1525 -65 5620 801 -674 -3007 -692 -4553 783 -1912 2289 799 1426 1534 2029 -2668 2793 -2862 96 2130 500 -2297 831 1298 -3258 -164 -5147 173
1587 383 2069 -3230 1387 58 -691 535 2900 4142 1277 -457 724 2510 -1391 1565 1224 29 -2348 -509 -1136 -2673 2093 -924 1605 38 -4266 2579 1771 -4697
1361 4963 5337 -2992 56 -4089 -1205 1408 -4174 -2211 2322 242 1859 -196 74 -251 1389 -2763 344 -3253 1711 -2260 26 -1931 -3643 -1975 -1084 1087 298 693
314 -5079 1368 -2384 435 -7504 3249 865 -283 -3386 1408 -124 -867 -1569 -666 228 1224 2174 -1768 2278 -3992 2230 -2098 1801 -4129 1789 2358 1880 -3053 -1911
-759 691 -1673 791 1468 6581 -2524 -2335 -284 3170 -3856 3389 -7372 2970 -420 -659 -36 686 -4326 -2320 4490 452 -1832 -2692 2056 -1848 713 -3897 -375 -287
-866 -3503 -172 -3248 -934 1587 -2119 5775 -8451 2496 -488 -4710 5609 852 2098 -2024 -3699 -1395 1811 -2196 -1478 2228 3552 -1997 -1495 -1855 3198 -236 5079 2348
747 -585 263 1441 -949 882 -771 -272 -2997 -1897 -1376 2758 -6688 788 -744 -867 -624 -483 2982 1260 -549 -4262 -570 -2044 -508 2745 4893 -1709 2586 1432
4 -3335 3159 7658 2192 -997 412 1703 1831 2582 2281 4552 4850 2305 -5420 -2260 -627 6301 -1146 -1211 981 2629 -1560 2297 1178 -268 -1435 2479 2051 -238
1610 806 -1372 174 661 4513 339 -3426 669 -2864 637 228 -2892 2267 -564 -4372 -2977 1694 3124 633 -1885 -1980 99 288 -3466 -6300 6193 1065 -4978 504
5737 3129 1845 1320 5150 -546 -1682 -1221 4720 2486 -2841 193 -1566 -2645 -3219 2398 1684 -596 -777 1867 1240 2290 -5161 1377 2849 -5223 -3799 -2380 2926 -3439
-1129 -2522 -5500 1196 2244 -3753 4323 -2894 -1437 -2105 4103 2565 -1784 2386 5623 1512 4861 19 2919 -4648 3804 -119 -277 2263 -683 -506 -2122 412 3892 3965
5227 444 3567 -6986 128 2221 -519 -1911 -4240 -3326 1691 934 -3033 -3932 -5121 -3640 3534 -1410 -363 -2180 803 222 -1373 -3690 1483 6442 -705 -2520 -5694 1541
194 -1656 2563 1350 2982 3161 218 518 2387 -715 -2157 197 1967 3593 824 634 2543 -250 -863 -1633 -3187 928 -1202 -1255 3983 -587 736 3750 -337 -1405
-2367 -5086 1162 501 -998 -1586 -3156 -819 -847 -2886 1436 1506 4505 -240 1980 1276 -2513 -1606 1919 3834 2294 -1056 -8259 -1159 -5157 -225 -4698 3321 -1990 2645
1165 4218 -4637 -2645 1459 -2043 -1263 2516 -2355 1942 205 -1111 -2656 -1816 -880 -720 -496 -3568 -1106 344 -1872 4920 -500 1930 1398 -1345 -4253 462 -1752 -6971
-4673 -440 1771 -3023 2195 1045 -909 722 -5435 1741 5971 -397 -724 -751 -799 -4857 2978 1209 34 331 -519 5998 -2454 -1230 -822 441 -1689 -3338 244 5058
-85 4821 2777 1399 -2486 1538 -6211 2974 -570 1354 24 4942 -205 -3378 -354 -791 1820 7729 1207 -1540 -2871 -3742 3391 -202 -6874 -60 -988 -1336 1787 1844
-2149 -1168 107 -470 2396 -1933 147 1423 6811 325 -1047 -1140 -1565 698 5674 1473 -2232 275 -3201 -5107 184 1314 -393 399 762 135 2570 5128 -2745 -216
-1849 -947 1973 2437 -1039 1974 -4189 -3622 -525 255 -6476 154 -1976 1450 -2384 -1187 -3723 -1084 -1214 5240 158 234 99 1464 884 -3300 -3454 -2339 5688 -1820
-464 828 -1909 -218 2621 -3662 3299 1991 -1893 3187 -1360 2861 -1226 -1361 103 1413 651 2571 10 -2129 1831 3769 1388 -695 -2489 3126 1011 2000 778 3851
-1590 -729 3588 -1703 -2325 967 -1017 -3797 -278 3763 -1375 -944 -484 -690 446 -2185 1026 748 -2412 -1553 -620 2548 1537 -5110 -1009 1143 -4585 -2124 -2564 3003
-219 71 -741 -2083 591 -928 -1453 3589 -4214 -2476 2622 -1560 -3897 -1027 3971 1873 820 -502 1928 -3554 3289 -4461 -1299 -1913 711 -2033 -3835 -4109 -5606 -4037
1135 166 -2267 4839 -1871 4011 -249 2205 4141 899 444 -2316 -72 -1597 -4722 1026 763 -2277 2475 1092 1556 -3233 -513 4547 3927 2755 900 5313 1161 650
2160 -1770 2690 1731 1827 57 -1114 -6881 -167 1664 -1623 2573 6390 4267 -8114 -4985 3389 -3604 2067 2248 1953 -2109 734 -248 -4727 4272 694 2344 2109 382
1087 1854 5507 -5525 170 2201 -2585 -1568 -1238 -5787 -162 537 -5608 -889 1650 3141 -1636 -2752 -3222 782 -1723 4066 -2259 -5292 -7685 -2720 1215 -3123 -243 1243
-1585 227 1791 -4262 -4646 -5100 -3200 -693 1131 -554 1183 -3183 -5182 2194 430 242 -1583 3742 -2138 3982 -4567 617 233 -299 -650 -4798 -3764 -4675 -1233 -190
2097 2405 -2146 624 3100 2621 1840 4961 -1533 -3034 -573 -144 2028 -1664 481 -384 1819 2665 1787 3433 -1190 -95 -380 2877 2608 134 1197 5514 1763 809
-3240 -2883 1940 3786 -2890 176 2150 -805 1534 643 -873 -2748 2308 3882 628 -3097 -5439 98 -3774 -3625 460 -2162 -453 1947 3556 -3086 3195 -1531 2939 3756
-1572 -3352 2043 4399 -1003 528 -3950 -2270 552 2379 -1707 2572 -2543 -1135 -559 2236 -943 2181 1340 -3297 -4000 -248 -4132 1033 -999 1734 3254 -746 2401 1389
-2448 -1874 -449 2044 -2693 -269 3080 3533 3179 -1628 1055 -5233 3533 2168 -3546 -2099 -284 -1658 2789 6003 3198 3530 1488 309 2535 5137 2499 -4776 -2828 -65
-317 985 -3513 -995 2847 -2639 3879 1154 -4246 -4009 -3070 -2941 130 -488 -846 1706 -1453 5391 1852 -1091 3710 -3217 985 123 -739 -4247 -629 -1134 3086 -837
437 -2533 -2517 -613 265 -319 3612 1060 2845 2201 808 449 2995 2483 -1696 2138 2745 -1232 3383 1811 30 -3641 2270 476 3366 -2335 759 -418 -4383 2585
73 2421 5737 -2414 -1145 -1150 5480 -676 -160 1374 918 -379 587 1319 1558 -247 1924 1625 1978 1199 -3398 1099 2361 -3997 -406 6147 -3914 2491 -322 731
-634 1814 2653 520 414 -1229 404 3831 -1958 -2567 2018 -5082 -2125 -5228 -5282 -1197 -4161 82 2037 -831 -132 2057 -2074 2449 -1207 2229 5566 -820 -3433 -2592
167 -2668 738 -196 -2646 1601 269 1844 1754 2578 1095 1425 -987 5 2210 -2611 2679 1335 -555 -1746 3970 623 -2394 -1696 376 4379 301 -1824 -1839 -2939
-2632 3962 -4331 -1645 -1352 1212 -1490 282 -604 -129 -828 1954 -6178 2918 -4574 2927 -1676 -3474 -5390 124 -2649 -3597 -3869 -5101 -1178 5436 -6330 -105 4663 -3079
3095 -2456 -1530 -3813 1746 -1046 -189 -1725 2089 1292 3751 1452 4298 2704 1798 997 767 -1185 2952 -1241 -45 5575 7155 3690 3252 -2237 1931 -1710 -102 -1642
485 1185 1814 4380 -2633 852 1123 1100 3194 -4135 -4397 -1067 -126 3311 209 73 4532 2185 -1549 3186 -161 1351 1017 -87 -350 295 -3170 -4319 276 1191
-687 860 5366 4828 1128 79 875 901 673 987 3879 -2331 1954 -2867 839 308 2183 278 -1592 -1693 2223 2077 1411 2301 -2016 1916 496 3165 -102 139
-109 -1245 -3003 -924 -364 -521 -3708 -3258 -584 750 -6219 908 -1311 6274 3556 1784 1440 -3208 -2537 -4288 -1254 -2505 2208 4501 -1734 971 2295 1713 1297 -1347
2189 -3995 676 -835 384 -6284 -1569 7667 3114 1580 1125 -3812 -2992 -2519 -2066 -1083 -1616 -3473 -1770 1954 8182 1977 -2519 -3439 -3452 -1911 -206 -3661 2940 1043
-1136 -2288 -213 -663 983 2488 1682 -580 -3450 -1295 -1325 -1233 1583 1450 -2058 -396 -56 254 837 -3356 1102 -1352 -1789 -1530 -1086 -4432 -225 2121 -2088 2677
-1122 2291 -1956 -4236 -2948 -920 -648 1850 1111 -955 497 2319 4670 -814 -809 -315 3202 1772 -5592 -1182 -3336 5731 -3953 2482 -330 122 399 -3278 -2441 -1268
-289 -3602 -5009 447 3544 -2113 -1163 -3121 -2720 -1173 -2462 5342 2645 -353 2595 5493 1105 2833 1198 1512 2814 -679 1931 2506 -487 -2877 701 1631 -1241 -4
2445 -1370 1419 3131 1154 -4590 3392 -1802 -894 -762 -4399 1031 -1145 2296 5879 -5157 -4164 -3703 -1770 1727 -641 613 -2004 470 -814 -1314 3873 66 -568 -2160
3547 3236 -2014 -3348 1315 2535 4840 -1617 -456 2484 -379 -686 -3077 -147 1566 2125 4606 150 593 -2539 487 4234 3074 1014 -769 5488 -643 -582 -1113 -2461
1763 4419 6385 -2352 923 7354 -3776 -2581 -1441 192 -1975 3924 -1082 1136 -4456 3100 -808 629 -672 3978 -1365 4438 -411 1387 1794 -782 -3226 -3521 8306 3766
500 -111 690 -2667 -1377 -3017 1259 2024 832 -1774 307 -2223 -1851 -3052 -1021 -2835 -1684 5841 -1562 1300 -3018 394 -383 -6084 -4902 1748 3856 318 950 -1159
278 394 -2068 82 -221 1528 -3521 3258 6180 1913 2520 -994 1620 2744 4455 927 -2967 -1122 -1096 -2247 1155 1097 763 1345 472 4524 3046 4029 -506 892
5 3187 1405 -84 354 1138 3046 -6957 -2342 -3548 -640 -1294 700 -372 1919 -2161 1739 -754 1447 1474 2219 -1358 -2356 -791 628 -1881 -5208 -384 1579 -1174
-469 2112 -2062 2648 2208 628 -100 5161 -1858 -1828 1962 665 753 22 1375 2062 -187 -2153 -3719 251 -503 -2113 -2014 1229 -3184 -1713 2536 3311 -799 880
4675 422 -1097 5477 -330 1612 -1558 1030 4461 1148 162 -3064 3275 -727 -1229 -163 -2724 -1121 2675 -3664 -475 1506 -3188 2786 -1132 -1802 -2524 -773 -985 288
546 -1456 2359 -2047 -2561 -880 3759 -695 446 -1482 1569 -3734 -3500 -3778 -114 -3385 597 3873 -115 13 -936 -235 -544 -2345 -1316 -1745 191 -733 -1982 -3253
137 -1567 1536 -1059 -701 -1612 1875 2328 5404 527 -662 1265 1517 -4440 -1828 -3143 4815 3188 -1230 -1316 -1053 600 -5191 1692 -2085 95 5079 523 -2718 1448
-1535 -1144 -2878 -275 150 2846 -1917 -867 2097 1813 -4230 5041 365 -110 -745 3284 -3652 -1125 1219 414 -1605 -7306 3824 -74 895 5720 1401 434 179 1121
451 2295 290 2934 -513 -445 -714 2892 1276 1031 4 3133 2701 528 -2607 1256 3595 2347 -7783 -3339 855 3045 -4448 -617 5942 4704 -1535 -970 -1026 -1137
3338 4504 -3939 -1689 -4845 -2270 -623 75 3513 -764 2687 498 -4164 3362 -2614 101 -2082 -5780 2211 -2765 -3014 -1859 -5389 113 -517 717 -533 -4484 -2520 -2136
2521 5481 -772 -1293 983 3168 -177 -2028 -3461 1911 868 1906 -346 2392 2021 6900 -3493 -2555 2333 -2270 -3862 1632 -141 2094 672 -10156 -659 1285 5765 1574
5297 3221 -4592 -2833 1529 -2316 -1634 -1790 -150 -399 3294 -763 -1499 4073 -851 -3895 -2049 -4879 -2466 3576 335 2611 -5175 3664 2720 3703 -457 1054 6157 -730
1284 -1587 -3132 2125 7748 -2761 -437 -2326 2413 -2659 720 1848 -433 -1259 -5566 130 -1848 571 -48 -6348 1910 -916 3892 4437 460 -1724 6515 6538 -2384 -1429
-2969 -4017 -987 -1006 655 -2039 1250 -1380 3527 -3021 3607 2172 313 513 7374 3751 -17 -3499 2226 -5773 1834 730 1434 3112 -976 -464 -399 -2071 -2620 1984
2469 -1954 -969 -3869 2683 -4219 -682 -3196 5169 818 -368 -3682 -1654 -3280 661 2060 3022 734 -5525 2601 806 -2461 1593 -411 -160 -1885 -4814 -751 532 -63
1134 14 1499 -3442 50 2167 -5073 3587 -4772 -2157 4721 -668 2044 6170 -2136 -4554 2186 1366 2955 66 -1252 2179 -2980 -334 -2395 530 128 1897 1277 -1047
-5002 -3006 -719 2178 2600 417 443 941 -1634 -2920 -6895 -2114 2915 -424 -4523 4305 2139 -3595 -1654 3337 1639 1429 -2089 2084 -2562 -4865 -895 -1411 -1789 1938
-2930 -1665 -2636 109 -648 5416 -1013 2801 561 2154 -3917 3180 -4107 -2012 -4341 -249 2040 -3110 -1160 1351 -656 604 -828 308 -2172 -4748 -4103 2217 5752 -3715
1298 568 2990 -419 -1286 -1722 -3289 -1018 -1293 4084 1069 2156 4160 1410 2190 8837 -4319 -2918 3093 4301 -1831 1394 1710 228 1110 -6303 6283 535 3152 219
2592 -248 -3137 4830 1324 -386 1696 -7686 2020 -2277 1257 1795 -3059 -1907 -3530 -4506 3668 2938 744 3009 -2969 1639 -2356 136 -658 -4129 1601 -4048 -2479 4156
863 -5157 -927 -395 -978 5241 -1425 -1373 2472 -2365 5592 2062 2878 -1847 -2075 181 -1868 4066 149 -3984 4431 2560 -1326 5976 -3622 -248 1010 -1978 -638 -792
1939 1360 -3423 -2649 -2877 2226 1098 -1385 1771 809 -4210 -3425 -2722 1832 -112 -446 -3292 -76 1347 4361 -1709 -3111 5491 772 -1952 1165 2568 -2095 -5608 -309
4833 -6254 1367 -412 626 -3281 335 3194 -2560 1017 -756 4757 -1246 -797 640 -6205 4135 885 1857 -541 -1064 3959 -1778 2168 1294 -2261 588 -4598 3765 4342
-3180 -1276 1610 -4560 852 1484 2081 -2211 2993 -3827 -3386 5978 2578 -518 6919 -2373 1848 385 2513 -3433 -1968 -2601 -3714 3874 6811 2658 -2181 397 602 -1008
2550 -3952 6043 -1762 -117 156 -372 -4338 2477 -85 -28 -2599 -2361 -5024 963 583 2909 -561 -415 4336 -6169 1435 956 -6557 3324 9138 -2989 2003 -5706 2213
-591 -4001 -844 -1522 415 3157 4616 -3500 2453 1523 -1123 673 -3950 3813 1036 -3762 910 454 988 3200 -2535 2062 -2201 -782 10 -4900 1518 1842 1953 -380
-2088 -458 4152 -3051 -1533 -6373 -7264 2315 3851 3300 -1898 -2989 510 1128 -604 803 2761 -3380 -1177 1542 -2814 1363 -5391 3000 -3597 443 -4413 -2624 1640 181
-676 -29 -4730 -1489 1686 -1660 590 3608 -4340 -598 -2593 2337 -1546 -4366 -36 -2332 -1249 3409 1219 1546 795 1140 633 -696 -3381 -713 -43 -1088 4851 -5760
1282 -1623 3418 1351 -280 -3436 3838 32 -1593 1427 -565 -361 1768 859 3710 -499 2740 495 758 938 2264 4258 -6916 -1544 3015 4235 -1051 -4687 -319 807
-650 -499 -1017 -880 -5576 2377 -3304 1181 -680 -2004 -1162 118 -399 -1110 1751 4712 2049 4045 -5009 10404 -2417 -8879 -809 4944 -199 591 1556 -1395 751 -2724
-1597 -6142 1739 -2035 4232 469 -1234 795 -1632 1973 -2049 1969 -1132 1481 -536 3681 1630 -1764 -5072 -4867 968 1684 1634 3353 3798 1374 -3673 -864 217 1529
-538 3238 -296 -503 870 2392 2995 -4149 -1878 -2022 -1894 2161 -1450 2471 531 -4525 711 -1729 1925 4320 -1152 2919 1427 -267 1715 -1747 -1061 2977 944 1253
-1303 629 -11 2215 1257 -2764 707 3838 -100 6345 2398 1743 496 2016 -856 2253 3212 -1974 3015 -659 -3144 -1995 -2680 2049 -3154 1680 1476 3049 -554 1418
159 2358 -1079 -1687 -2557 -456 -1398 -3318 746 1767 -1793 -2108 1693 1352 -1347 -3133 1737 -3030 -1086 -2211 2126 2452 1461 -2839 1101 3522 -2300 1291 135 -666
-2514 -848 1437 -187 -4605 840 -671 2235 -5108 1905 -2139 941 -452 2929 4397 1072 -1537 -2898 -814 2694 2685 2387 -2985 1593 365 630 -6389 -1943 -1937 1315
-993 -1389 1930 3564 2323 -1083 3549 -1315 -1257 1828 -3121 36 1229 -1939 1912 1663 2644 258 3205 440 4600 13 2948 2246 -619 2163 -4358 3680 -2837 -749
-1200 2521 -31 -288 2581 1286 3442 861 -2147 -285 2017 3231 1942 2042 -6844 1974 604 1854 -4012 3299 -3896 3438 -2521 152 3333 1865 2465 1876 -75 359
-1809 1356 2038 3622 1121 3426 1841 -3832 325 -537 -182 -2316 -2992 -5198 -1072 -2893 406 -706 -510 255 3563 878 -1567 -2754 -637 843 189 -1372 2189 3754
-721 272 3133 -1642 -2219 -4116 2453 -1086 -1733 836 -2117 3040 -3843 784 3786 -1782 803 272 -1969 2939 -413 2175 -1680 177 5324 -4075 -645 -513 -1201 -1338
2221 -1565 -5265 -1955 1341 3921 1624 3854 587 2468 265 -1689 3175 -141 -1927 4456 2816 5924 -2713 409 2777 -3322 1734 1444 1365 -916 -2278 -2809 -947 4355
-1278 1921 -1997 2712 3932 1100 672 -3659 1531 -1114 -832 -817 -2430 -1431 -1264 -2244 358 -380 -1736 676 -791 2643 27 5201 -1292 49 309 3507 -42 1691
-1116 -662 -1757 275 1194 -2270 -3949 -566 73 4489 -1582 -1755 -462 -285 -2928 -160 -2279 4018 4094 -2717 793 -1585 1270 -4040 1169 -3019 -260 -2736 1091 2709
1879 -1626 916 1983 767 -586 -1718 2797 6271 -2519 1028 -2072 3075 471 -6583 -54 -575 2757 1795 1666 -529 4783 -1548 4 -2271 3590 -814 147 -3672 -1229
-1558 -6729 50 3978 -1306 837 385 2792 -1543 1363 -876 1852 -1953 884 -288 -1808 -200 5004 -428 -1292 1609 -4146 -1852 889 -681 2057 -6715 -3152 3106 1572
-1973 -5149 -1263 365 -1926 1509 -5882 4595 -327 -980 453 143 320 3832 -281 -5312 -1714 420 442 -2300 -564 1392 2795 -1212 2666 -2227 -3059 5768 1415 -841
1886 1057 1397 267 -444 -1681 7288 -4081 277 175 693 733 820 4124 -1188 -2513 1007 5266 -3634 682 5214 1549 4041 -446 -560 1765 -830 664 1101 -2032
-739 2171 4912 1544 2216 -3873 3757 -120 -4137 1051 -670 1882 1241 -130 2296 -7123 3742 3703 -4926 -1473 1299 -194 1387 499 -2135 3914 89 2880 -3179 2511
-935 4099 1945 -2217 -2936 905 1977 -2042 1665 -1188 3760 -1773 1353 1606 -84 733 2769 -918 -781 42 1179 -2838 -3530 -8 1977 3719 3925 -2307 -2492 3257
1908 905 536 -1863 -2399 -595 3770 191 1434 3149 -4067 2820 -1234 1557 5953 -5371 558 -275 337 -4468 2110 -4424 -2537 -557 558 342 -1403 1282 -795 640
-2497 2236 193 85 355 834 -170 3266 -2754 4440 -78 -1322 44 3056 -244 4578 -1666 1355 -1567 -654 -1981 -5380 4935 -3298 -4382 3687 -2303 -290 995 2109
1370 2523 2164 -872 3563 -2611 1304 -866 4383 1859 -2408 1189 -1928 -3480 -386 918 4252 -318 -3185 2963 1575 -5029 -1085 -1201 2153 -6505 1326 2406 -3547 440
-2179 1288 -1739 3826 3050 4084 -5451 -1784 2213 -2886 -1152 -1462 1821 2222 -3328 1825 954 2534 -2380 332 -2116 2092 1294 721 -3740 1825 1351 520 -764 -402
3751 2183 -1529 4698 4438 -1542 -1088 1408 -2253 389 3169 -3932 439 818 -886 3645 -1784 986 701 -5328 3159 -416 3562 -315 2136 -51 3787 -530 1062 1703
-434 2648 792 4626 -1226 1407 3044 -3362 2565 3057 -85 -1377 540 1918 -260 114 -4679 5091 -517 1895 2425 2512 2609 -3075 -1682 697 -2523 197 -1519 -2241
1256 835 576 3597 1509 1928 1402 4381 -3568 1017 -727 -4463 -1113 -1846 -619 1367 1243 1679 794 -3630 -409 2239 -3075 -593 2987 -1250 -2693 -4519 1920 -617
-2120 -2797 -1888 -2690 2938 850 -1157 1279 772 1125 -1148 -1292 5701 1387 -1610 4659 55 -2649 -293 -2978 15 -2010 2397 836 2700 -2484 -1919 -205 -2536 -600
-386 -1326 4416 -1995 366 1070 1281 775 -1860 -679 3449 -2550 2778 -2172 4047 -2347 -2266 3382 -1338 2996 -4289 791 -473 -2191 -2366 -1805 -822 1258 -3849 2350
1038 -2039 -1266 1790 -1 1759 -243 4977 -5994 1703 -551 -2536 2366 6256 3934 2353 -3280 -898 -3153 -2088 -909 -2338 -212 -553 -467 -75 5459 1045 -6213 4142
276 -3242 -1333 -3153 1395 1668 -65 -1457 -510 313 -1505 -819 1359 3106 4743 55 -2630 3749 1048 -3621 2631 2666 -6110 -1407 -1400 -556 -1443 -2588 -425 -99
939 3611 -2979 158 -1190 -1599 627 -2071 -2518 37 -682 278 1487 2586 185 168 640 -2971 3417 -114 1525 -1690 4970 2614 2475 3117 -5972 -1206 -765 2924
-3045 1035 -21 -1387 -4515 2981 -675 2237 -2414 -212 -3024 163 5100 -5182 232 -652 -1117 2393 -3793 37 301 3692 2116 -651 -4286 -3947 -429 -845 649 1390
53 -2973 -1380 -1319 1311 -1518 -1861 -1405 38 923 649 -755 1469 1172 -430 -835 1088 2348 1722 2065 -1309 -528 -699 1439 -105 -947 1180 -690 -2110 351
352 -327 698 2038 964 1035 544 2384 893 2114 -2722 1968 -1345 706 -1964 -193 -1414 379 -1678 -24 -1458 546 1931 -1188 3132 -277 -261 -2927 4387 189
1915 464 1748 4801 2289 -2977 2883 -5730 -4570 1041 1037 -2528 -3474 -757 1135 -1538 -1594 2437 246 154 -561 626 72 -1500 2269 1613 -1401 -4462 247 705
4080 -1856 610 -994 -5445 1521 2915 4104 1120 98 -192 682 -3554 -4220 -674 1789 3753 3542 -1152 3592 7049 -988 2640 775 -1084 1500 4985 3197 -3434 -564
-266 218 -2060 821 10 5845 -1549 2744 628 -453 -1433 696 -385 201 -2075 1495 2017 -1464 -864 2655 664 -6125 -3275 164 425 -2475 -1382 406 2257 -1210
-755 2083 2797 -2461 -339 1862 1247 -2709 4735 -4249 -5059 968 3694 4071 1531 1787 -2591 -3595 -3298 187 -1362 -172 2769 1331 -4948 -1853 576 -985 1026 -1739
260 3911 1401 3073 6683 -2471 797 -131 1496 -2567 7552 333 -2056 1229 -2382 1633 5116 -327 -4984 -2393 -2407 3958 1611 -79 -38 1252 2727 -36 -4235 -1199
3188 2876 1836 1190 -3289 -838 -985 4839 3142 -745 -1016 562 -4893 1242 4332 -5147 -2144 1474 8033 7988 1042 -2332 4707 5688 1336 222 -1345 1635 3547 825
2132 1072 -39 -2515 908 -578 100 1036 -5794 -2028 -2709 -841 -2238 -4548 -1309 -2320 1188 -1897 4248 -1041 1391 -4047 1027 2204 5904 -5908 210 3674 2388 2669
4665 -3565 -5555 -1137 2122 -1239 -358 -1146 -422 -521 -1748 -43 961 -2605 -791 1279 -4716 2181 -126 1304 4752 204 -1029 -1650 736 2908 2258 605 -208 2257
40 -1380 305 2832 1510 3132 -428 -79 3657 2540 684 1533 2504 -76 -2930 -507 -105 2142 2623 3281 -4937 6334 5092 705 -2834 923 4020 -867 -2915 -1624
-1796 -2163 -3196 1230 -5214 50 -796 1217 -1036 715 -5393 2102 -732 2009 1158 -1207 -1022 -1368 -2653 2264 105 3066 2489 -5870 -1057 237 -1329 -250 238 -111
319 3405 -927 -937 -1008 -3448 166 2704 -2522 -1048 -1925 -3514 3973 232 -2420 7255 4406 554 -962 2663 881 -5410 -3602 -58 553 -749 -16 -4764 -3389 3634
73 -1831 3215 -2000 -2343 -4498 600 1381 214 979 4997 1126 -941 -1041 3808 -870 -2790 190 2051 6072 -1701 1437 -1869 -898 2902 1279 1330 3605 3064 -91
-4037 859 1466 -2208 862 1722 2727 2178 1501 10 -5441 -1322 778 2260 -442 2359 9397 -1418 -1108 3017 -25 181 -2741 -3224 -308 1279 -1829 1672 -1682 1912
-1292 836 -4684 -3529 -420 267 -1534 -722 2974 4210 2577 1581 3375 173 3118 -1289 11 8380 1648 1859 -1515 -4173 -2676 -1612 3329 5962 -1268 -598 3033 -2344
-1935 1415 3091 5691 206 -2370 684 -2240 896 -1533 1187 4136 1073 1888 -3656 4529 3696 -3120 -346 4360 382 157 162 -1321 -6765 -5742 1517 4493 -2720 -2480
4967 1533 -25 -3078 4468 2680 -832 -2395 207 2652 -709 482 -1942 -2330 -1358 3869 1939 252 1627 -226 2550 92 313 -2555 540 91 -848 -1172 3376 -693
976 -2510 -349 1328 -4318 2560 2565 3719 -223 1739 -1967 1765 1727 -1810 1851 -1139 4610 -1415 -2355 -2880 -707 6391 6830 405 442 -2093 2503 -3074 323 -2004
-1336 -63 2891 279 -963 502 566 4761 853 3930 -825 -7166 297 2263 190 104 2928 -4246 -5717 -1387 2263 17 542 -541 -4176 1868 -3285 -5084 2184 1638
-781 -2244 -200 -1937 1843 -1735 2566 -1586 392 -2205 523 892 -343 -3625 -1498 -2314 -1486 -4439 -4248 1548 -1013 -3844 2406 4140 921 -1021 -762 2274 2374 2321
-2440 2218 6296 1949 1216 -2534 -592 -462 3865 -1075 2262 -1476 -1546 4320 636 2975 -1467 -3349 537 -659 -2853 1464 2500 -435 -1734 419 -2291 -4343 237 -1413
-3557 -994 -3017 -1284 -2445 950 1254 4393 -560 1687 2386 -5222 1286 37 1015 3045 -2638 -3762 -6615 -490 5333 -1580 388 -470 -2590 -934 -1583 177 -1293 3351
-2751 3181 -1169 -3646 -2556 4085 -134 3047 -1453 -2107 193 39 5194 3990 592 -4556 -7081 1011 2073 753 131 -738 -6483 4419 1033 -1546 -286 4609 -4640 208
-290 2867 -2336 1445 -1351 -2008 -1284 1079 1340 2244 1894 -2718 1862 2076 -630 3643 3316 -914 2832 -3322 -790 2210 1405 1536 2302 2927 -1201 -3769 879 2715
2672 70 -3142 -140 919 1807 5322 2226 -2189 -3750 -6435 4706 357 -251 -1036 -601 53 863 3432 1530 1231 -521 -1182 -3459 -1175 -3972 6457 1576 -1646 -3427
882 925 -374 -1027 1441 880 2563 66 -2298 5691 2863 -6280 -1954 2826 101 -355 5233 -332 -1568 -5435 -802 -287 3055 520 -775 4104 -3305 256 3624 -80
-678 2292 -196 -2239 1955 1381 -1341 -5132 -57 1075 -1241 101 -1783 360 -2032 1431 -1868 -226 -283 536 3255 298 1512 908 2631 -1220 -3699 5217 2003 206
-547 -648 960 872 3369 1220 1407 -3952 -208 -2467 -2827 3891 -2519 3551 93 -1219 1562 -3767 -7800 -8 -98 642 -2265 -661 4645 1680 -2454 -4388 1618 3457
-942 1787 -1518 946 -4392 -2751 835 201 -1018 -3960 -396 494 2204 5995 -2085 -404 -392 -1605 3871 2414 271 1051 11648 -3065 -6434 -2267 872 201 2783 1129
4131 1252 628 5668 2543 2175 1932 -4692 -4010 425 2668 -4809 1251 -3132 1955 -1429 3748 659 -673 -1006 4520 -1383 783 -17 -548 -1606 -1960 2002 1922 -887
1733 -977 1297 -934 722 1747 3237 -2483 1541 1598 -504 -1006 -276 1651 -778 -4990 720 -441 1189 1451 -267 -706 262 4549 2568 -2596 -1020 795 -236 -680
-1654 -3722 2230 4227 -2310 3456 -1717 -2147 467 271 -2082 4667 2661 436 473 -3664 -1523 -2596 762 -1034 207 521 5402 -4182 -556 -48 -2531 -4163 -34 1207
1348 -266 1502 1444 4014 -6946 -4612 1426 -588 -1715 -177 2547 1768 4251 1132 -104 1382 -3393 152 1267 994 2784 1665 -7714 641 2637 -4308 -629 -1743 -3786
739 1599 -281 2467 -378 -3106 -337 3235 -518 447 1521 674 3995 462 -6557 528 -2872 567 -2996 6198 3690 5859 -9120 -4606 -1020 925 -6067 -1356 3695 2145
-81 199 -521 4960 -3156 -4439 3829 -1249 -4969 2899 1505 -1564 2088 3415 -1071 -2446 -611 -2956 -3779 -584 1531 -1736 -4571 -7595 -1349 -528 -3225 -716 6045 1842
-432 -2354 1581 581 621 1581 4555 -794 1949 202 -1013 4647 3569 -1869 -1342 54 5457 -3407 -1949 -387 1245 3587 -3709 -6681 -795 -1680 -629 -1596 -2680 2230
-1299 -1666 646 2476 4620 -356 592 -1871 5506 3899 2233 2998 -113 6 -2288 4970 379 1306 -1695 -3053 -2758 -1799 -3279 -1573 2753 1646 -155 -1808 2321 3027
-3610 2269 3455 2216 3188 6081 -3116 1080 -161 1541 3922 2369 -960 3076 2532 -2561 -1789 4932 874 2066 454 1178 -1794 -367 2754 3459 -1535 3331 1834 2880
-2064 -1012 536 3995 3538 -1043 -1526 -2027 1942 -9 334 -954 -2063 2484 -2174 355 -467 -3063 3005 598 -663 -2970 -2382 -146 3632 -2324 -5385 2111 723 4679
938 -2357 -3715 2429 5535 1794 -1776 -5190 -4063 687 -1735 3035 -1485 -8553 -5317 1658 -1727 204 4659 31 1150 474 -510 480 293 -2467 3896 -2204 -6053 2476
2317 2053 -2506 1027 2399 8289 -1949 -4230 3860 1423 -846 -1189 -2661 -2292 543 -8420 478 -798 1680 235 -1465 5157 3319 -1717 -3451 3711 239 -3226 -1792 -140
4469 411 -1665 929 1294 3303 -1850 763 760 -4955 -1936 -841 -1606 -237 -3066 -8183 1789 5299 1373 -3442 -4093 5010 2608 -3361 -1147 483 -2513 1524 -1727 -3373
460 4258 2501 1073 -5234 -1055 -3101 2069 -7712 -3431 -191 -4261 735 907 -8682 -4572 -1367 12 3460 -6749 4872 919 2024 1104 718 -3347 -4579 -1503 -414 783
-1204 2136 8770 4172 1137 -7704 1109 -1799 -4259 1009 -1938 -509 -2427 2506 3062 -5394 2608 3076 -897 -116 -1549 -2828 5187 -3584 893 1940 -5831 1809 -2519 -4366
-1286 -504 1574 427 2372 -2719 329 -3201 -1042 -6202 -1484 -1875 -3075 1256 -5441 -1673 -3247 927 -4142 -3743 176 4068 1594 -3691 4711 457 -3002 -1937 -3398 -4096
-890 -1406 -492 3541 -1622 -3700 5427 -5851 1942 -41 -3391 -574 4623 1986 7553 -2203 1001 3056 -2046 -4460 4333 394 -273 -2250 3234 -4289 498 -3212 -3467 2567
-722 3615 -705 2224 -1093 3711 -4228 -622 -192 -2994 -3631 4042 -397 1994 -776 -2058 5690 -2130 3979 -1702 1395 -2613 -1155 -617 -584 2471 -4779 -2725 -768 2166
1039 -4180 1845 -2279 4734 4466 -8257 1420 -6237 411 43 1403 4743 1534 603 369 -2074 3694 4802 -4234 4974 -4674 5179 3088 1755 -1935 -201 -549 1752 -1904
-226 -1000 -1808 -729 4521 5078 -222 1299 -2405 -913 -5734 719 -1160 4523 -2535 -309 -240 4479 -577 2077 -3066 -1808 1835 -2838 -2230 -1264 351 424 -832 3976
-193 -1655 -415 -2332 6472 -1020 -2193 1779 -2574 -2517 -2113 -3520 1720 -4876 -2605 31 6 -396 -607 -657 2954 471 282 -2553 1332 -4570 -2103 -3438 7260 -1019
-1016 -292 -3254 1143 660 1790 828 -1996 4609 -4079 -2047 9 231 -2215 -5312 775 6473 2326 1671 1998 -4920 -2312 2879 -1678 3462 -18 -2766 -45 2757 -1739
4518 285 2528 2583 1524 -7240 -3367 3055 -2901 -904 2721 -5000 -2798 -289 -10347 3591 2154 -2661 1540 -99 2153 2669 -951 -820 -475 3727 -1515 -4296 -1934 561
-2183 -3135 -191 2713 2114 126 -1057 512 -4684 2978 883 -1347 -68 2429 -3941 4991 -3129 -1047 2864 -4655 4690 -2869 -564 609 -175 4 1761 -2605 1296 -3045
1575 2366 4643 899 -664 -2475 -1445 1385 -607 -5430 -591 -3467 -2900 -3546 778 667 1578 -239 -3858 -1396 3922 1311 -6765 -1272 3608 1034 -1641 2479 -397 -2491
159 -4089 -3708 1531 3540 -1044 111 4095 852 737 -53 940 -2208 -1284 -3621 2701 -503 -5660 1203 -3697 5020 -2471 -2962 -374 1533 -3594 -1454 4914 -5486 -2127
-112 -39 1289 1338 1778 -49 -612 3922 3696 -2223 246 -2289 3899 983 -419 -1154 -1856 -1948 -930 207 -2975 227 -7277 2238 -1145 1545 4206 -274 -5321 960
250 -904 -5559 592 -3324 1291 1618 2201 -1822 6326 -2671 -1917 -855 -2316 -2717 -1112 1117 1803 1292 2218 -3526 -335 5321 -2551 -1128 1914 -592 1680 -2337 -1407
-1133 -1186 3070 -133 1083 3695 1320 -3970 1421 8173 -3256 -206 -624 682 34 -1980 -1923 1683 3740 -6625 2095 -1567 -1936 -3618 3631 3665 2784 1787 -2801 3869
-1815 -3761 -809 949 694 561 2387 -4234 5585 7 478 -649 -788 -2130 -2714 -6417 -2001 458 600 -663 -1274 13 1337 338 969 4120 725 -1341 335 3288
412 -1461 210 2384 127 1377 1531 2570 328 3744 -2631 4317 -1044 3346 -3845 3913 -1879 372 -2264 -1370 -4494 310 2618 819 -6217 1104 4896 1195 7491 2085
-815 -1284 324 120 3166 -2050 1203 44 -673 -1454 -1264 420 -27 -1768 -485 -2066 361 -33 -1514 1035 -403 1468 2445 74 158 1497 -709 -351 1533 633
-1051 1046 2094 367 -727 -4003 1281 80 1017 11 -917 -2517 -2690 -3949 2503 -2437 -2320 558 -3310 611 1869 706 -2266 95 -5571 -5076 128 2056 4677 2831
-436 1960 921 3569 -6819 1955 3717 -469 3836 3702 1061 -4983 193 -526 1552 1008 -282 5449 2060 1414 -119 1096 -536 2947 6 -562 -2172 -2106 5122 838
-4416 2668 -2673 1337 -4824 -84 2969 -914 -2416 532 5121 -852 -5651 -8547 383 -4157 1049 -5492 -2736 3214 -300 -31 1440 -2510 451 1533 -4860 -757 2167 -1720
-1353 1049 532 24 577 -486 -5624 1365 -3939 782 4974 5025 1501 2217 6600 2742 -908 161 1864 3804 -996 2280 -1064 3461 3255 1916 267 4446 2309 -1953
-2015 1841 -2579 5694 1205 -42 423 185 481 -2117 -2402 -684 2884 -5733 933 1687 -2734 4307 -1138 2402 3181 -2571 2049 4655 3113 5534 4551 3151 1601 -624
-2070 -693 729 5031 984 -2589 -2422 504 -3482 -668 -1653 1810 3721 2121 -6776 1868 2652 1619 -4055 747 -531 1808 5257 -3877 -35 2872 -630 5789 1018 -536
-145 1607 -51 -2226 -1733 -2483 -4112 -1378 -4784 -402 -405 -2551 -2456 -949 -3026 3747 -328 -1742 4983 627 -1728 -1193 2342 -4223 -5255 -1768 5575 4783 2228 -1112
806 2025 3459 721 1193 1842 4687 496 -1336 2656 1987 -969 -1649 2172 241 6484 -370 3816 -3143 -3993 -1169 -723 -220 5422 -267 -4011 -3234 -187 1591 1308
1968 -2634 -466 -139 -1815 -432 -2081 2020 -570 -64 2255 1183 -2621 -2693 -4851 1565 999 5426 -214 537 6659 -2977 -4877 -145 -1590 448 -2882 -2662 765 785
-1943 804 -1257 2506 -1629 2106 -5743 -40 -2871 -3307 -1964 3190 -1777 2072 1151 2530 2380 3398 -133 -5355 357 1616 187 850 -888 -2960 1802 991 -2741 2414
42 -491 -739 140 -1372 1468 -746 -1173 5063 571 -807 6005 -5558 6295 5426 7105 2418 4280 4267 -558 -2721 -3395 2921 -1107 288 -1540 1493 -2552 341 2460
7949 -1143 -964 -3433 415 -3265 -5310 -2236 4263 4079 673 -2653 -2445 -1724 -435 -314 -1868 807 -252 -2362 -2031 -2406 -3025 96 -542 7130 1350 -2525 -2233 112
600 -2666 -3922 -1222 212 712 -343 280 311 -2613 -417 -508 -624 3014 831 -829 1372 -630 5651 179 2768 -1484 -6248 1199 582 -110 -4300 -4916 775 2892
-1292 -1700 -1960 1775 744 -1700 -2302 6776 2406 1665 -4849 2490 2005 -120 -435 -794 2530 -2663 468 -2605 3009 469 1356 5718 3603 -3993 -5354 -930 4836 4958
172 1030 -2246 -2054 572 -2758 -3389 -552 2826 432 2604 -2158 750 -2913 2753 -2470 -1559 7447 -15 -767 -983 -2909 409 2787 128 1253 -5534 2213 4783 -728
2514 1181 1526 -1380 472 -3699 -1668 335 -861 -1039 -127 -1138 2053 942 3452 2524 -2160 5681 1183 1423 1970 1816 -3883 -374 -119 -2567 5685 2338 -2398 2227
-284 986 -1130 -166 146 3363 -3992 1756 -1218 -2090 3052 792 624 -2804 2311 -1380 -1257 -3876 -748 2194 8302 2324 -2601 880 632 -877 4798 -4913 206 1182
-306 -5491 -3792 -5636 -1968 1096 -670 3624 -4790 -1928 -5163 175 5085 -1895 3099 1853 -4509 -932 2377 -3040 2902 -1706 -2896 -3768 1210 -230 850 -1754 2295 -3990
719 3817 6979 -697 -2991 -6058 1139 -582 2676 6738 -4275 -1644 -150 -2222 -477 -1098 -4598 -188 1538 1980 1973 -345 2964 645 -3921 -1092 595 3735 -3968 -1641
-1073 404 1310 -2391 -2141 -3426 -1727 -4547 1063 297 736 2705 1749 2135 1685 393 1067 618 -1383 -4167 -4189 -2685 -3551 783 2499 -8031 522 1628 823 -568
-3850 3640 -1517 -577 1604 -93 1421 -5711 -558 -3764 2577 -1816 568 -1615 3383 2609 -4621 -4015 -992 329 -2524 -2223 1077 -1324 4604 1658 376 -2514 -2822 -6106
51 3797 853 1074 209 94 6086 -118 -1845 1231 3200 1418 -2516 1791 1163 3013 -1063 -18 328 1681 -4212 -4726 833 -1647 -4919 -1233 4442 3254 -1519 786
-3697 -2136 -177 -55 -704 1749 -1631 765 242 3085 5202 -3059 3197 4282 -173 -3949 -7681 901 4789 981 1027 -4010 5294 380 -3330 -3531 7396 1517 502 2890
870 -1221 3036 -1299 1119 938 -1680 4328 -619 2560 -4160 -3999 -3786 -1818 -4196 2667 -2035 2980 1739 -66 2708 -452 2175 3387 1477 -1775 -3087 -7218 -4562 -550
-249 -2272 -3777 5298 -279 2239 2501 -4330 -1675 2518 -4029 3320 1203 541 -3078 -2734 -1062 -2176 -817 322 1659 -2813 -1067 2490 3664 589 -997 4698 -3365 637
-420 2008 4471 3144 -1998 -3296 2260 1675 509 2503 -207 -1459 -458 -1085 -2985 -4197 -2325 2838 905 2865 2146 64 -381 1086 -2323 -115 2854 2913 -4441 -661
-1504 2691 764 1578 -3594 1010 236 2571 -4859 -1616 -2033 2075 3298 2677 1373 3070 -1856 -1301 -5157 2429 -708 -2888 -98 4425 786 -1991 6158 -1023 -1461 -2507
-3463 -432 944 -2667 734 310 482 -106 -1977 -2552 -3276 3267 -1383 -2177 -2008 -481 278 -974 -3988 -862 2381 4196 410 -4337 5866 -292 1512 -2713 167 -2594
-961 -283 1465 -2522 3529 -30 2095 -5430 -859 -2542 -1799 -1692 -588 -250 -1456 1340 4184 -1543 363 622 3317 3512 3943 -1463 815 336 -4238 151 258 2551
811 -524 2187 2508 -1367 -816 299 -1 -588 1366 -96 1158 1642 -1606 -3166 1175 771 496 -1904 -3112 -5399 1231 -236 -1661 -4215 -2218 297 -2132 -863 -1041
