-121 3380 3314 -4841 486 -1413 -3496 -1501 3156 -370 -18 1243 -26 -1013 1959
-2131 -1889 3663 -3848 1964 2384 3665 3497 2730 -3405 -3598 1879 509 1736 1481
1271 919 4444 -301 -2339 2832 -1741 -1363 1301 2646 1336 2543 -1144 1350 282
534 -48 -1681 5619 -3540 -1713 -3214 3189 -2319 595 805 -2433 2243 -7055 53
-2009 -6648 -1983 -1696 -1646 -1935 33 -4535 -2735 2134 102 2345 106 -1598 1436
574 962 4167 1537 -5528 -3954 2815 1529 1939 -1879 633 -1871 -320 436 44
-4157 1735 766 -2962 -3290 884 -804 -4086 -1568 2337 -2568 -2654 -1402 1402 4670
857 -351 -933 1957 836 -1107 2152 1136 -986 -2730 3653 77 465 2679 156
479 1234 1699 -2403 -1935 1072 4815 -2322 2381 -3534 -4062 198 -2477 1706 -4087
558 -5914 1475 -2986 -406 2900 2317 5599 -505 279 -869 -1119 -1688 1813 -2907
2222 -2086 -1091 117 46 -925 -300 2987 1393 -1588 5372 1597 906 -928 -1989
312 -3674 827 -916 484 -5063 -4792 1403 -940 514 4618 -1621 -5577 1998 -470
-2389 -3552 -1056 1772 -3263 -1690 -1511 -598 -1279 3430 410 574 39 -220 -4315
-564 -1633 553 -3092 1951 -4998 -119 -947 1488 -823 1490 1582 408 -1808 2909
419 -3233 2226 4468 -67 -6989 -228 -3779 4976 -2240 292 3397 1203 -51 4245
-463 1231 2705 -2882 963 238 -1211 -1810 3165 -2363 -1750 1619 75 -3101 3846
-537 -1344 4142 682 -1753 -2494 -81 3670 325 3764 -6213 -504 -1646 891 1024
1968 2939 5097 -256 1059 -988 -1694 2593 -1411 -150 227 -2309 -871 -2596 -784
-936 1491 -3041 96 866 -772 219 1967 2503 2713 2657 3518 1580 -3131 3301
1994 -1046 3127 -4196 856 650 1642 1453 3863 2492 2320 -5564 1086 207 1971
1225 600 744 -357 -1827 -708 161 7650 2563 1603 214 3067 -3911 2172 -2655
-3946 -2028 2019 -419 972 -2021 2328 -3408 1524 -515 647 4699 -1137 -666 4518
441 -1150 2428 5510 1278 -623 2507 -2040 339 -2786 -3949 857 1499 58 -2932
889 3818 1681 -69 -544 447 2020 629 4943 -3240 718 2071 -3101 80 -2979
-26 -2932 847 -2688 -1789 -2333 835 3787 724 -1006 1123 -3167 -580 3371 -3004
2189 4915 -3103 987 5079 -2845 505 -3128 -2073 163 -3310 -1175 -7278 -1386 4777
767 -2174 198 3171 425 -3748 -2092 2551 -135 -1252 1350 -7855 3 -995 -2805
493 1785 3354 13 -4075 964 1042 -805 -4060 -3601 1899 2736 -1356 -2082 1871
393 355 575 -460 -754 3828 -1182 138 -2899 3270 -2556 3225 -3877 -1147 -1562
-3867 1126 -339 -268 -186 -2066 -1577 -6494 -534 -8197 1115 -894 366 -2337 34
360 -1821 157 -859 -3553 240 -3158 529 -596 232 1460 18 2704 436 -1584
-3529 1967 -2287 -3877 -1599 -588 4689 -1218 5013 996 -4469 496 -1094 3034 -4235
-1748 1030 3295 1717 4586 -1339 967 -1233 -3715 -2573 -1562 1194 1641 -1474 1658
1383 -2111 4243 -804 -4054 -4687 -376 144 -24 1734 578 -275 -1587 -3640 -3692
-1943 -1487 -6138 857 -1338 -705 2244 865 -1156 -3582 1503 2370 -883 -289 223
1020 1699 -1727 -892 -6136 -836 6086 -3344 1364 -6425 -1615 2605 3392 -660 -2650
-940 2214 4007 -769 1518 1804 -1762 3578 -3454 -758 790 4424 1352 367 -250
-71 -2220 2175 560 -261 -328 -988 -1365 -408 -4074 -3787 -5051 1033 -120 4463
-1669 -1004 -2321 -118 883 7292 1120 5011 -2278 -3337 1868 -2422 584 -3054 2750
-1979 -445 -798 -4264 -1250 604 3448 -33 -2493 282 -3886 1611 -1930 3237 870
-1011 -3300 1535 1232 3246 -672 -2313 432 2249 1170 5739 2242 2068 -959 -199
2377 -1123 1313 1426 -266 1980 2796 -1347 -639 -831 2325 -1182 4382 -3486 152
178 2147 2536 221 647 -711 -6302 4647 5968 -83 -355 508 -4816 1117 256
-1419 -2875 -4537 3421 -2610 -388 -4221 -4234 -5052 -1775 211 2703 2866 631 -4232
254 948 1527 -2573 1624 -160 -2805 -2184 57 2535 -4295 4405 1012 -117 -2089
-2617 -1529 -3154 1952 -2582 350 2048 519 -2316 1216 604 1002 -25 815 2958
971 676 -1342 -1569 -3826 -5654 -7705 -1279 1672 2561 -1265 4381 1145 710 -215
2443 -4171 4428 -3353 -1679 -3479 1780 985 -2066 -2314 785 -2105 -1348 -370 -825
-2202 -2471 -3846 -3504 2579 175 -3911 -2643 -2913 -2225 1404 3823 59 4069 -2372
3139 7228 2935 4161 248 1334 -1896 468 465 2720 3710 7060 7313 1222 -3010
-953 4410 -6031 -999 4302 5248 4539 -392 766 -1952 1591 -5469 -3813 -8357 254
3383 2130 -1797 -1374 -1596 -2916 -1949 -179 -2919 -4130 -350 -2258 -3208 -259 -2464
-513 -5241 1251 -962 -1918 2284 -577 -1376 -674 904 230 239 4195 -372 3497
-4095 2188 1877 -108 -610 2225 -965 912 -2080 -1051 2615 -5237 819 -3629 2854
-376 -2251 -2956 -67 2364 -310 -6216 2933 -643 -516 -4011 2095 5846 -2579 -5547
1787 2104 2371 5516 -2128 -176 -2120 -553 19 -5040 615 -3405 -1777 -181 268
527 4908 372 749 3415 -1679 99 -4230 1088 -1501 607 3534 2147 1049 -3832
503 -3734 -147 -7426 1094 -2576 -5248 3577 2630 2985 4319 177 -1627 -18 -3304
4680 4688 1317 -106 6457 -3215 -5202 -3096 -10 962 4692 -3787 -4231 916 -596
-2339 4674 -7834 -219 449 2542 -3484 -1429 -2832 451 1071 4796 -4229 -403 2732
-1914 -3570 -1639 -1520 92 96 242 919 154 -399 78 -482 -3694 -1403 941
1902 412 1846 -11 -1142 2353 -1568 312 -829 911 -2214 -432 -491 2928 -783
-43 -1455 1424 -267 -793 1912 3247 5692 -536 -3490 -1224 -2926 2025 2754 -189
-602 -492 2952 3897 -1558 2416 -1062 -416 -1616 -16 88 74 2493 -1454 -3550
1808 36 -3278 -844 -652 192 846 -337 -406 3994 -1745 -16 2879 -2602 -3677
1112 -1315 3712 659 -1082 -884 3704 -585 677 1964 -2816 -2798 -3762 -107 -337
1981 -1427 -1520 -803 -3148 -48 -643 809 -2141 981 -5913 -3961 -2895 3777 -1280
-1948 -6477 1211 2523 -1357 453 2800 3797 1743 -965 -1124 511 2653 -2453 -1687
3563 -1423 -116 -4812 -2783 3290 -1427 2432 -3938 -1766 -3575 -2945 -2643 -3568 -1462
-625 622 1379 1799 -3685 325 3605 1478 4627 1705 -4403 -1130 485 -4433 3517
2353 -2224 970 -701 -742 4675 -1689 -2660 -2611 -316 4354 -352 609 -2302 -3608
-1868 -268 -4376 -1228 -597 -4229 186 1340 -2908 754 -3053 466 2746 -2567 -1555
-1506 -3870 -1330 -2699 2713 -1779 -1914 233 -2875 871 -2555 -2282 1239 733 -1406
3223 -2335 631 443 2010 2270 1886 -673 1462 -4978 -356 1039 -1366 -611 1393
-747 -2079 2984 -4797 -3066 -4745 984 -718 -808 596 -726 -1471 -2458 3126 1236
-1378 -911 1161 -2261 3052 2267 -451 -1602 1935 -514 -630 -732 1164 -1098 -119
1869 -2854 1488 2595 18 -716 -488 3570 3153 4189 -3 -2589 -422 -1541 1168
-4205 -555 1571 1423 -713 119 1778 -1450 3136 1703 -64 -1617 -1581 -221 2619
-1260 176 3095 4010 -1678 -6834 -3027 -424 -133 -5060 -306 2592 -4509 1480 -1086
-2417 2999 -7276 3018 -1547 -4923 191 2137 766 -2381 642 2935 4465 -587 1390
-1086 -4556 316 1238 -2931 -1620 2676 844 1514 -1985 -844 2755 2006 -1411 -1627
-1466 -2448 6519 167 2015 6475 3597 7408 -3250 1586 -1688 2975 -1795 -3402 -2918
-3635 -1982 -2172 -686 1876 1405 457 5500 -4301 -5940 -437 -2163 5205 1680 4617
553 -9084 207 592 6380 694 -104 4731 -3431 -1745 -1246 -1633 1294 2958 -1565
-574 -3033 -535 -4208 1949 -3286 2138 958 -952 -7219 -341 -2808 -3951 5038 892
-1680 -2380 -4221 413 984 -2198 -956 1178 272 1123 -1187 -180 -1210 -252 5621
1718 -1320 -946 -2034 3562 887 -2996 -3253 1135 -82 -1909 -2886 -3205 -4389 4443
3944 1330 1634 688 -760 -2917 13 2288 2413 4216 3168 2452 -1392 1309 1541
-3722 551 -3287 -4851 -1753 -1561 -2444 -2098 -3361 503 -2473 4277 5575 -1944 -1113
-1239 -1586 378 555 230 -2150 251 -3952 -6472 1613 -3277 3493 4589 -1251 2780
-1895 5042 3643 -1340 -1584 -667 3726 1491 -939 1992 2013 -164 275 343 -2324
-2800 -116 546 -742 1332 -1006 -3362 -376 2069 -1307 -2856 3508 1242 -7554 -1309
1825 -3410 3219 5853 2400 -51 -388 1887 3479 466 531 -2005 5260 -2165 1541
1251 -813 718 -2281 -784 -1320 194 -2841 3421 2751 169 1589 627 -1446 939
-5241 3533 -616 1058 -1378 758 3323 -1675 -352 341 -2213 844 -1392 2499 4951
-4512 3749 -1981 -2163 556 5414 -4341 -96 4247 -3615 1872 171 1482 1852 -9
1116 -3214 426 7096 -1080 -2525 6524 -3654 1569 1826 2226 2601 -2408 -5576 250
-2377 679 -1461 -2643 1097 -2272 3189 -5025 -122 -1538 35 -551 1154 -2072 -1909
-876 934 7901 6473 -2687 998 4510 3790 216 -3910 720 121 1901 -54 -572
5895 -4077 200 -1673 1500 -75 -6693 2224 4122 -5164 2342 -2151 3564 4390 -4585
-1679 -2372 902 -523 440 -878 -1712 4992 -32 -2270 -1256 806 -5952 3552 -1866
-2562 4945 3066 3666 1694 -633 1652 -3167 2892 1447 1852 1715 -6187 1587 -997
746 3774 2197 -237 -2031 755 3519 2309 3131 3580 5972 -4124 138 -5587 3121
775 -1551 707 -3085 -2099 -1140 1327 1794 -6874 1232 7555 -3626 -371 -400 865
1680 1761 -2621 -970 952 -4763 -1532 -1050 -168 346 -427 5820 -299 1919 -1586
1630 -5523 -1467 -1133 -1778 -705 -1366 580 -4303 343 2471 -701 -793 -73 3721
-634 3096 -1216 60 95 -5931 -2810 -3109 2726 -3671 1020 3508 -3106 938 -1294
733 -2223 -612 1534 1667 -2260 -4570 246 -127 -1836 1233 3429 -409 -1596 147
-210 -3040 -2130 -2770 -1850 -3070 -292 -4289 -1771 -2778 -4526 1526 2862 3289 487
-3228 1211 -638 164 2603 -490 -1495 344 -3061 1271 -1397 4284 4253 2079 -2607
2838 -277 858 2423 -2979 662 1306 -1779 3487 -340 2852 -1522 3868 -2061 1435
701 1165 1198 2457 -1320 -7336 -799 -4385 -1407 821 392 606 764 567 4576
936 -4552 6 554 3703 -1205 -1287 -2890 -442 -2582 3293 -2137 3250 2717 1930
2026 1845 1773 -2194 -1826 183 792 2893 -1591 -1964 3573 -1433 -5579 -673 -410
-2058 -4775 356 -4408 4319 459 4244 5834 -4785 6642 1283 -1102 626 3971 -2996
-3335 -1782 -3127 3146 -1135 -1707 5723 -2080 924 -2343 134 100 1328 3396 1036
844 -408 2964 2608 -2222 4156 2240 -2440 91 3771 -871 -58 144 4119 -4428
3927 -3160 3418 -2617 -3310 4654 151 -435 1469 4348 -1433 -4068 -4936 37 72
27 881 -573 1361 767 -3544 -2906 3908 -3152 2304 2385 -1300 1167 -89 -759
207 -132 141 3174 1570 527 -938 127 3690 -649 -5611 3786 -3704 -1106 -5012
914 57 1822 -1997 920 452 1318 -2792 -309 -1134 -870 -2428 -3438 -614 -2215
-1445 2863 -719 3060 215 -282 -1656 -416 473 -1534 1347 -610 3562 -201 571
508 4270 5733 3282 -1140 -3782 -1628 -124 584 -4743 684 2648 2455 -1060 -3906
1182 1523 3344 2088 -1842 1663 2282 2507 1503 298 2937 2272 499 1726 -3019
-2181 1889 1154 2745 -5857 1293 4531 675 3089 6066 1542 568 -1667 141 893
2159 14 -2371 -1412 -331 1139 2054 -466 2077 -1826 374 602 2642 -2270 -4337
-537 -372 777 -945 -1951 4025 -609 2250 1702 -25 4765 1256 -632 4236 23
-2200 -2410 4606 1580 1257 -788 6 1073 -957 -2903 -2806 -1183 -403 -3876 3043
-458 -959 -3165 -1285 -4804 334 4315 6104 -1516 -2028 4415 -2223 -97 3813 -4550
-1936 7448 -350 -36 -430 2302 -1130 2127 416 -2327 -755 -2381 2338 -2248 1848
-4559 -2784 -2473 5870 4617 1203 48 -1745 -5020 218 1895 -1880 -1241 -1013 -3081
2979 -3586 2060 647 -6004 -640 -1053 516 3735 -240 -2370 -715 3712 -3301 -82
-1193 1712 509 1548 875 -2735 -1571 -2654 -1445 -475 1738 -3787 491 -558 1006
-4892 4737 -538 1667 -578 3183 -1501 125 706 -2555 1346 -6723 1486 -3871 -345
797 -1540 -310 -5317 -1390 6 -3430 -2810 -3263 -2616 -6694 387 -682 -2521 -804
1364 1110 -936 -138 -3059 -2809 4741 1978 -637 857 617 1251 -3917 2686 -3418
-1510 -437 1188 2225 3426 -2192 1288 -3783 1203 4499 1571 -641 5878 4180 2695
804 -1442 -183 -1939 1354 2055 -1279 -187 4299 902 -626 670 588 640 969
-883 684 1558 1744 4432 -3936 -2092 474 2508 -5744 1582 1773 1569 -652 -215
-2490 1703 -6139 -1840 -2397 1360 476 -152 -3114 -5119 -4256 -2264 -1516 -2662 -1578
-302 1242 -951 -872 -2383 331 -827 2510 -3076 -2633 615 4063 2164 -1735 -2825
-463 -1461 1604 5987 -4858 1699 -390 1752 -720 -743 1258 -2525 -1200 -5293 -975
1274 -390 -1530 71 210 2393 -786 -496 -603 1498 54 -656 2575 -781 614
-603 372 205 -3400 315 4447 5949 761 1972 -3326 -2739 -769 1493 4488 -786
1417 415 -2792 665 1574 549 -3237 -842 3676 -247 -312 -1385 5 3584 3890
-2456 -4438 -2345 -121 4143 3006 1693 -6019 -2640 -2099 -454 -1838 4365 -3036 1701
-514 1018 270 -644 1050 1009 1564 -4150 5211 3328 3116 3955 -4641 -2109 -3158
2183 -2119 2255 -603 1258 711 -362 -3536 559 1032 -1371 1403 -5736 -1343 -841
157 797 -1384 -2355 -3455 -66 1733 2617 2866 -1168 292 -2985 -1717 -543 2602
2068 -334 -2774 1632 -1859 -4169 -2840 -353 1590 3966 -2191 6313 6710 -103 -1727
2880 2599 729 1512 -691 -3609 -2813 723 -1050 2449 -809 1256 672 -2522 813
-218 1389 250 -2199 -190 -1999 -2504 925 110 -4228 -994 1855 -3547 215 -2853
-519 -1359 561 2474 -1 -350 -317 1475 -825 -269 2539 2901 523 572 -7906
106 -904 -2508 -2094 1153 1203 -484 -112 -3726 -1927 -3704 -4190 -318 2945 -1818
-1577 2446 3444 2156 1956 2768 5856 3273 -3622 3664 -2753 -989 52 2850 -106
5399 51 2041 3638 -301 -1380 -3549 1223 1315 117 950 -762 2914 -1076 1306
1331 -2300 -944 5986 -2911 -4864 -1686 -5794 -1509 -29 3973 -425 7520 -842 319
3322 -2475 -3294 1400 2048 -2456 -1890 424 -3065 719 -3246 13 -2640 -312 1000
-531 3637 2250 4334 -3919 1220 -714 2049 90 1243 2268 -3091 717 -1938 -1272
470 1521 -5853 97 2816 5868 -718 1250 -774 2786 -840 280 -1034 -2525 3355
2046 173 2428 335 -2244 -6211 -505 3097 955 1611 1069 807 3931 2665 3753
-1718 400 4544 12 3653 4038 -3897 -2339 -450 -745 -1713 5568 -1045 335 -2485
293 845 1707 -2636 209 4244 1524 1330 1168 499 -776 -2285 1399 1858 -3457
1965 1550 5027 633 1743 -1759 -1360 4613 -917 -2502 1509 -1832 4492 -5001 -3421
2420 621 -1351 -566 1027 1939 -285 3111 -179 -4566 -4262 -3573 -2518 739 -1649
-2420 -142 3497 810 529 971 -154 289 -2021 -125 -5191 527 2538 -3545 1400
-1720 -1023 -900 3513 5631 3465 -1110 -1414 -1970 -83 -4882 2124 962 -902 -484
-1087 -569 3368 5471 3102 -2829 1884 -4443 -555 101 948 2492 3114 1653 -2603
510 3101 5134 1348 4851 1440 2498 1375 1412 -197 -721 1223 646 1335 411
341 -1297 -1982 2614 -1318 -3714 3526 264 744 -716 457 -1899 1427 646 1106
-3579 -565 2098 -3983 -4473 4177 6120 3287 -2811 1103 -3517 4852 -1926 3525 -3386
1621 -3733 -1352 1528 -749 -1189 -533 3001 588 75 -2217 -1747 582 -1449 -401
1397 1052 1605 933 1502 -4692 -2207 -1501 2452 1565 -601 -3352 -349 -2210 -68
1232 -381 861 5407 -2041 3267 4185 5536 3197 -3709 1894 -4836 -610 -310 1229
345 6011 28 -1810 -1554 2955 935 -2829 3511 -5098 -3712 2222 877 2047 1362
2278 -3454 -349 -2745 2395 -371 -691 -2084 3410 1532 -698 -1229 -852 -5070 543
581 -886 -1520 6822 -3372 -2876 474 1601 288 -2599 -1862 -947 2613 -515 -2146
-1730 -1310 954 1227 1400 682 -7652 565 -1099 -6095 -1602 1340 3171 4148 -3981
-3235 -5470 2892 1827 -5356 3167 -465 -2079 -3716 1009 -5 -4581 1311 -4513 -1489
-756 5311 1836 -4655 -3228 -1784 352 539 744 -4520 -7170 -692 1870 39 429
-701 1111 3802 2163 3359 1535 134 560 -264 -1295 -2909 1528 4361 189 3164
687 -2754 3233 1514 -105 1733 -693 5746 272 -1598 -1332 -36 1176 1408 3306
-1140 2712 758 2521 -121 -1960 156 -5802 -1032 1537 4635 2720 1202 1400 443
1103 1414 2382 1558 1673 -1716 -2504 -2322 839 3164 3022 2998 -368 724 3217
-183 5747 -227 -2309 828 -1232 -325 -988 -1447 -902 -2269 -155 223 -803 -3119
-2399 -1130 -2675 -1281 4515 1914 -965 1139 -118 -4667 981 -1304 1289 -2903 1592
-5341 -2012 1513 300 3119 -1528 8027 2182 2969 -1538 6309 -1859 -2794 -1871 -1328
-1571 2296 936 -168 -2519 1023 -6610 -1843 -3599 -2148 3838 354 -1635 2624 -2955
2586 -735 1619 1119 89 2770 -1457 -5071 -1016 6767 -3096 -2393 4083 2282 5210
-1553 -1256 1349 2433 4831 -3516 -4728 56 -122 -458 1882 1114 -1436 4901 -4553
-1507 -26 -3990 2529 -2028 1711 4157 1136 -2365 -3313 -710 -2218 -286 369 -3495
200 5340 1014 670 2681 -2901 -1091 725 1649 4275 954 -2443 -2280 1730 3930
3196 2791 -1065 2201 2378 -1374 761 3479 -4406 3299 4741 52 2530 286 2154
160 -1201 2853 -4722 -3867 -697 -1734 -5600 -1281 3623 -3215 4188 -3069 -651 1317
2241 1680 -4833 2323 3411 -2856 1431 32 -1016 4603 2796 1470 112 -3699 4867
-91 -907 1208 3973 2291 -512 1479 2793 -812 53 -2361 -177 3519 2281 893
-278 -1068 -118 -1163 2946 2621 1390 -3209 1714 1493 2912 -5150 1910 4014 385
764 2724 -5537 -2348 -2838 -294 -3861 108 2715 -2875 1388 20 -4597 721 -3072
-369 1879 -849 -1373 4935 5122 812 -1107 -1155 -3541 3770 -3690 2971 -178 -518
387 -2410 2522 -963 1293 2540 -1518 794 -4331 -1002 -4676 1917 497 -5700 -4743
821 1367 1540 -1005 2294 1467 -4267 82 -5386 -2528 -1493 -2436 180 -2650 3826
1522 494 -3458 2902 628 -4621 2839 3141 1880 987 1226 -2476 1831 -889 2247
510 2097 -431 -1086 806 745 -1476 1097 -3525 3794 -1010 -2155 -2849 -1981 -5603
655 -934 744 -1067 -5085 137 -3296 -2720 3743 3936 -1450 -2442 2568 2124 1927
227 322 -3330 1201 -1735 1989 -1679 -6368 1506 1371 1321 -1621 -2267 -4107 -335
435 2405 -4508 1869 27 1169 738 918 -1382 2161 -3935 2077 -70 -440 1662
-268 -2139 3827 -3117 1372 -1469 -2416 2958 29 3320 4342 4719 1420 -1038 -1467
1324 1145 -3083 1134 -2412 1476 -3228 -1340 -1364 -1688 -186 1385 694 901 -335
-3916 1025 1054 -2213 -2287 -1551 316 480 4142 -703 -3876 646 6136 932 2743
3073 1305 -936 3857 6788 1488 625 2216 -1017 -163 2911 608 2515 -3446 -1263
-1033 -3281 3966 -1071 -3418 -379 1793 -567 -3772 -2220 1653 1608 -4669 -563 662
-159 -2336 -2263 2784 -1073 -1607 5333 -2228 -1764 -1454 1573 -891 777 -791 -248
695 -409 -4106 2513 -3433 -3038 1063 -997 739 -2508 1401 1627 4407 -1332 -6377
-1553 3479 -3558 1642 525 3941 828 3188 3614 4836 1719 -243 -382 -434 -1526
-456 1756 1054 2098 1304 4903 -3815 -806 3095 3362 -7769 1911 -1091 2839 -604
207 -1941 -2737 878 1143 2671 -1241 3919 4718 1646 603 43 503 2102 2515
-600 -73 -4450 2247 -1196 -996 281 -997 5858 -1770 -688 1461 -993 973 -4025
929 947 6962 2130 -545 2705 4246 -1188 2193 -1559 875 665 -1578 -3314 -3035
116 124 3829 0 -1140 1258 2270 952 1597 108 -371 2022 245 725 1121
1304 1448 2759 70 -574 -1920 8 1547 243 -1210 2702 2051 2035 120 2884
2832 1336 444 3378 -556 2439 -1396 1646 -2551 1007 -2898 -475 -189 190 -5199
-940 -1366 160 4453 -3119 -1289 1883 -4489 67 2206 -1687 1761 -1776 2549 -2627
556 -36 2874 2304 -3125 2513 4294 -1771 -6056 -1694 -5136 1258 1493 -2740 5789
-523 -1311 -153 -4446 1256 2158 -1816 1651 -4546 -1903 1264 -1878 176 2846 13
-459 3192 -4039 -1604 1650 1455 1969 -211 -4446 1781 -1330 3060 -2136 1191 -5788
1480 4717 -1521 1277 -2253 -2322 -1176 3337 4074 1231 -441 2548 1074 -306 -6194
-809 1878 -91 -1055 1171 3658 1276 2141 -1203 804 -1280 1359 2927 -670 -2290
2088 -115 1014 -2615 3100 -332 -415 3936 -2238 2541 -1212 1063 2163 4936 3051
-1021 4220 2972 -745 4134 4917 6005 5244 2728 3836 -1398 -3456 382 -3548 3642
914 3875 -883 279 366 -1261 1420 2741 -720 -3418 3728 -3783 -2027 -3865 1257
-1683 7274 -3896 -2205 2051 -59 4029 1150 -6492 -717 326 -1520 -4006 -1060 982
1873 2866 -1255 -1611 673 -2043 -967 1023 -1006 -1103 1811 -3747 463 6647 117
1888 2595 886 3805 -3784 340 -2488 1128 1131 6415 -2267 2947 -2601 -1181 -4806
-3722 2923 699 -1168 182 -2938 -1308 -2219 2841 3425 -3906 -596 4112 -607 896
3766 4446 1017 3083 -3546 4111 -5838 -1986 3738 1857 -1595 1032 4958 -1409 -2788
1935 2329 865 2013 -2871 1984 2180 -4816 3939 4047 4761 -1567 -314 -4738 2619
-2072 -507 -2403 -2218 2320 -2366 5541 1349 -1074 1306 2290 967 5883 -1812 2555
-623 1442 -3579 -1003 5485 -150 1317 5447 2740 -2913 3474 104 117 -4756 2967
2785 -126 -1680 3560 -3027 3435 1064 -2504 6861 981 -2917 2849 -4022 1443 -2008
1464 2452 1588 -1661 -6650 533 1226 5710 3585 -1592 1680 -1591 3213 -912 2225
