-587 385 -685 -1070 666 -225 -10 1578 487 508 719 -16 -508 -117 80 -1111 -1311 -102 1837 1197 -1704 -927 -56 -678 597 353 -145 341 -112 1760 108 1876
-1898 -1092 947 823 -359 -439 1753 455 1483 -129 2612 -890 -907 1813 -2269 198 131 -1254 -604 -1651 -697 -1929 -65 -140 52 -804 185 -82 824 511 -2549 1415
-340 1002 -64 -490 -125 140 976 -1271 -897 2 539 1414 -311 441 426 -1104 537 115 -307 58 860 -351 -628 1502 -1701 491 -555 -1716 -1586 346 970 113
-7 -2049 -857 -274 -1518 540 755 -154 642 -2179 -986 1502 59 992 -177 -410 -439 -935 867 -197 -750 1491 -2152 631 83 -777 -1134 -302 -368 1337 1055 49
1820 -167 -1487 -798 -1436 19 509 -222 -1146 685 2578 97 -110 -982 -438 -1115 -167 105 -835 560 -597 420 1305 932 1599 1030 -1253 380 1650 -949 -506 -1019
-1192 2164 -196 1711 770 702 195 -603 -2126 617 1363 557 894 -422 770 14 2166 708 615 -2051 1415 152 -266 -90 416 1520 650 -431 1289 2219 484 86
-141 -28 -1300 934 289 -1651 258 1449 -1312 -1115 -54 -221 901 -1542 -703 -885 -288 772 1104 637 231 -570 767 1968 266 -1447 551 1530 -614 -251 -474 963
-918 -1187 407 -909 198 562 -1659 1540 -404 1525 2082 -41 1586 -1580 -264 168 -502 -1173 334 1064 -1302 -654 -896 -2314 1779 1556 -1357 -293 -1297 -985 -1038 1270
24 796 1230 1015 799 -174 -994 -1286 672 -264 -1479 -1316 -1214 1253 96 1275 981 1455 1348 382 -889 1572 1504 -547 -416 -1327 1640 -509 -1661 1216 -1443 -664
139 111 3082 -2332 -201 274 -137 185 22 -32 -684 94 290 1067 -541 224 -1643 -668 2111 262 1139 -189 1485 589 -508 1991 -823 571 727 13 -1068 1082
493 67 -827 1025 1575 -45 705 1129 1556 826 171 -914 1779 -955 2706 -911 1661 819 527 -485 557 623 -383 1819 415 73 -160 -520 723 296 -1165 -2273
-286 -777 -449 -1365 -133 -435 -618 -414 161 -1042 -1132 -167 762 2078 -581 -645 1486 -488 281 1543 592 2104 89 7 -2121 150 -1561 -346 674 1801 -951 -1050
1534 -426 -1039 339 828 -275 -482 -309 -521 1014 -686 3084 -690 -715 1207 465 1022 2012 1455 1274 426 -774 -764 756 2019 -2389 -206 -431 556 -586 2250 -567
168 -1554 671 1620 -195 -2274 -182 -595 1129 -1344 -1215 476 -810 223 -208 -2016 -576 69 749 82 1972 -1171 172 -1115 -194 22 1111 -1281 253 1062 -612 570
-566 253 103 -906 178 388 877 133 -351 -451 -624 685 -383 2234 809 -166 1462 -2178 352 -1567 857 -471 2226 312 445 -1095 515 -874 -1049 -434 1387 2534
-818 907 1631 1156 -71 -1120 -688 1792 623 -537 1988 434 -1272 642 -404 1043 -1868 -145 -572 532 -1450 1075 -746 -909 1850 -1964 -1537 -1236 885 232 -1519 1372
-379 1042 -468 -1476 1062 -919 -122 -180 -410 -444 -2003 581 -2604 361 549 -598 -2558 -379 -1423 -1049 -394 -306 116 1047 83 449 17 -1137 949 -297 -206 1638
-175 751 1839 298 187 -404 -871 -286 -572 1184 618 120 109 -361 -1043 -269 586 -1454 -850 1445 -440 1400 -3098 -1830 -2 -612 -269 391 -683 -1512 -2595 897
-1048 -1060 -149 1206 1006 268 -1211 521 983 -316 -1322 163 -815 -663 -102 866 1145 1096 -1542 882 1228 155 145 -536 897 707 -1 -486 -1529 -730 491 1099
-375 8 -684 -854 569 -224 967 -2084 -685 -325 -659 390 1636 1017 1053 -441 287 -1313 1571 1204 412 -186 -1267 -2563 -749 62 455 337 1927 905 -1519 -660
759 962 1406 -512 1371 -1545 262 -758 -466 -1860 -536 1605 -440 2116 2575 -1202 172 -126 1287 177 51 -592 174 294 1245 1091 554 891 -278 382 692 1949
-426 -244 -695 1743 1494 857 91 -782 -1431 -1044 -741 -211 -1093 644 -1268 -1286 526 -111 620 -1246 -1009 -296 -1202 1057 -470 -1315 -524 -2655 279 -912 -395 -1214
-332 -1272 -196 302 1451 -1103 -2304 -508 -496 1206 -289 217 2958 625 599 -328 -1556 477 125 574 -2944 -527 142 265 322 -538 2137 841 -1719 -692 -673 -328
-81 -1042 701 503 -1611 3507 -183 -386 -1158 -1032 -465 936 2352 -2725 878 1354 -1406 -465 1026 460 -830 -419 -571 934 1341 1442 -667 -943 -454 285 434 1161
1073 -456 -1031 -173 -513 283 -1649 -674 1400 -1369 -43 -2285 -206 1004 -477 -732 -834 -794 -248 580 387 438 -93 679 104 -103 -573 1183 -147 -763 -749 -256
-340 -1220 -465 824 1803 563 1365 275 -1120 -135 2595 -405 -120 597 886 -202 505 2430 57 496 1328 -2039 236 -2551 -1497 -738 231 -101 -1971 -28 -362 -1564
-374 -1452 692 -1983 862 -887 -82 2021 -740 517 -762 1018 -1537 -900 -940 1328 -59 3222 575 -994 -852 -156 -1288 391 -1236 119 -1294 767 905 748 -1210 58
294 303 1614 92 -32 -163 -6 -238 -191 2147 -2242 -231 1469 -1026 -1230 638 -106 1017 343 146 393 867 96 -1029 691 -719 -1439 -1653 482 -2136 214 -634
-1185 -293 -1240 -494 -1231 -1266 766 -331 1787 -1224 653 -2360 276 -122 109 -1076 229 -108 -499 118 -56 977 2183 -656 -419 -476 561 -119 -1036 -1200 -1128 238
9 804 1371 332 -1719 1886 1568 -575 -591 -478 327 -225 1089 935 262 394 -1050 59 -170 905 23 -298 -64 -1821 -1243 227 -1057 1229 -236 827 1826 2
24 2234 -361 2068 400 -996 74 -804 -402 -222 -96 -751 865 485 -1327 -792 689 -967 402 -59 1432 -288 -1639 910 -1290 -41 -1247 -2508 -1071 -2163 965 -348
633 -214 -696 550 -716 630 -606 -1427 349 844 -36 -319 -576 584 611 -107 201 525 -1225 -1789 -1440 -539 1230 -16 69 1076 492 465 -124 -1799 622 988
1266 -1218 378 -167 1021 -256 -2407 -2779 1496 78 -366 946 -438 1325 -680 -834 753 643 -1364 719 -88 -382 219 180 -1018 -2095 1472 -806 302 1201 858 81
629 -1346 1502 79 -667 526 162 -410 1084 -2014 -308 -184 -128 -2107 -982 1099 1361 509 -816 943 -391 1476 933 -87 250 -1518 1129 -514 2302 802 -990 -641
46 -182 -1087 -1096 -288 -642 -1723 -66 229 -417 -516 -1634 2165 959 274 -973 248 -68 772 683 1678 944 1285 -806 -148 325 -1243 2061 1322 -370 -26 1972
739 -779 135 -385 1778 -2091 1661 2173 -208 951 -1561 14 -1000 883 493 -794 128 -607 -1880 850 -197 -268 -1248 -247 1676 505 2064 1853 -366 -1641 1637 -436
89 1556 1470 -494 -218 185 -1161 -1554 -1048 -197 -1143 -685 -210 -195 695 -704 -66 -684 252 -2586 -472 -117 -500 -2832 -190 525 -248 372 1740 1108 1773 -689
2260 -262 1176 -244 -906 -1166 1062 1195 -1865 -3583 394 -1611 -786 111 -200 1460 405 -119 69 -117 337 -284 -294 -1082 -1408 121 570 -505 -1134 289 -713 356
1590 579 -599 205 1385 -144 1092 -321 -835 -1452 -810 -1078 -2581 -1393 2019 1099 -70 682 572 111 760 -1455 -283 577 1123 2238 -125 -258 -3047 -406 2765 529
-93 804 -1952 722 786 -151 130 -767 -1087 240 -871 -586 324 -922 -1332 262 -1041 -542 331 -1552 -319 2209 425 642 2419 -964 247 -951 589 -698 343 1283
-776 81 509 -565 -173 627 1030 -293 78 570 1797 -81 -742 -639 -853 -1026 1380 -740 -800 321 -923 -118 -927 1395 1062 -90 370 2515 -806 -158 784 1900
-1061 2105 -470 419 967 -2430 -84 226 -545 -1039 -852 -1044 -303 982 1378 515 -1231 -816 -702 -558 -1434 162 -7 437 310 349 236 -771 2267 -543 -204 -1635
268 605 1586 -862 -1119 -1268 -289 -1823 920 328 -521 -2801 -364 -522 -205 2118 952 32 2173 -557 -173 1127 -1091 1007 -683 826 -613 1544 66 -443 -1139 1103
-1444 1136 1168 -204 742 1928 -1649 1093 -1810 -136 -2984 10 -369 -1750 -65 930 1895 -602 -511 210 -1023 556 -923 1295 649 2234 75 348 -1973 -9 -139 -478
-62 -1383 -447 211 172 -2115 3 -832 -1146 -666 -1557 954 -1178 -655 -1176 1107 -155 -677 -482 -1581 769 -406 664 -278 1364 843 -1774 -236 1614 -1401 -1558 -429
115 119 1362 -837 -740 143 -1832 507 -349 821 -367 1149 -1373 -1633 699 1595 -790 34 -2721 -1281 -1131 1064 947 1961 21 -2044 1137 -1330 2213 259 1593 335
1395 -90 -632 32 -59 -38 -1719 -1458 1104 428 -1226 -159 -1422 268 -1031 305 -2209 -1663 457 -1775 -309 -1828 -481 521 2684 517 1351 -1324 273 -249 169 -419
-527 -540 -324 939 -357 -374 411 -1037 -1155 563 -1149 1548 -390 -123 2124 -1450 436 -1416 -1975 -980 -1320 -1760 -765 -1022 323 -1405 95 882 -1332 1799 -995 -1288
-1467 1479 -2943 -940 976 -300 1453 -2047 663 -1576 -521 -688 -683 348 1202 295 752 529 2134 1966 424 1170 -1088 165 241 1894 -439 -603 -1639 -729 -980 710
40 1856 -703 -417 -1233 -1428 1466 -1365 -95 -102 -600 -1005 -527 -1752 1762 2470 877 1363 -1232 -136 -761 -1022 428 355 785 -2776 748 261 -1537 2318 -608 -259
-1918 1852 -1603 1168 344 -569 152 -1658 -375 -726 668 -644 551 -53 1196 387 -1405 404 -253 -1066 -864 930 1102 385 -1198 -1571 -1353 1597 1352 -546 -1359 -384
-702 -319 -599 442 594 295 97 315 497 198 -96 -553 -1448 253 -535 857 493 775 -293 765 -1075 -514 1183 -894 1903 464 540 -607 -455 -551 -173 848
561 697 -263 -411 -770 -338 -986 -214 -146 -256 -1296 -806 717 -2591 -25 1211 -17 462 -401 803 -417 452 1626 70 958 -605 -333 -161 -98 -915 -425 601
-550 260 -274 952 718 962 246 -1120 1917 814 423 44 1682 -69 -250 1535 -1672 917 -1731 -1410 -245 -1387 -561 -764 686 -841 -90 -1456 -390 549 -888 816
2236 416 -931 1422 849 467 966 -723 -791 336 -2533 1294 -703 622 -15 -877 -191 44 -950 -309 -192 532 -1132 459 941 -521 568 -560 1521 -1664 1098 -177
-139 829 346 -56 254 -672 -92 18 1376 1132 939 -354 -422 215 1841 -2276 -2568 720 -2568 411 493 -776 -1262 689 -792 342 -315 1819 2415 1111 -563 167
-467 -737 1029 -1979 244 340 -80 94 -684 315 -695 -823 7 289 880 1024 1450 -485 -457 -1264 -23 63 -1427 -708 -559 -768 1150 -724 1872 -443 693 -546
-1638 -799 302 -372 -939 -178 -926 1917 -2433 -891 528 -1559 -843 1138 973 351 -2030 -1476 -1296 -1996 -42 1246 206 1242 829 2161 2152 480 419 -375 956 -879
1463 -479 -1005 15 -1011 593 -194 677 1456 -973 1078 786 235 -1305 85 -762 -577 -701 -783 1274 -1435 -388 633 1002 1318 -1357 -179 755 -1820 847 304 -1287
-1298 -307 -611 -1482 -1244 382 1325 356 809 -959 792 -1277 -77 -82 253 838 -61 -738 -1082 396 -257 1813 650 515 1584 1675 -2048 36 211 1028 1154 1175
-1884 1179 163 150 -2244 -529 259 -31 -2877 110 -365 225 1374 -741 -693 -306 197 1096 275 -1510 11 -265 429 108 -411 -694 1280 -774 1106 1002 -539 -241
531 -742 -953 -237 -824 -662 1636 264 184 -133 100 -377 1898 -723 588 -356 788 -1054 -81 -210 224 -53 -1060 -516 339 1097 506 154 1829 -90 285 -1752
-339 -1664 -843 -213 -680 151 18 901 313 -5 -1080 -775 997 1467 686 602 138 -318 -1975 2160 -120 -126 -1176 194 -345 741 -215 -321 -1796 154 -1170 70
887 516 -179 437 566 592 2219 -615 -1123 -64 495 1086 -1552 583 -159 -19 -2550 -515 432 456 -886 153 -308 -1442 379 291 560 -1563 -54 1091 317 -1758
650 -559 -593 -516 -180 1704 -1189 -2163 391 -102 -238 -953 1096 518 -96 1324 1599 294 -1419 671 62 130 2410 -1141 -187 1256 -590 1611 -1591 -412 1084 -2917
349 575 -926 2301 1368 388 -437 -1387 -1388 -1383 -1417 713 -453 1122 2482 -1516 -1936 1206 -1493 1541 1379 1450 364 1569 -792 1640 1219 2070 193 575 481 -2873
-1314 -1559 -1460 -2162 -923 1478 -367 -414 661 -1170 -117 -857 -613 -1127 -635 781 1302 -185 -1205 -833 1286 1060 -2275 28 2624 1757 -652 -154 -54 -235 153 668
-258 -114 621 1639 830 -2111 370 245 -874 -680 175 -1504 -782 1593 454 1222 1057 -128 -1213 -80 304 -892 1881 -869 -119 1409 -791 1389 471 652 -692 2195
-716 317 411 423 413 621 1452 -1433 -336 -796 -1166 232 1546 539 316 593 -992 -404 -1290 -1194 -770 -794 -1683 1571 -999 -754 72 -375 930 986 -737 1571
435 -2748 899 -2998 1205 291 -898 1439 -86 308 -145 -1659 761 646 -1276 -61 -2483 1101 -557 1264 347 -1199 1787 301 321 1327 193 814 -1458 -3657 377 -624
-566 -263 633 30 -1120 2059 -919 -1035 1270 -1002 -1194 117 -1900 -1213 -722 -1154 -565 1081 -69 -1328 -139 -1346 -1704 -1897 -406 12 -1903 -353 2382 3033 206 1319
1129 -390 -1025 323 740 -1454 -828 -1199 -692 -1679 698 192 -808 1527 1065 -1477 -52 -1698 792 1110 956 -526 751 1480 -36 334 507 10 -137 2252 1900 -1545
1025 -315 -205 -824 -106 -134 616 386 -1799 2153 2105 223 165 -465 1423 -2384 1594 -420 469 -205 221 260 -2015 162 -1384 1047 -3019 -2301 291 -1428 -559 126
-1423 1091 -1214 1108 -563 -1354 2666 -1962 386 286 249 -595 -943 -1562 443 3607 787 3015 -972 -1013 -2455 127 -987 -1369 -341 -1752 56 120 844 -14 381 -317
-1333 -1690 942 -2006 1222 811 1331 -1869 762 -182 -51 -369 -761 1791 -2015 -370 -706 615 -651 -1493 588 -1571 -1197 -1489 1186 1810 596 824 -31 -992 1578 946
289 1890 -714 309 -399 2401 2113 -1168 217 1624 1582 67 -1914 -1441 1788 307 -1159 1870 300 403 63 -918 1688 -612 -238 545 1164 -1579 1002 -1544 895 116
-1885 -623 1290 -196 98 -160 285 -784 -762 -933 2758 -1063 872 -1857 299 20 -2201 662 -2087 -585 961 493 308 -2574 40 -255 542 2132 -173 330 -1107 -632
-562 653 -769 -1143 193 1742 -405 546 190 488 -184 1767 -1415 1982 662 1613 385 -2346 1311 250 -2910 603 -1056 -815 513 -36 788 661 -1678 -1522 1031 -850
-1730 19 477 1 178 -207 -144 196 -1241 -190 -181 -1170 -1279 -501 -1011 692 -838 -25 65 808 -868 812 -810 -779 1351 1031 314 1994 1321 -881 -2513 490
666 -1059 -1377 -366 -2395 2722 453 -431 637 2216 -976 -39 -1151 470 435 -163 2396 -561 741 -1108 -1047 597 -553 311 706 1098 189 -1337 -277 1802 1904 -989
1177 -97 996 2479 1351 1114 1531 -888 1481 268 460 400 1279 -375 -1084 592 1055 119 1171 -2650 -1161 612 1924 -955 -839 -532 -327 2397 1059 -1292 -819 -151
-1197 -1552 -672 589 -1274 -2746 423 -1280 431 -1457 1088 1009 11 432 -380 1154 942 452 -25 74 2142 -267 557 2730 -160 -828 1186 -1740 -954 566 1242 152
-920 79 1035 502 -718 1262 -1906 -507 -3468 1957 93 -1076 759 -288 -194 -2562 -457 45 1277 90 -1786 1216 -41 -1657 -897 -311 83 2887 162 910 -384 -1053
-1665 -1824 537 258 494 489 -1472 -154 503 27 -284 -833 -603 -400 -2660 423 -3352 3083 -1997 599 -5 1671 352 1292 913 1261 729 -1572 -1456 -1385 355 2103
151 -1408 -947 -607 -208 1500 1478 452 -79 1339 1650 -916 1291 -564 -2266 1239 862 -1729 -1902 -1319 -784 -689 798 1714 -2114 -1356 -565 501 637 -131 1047 542
353 448 -335 138 -1182 -836 385 -2517 110 1167 2539 -259 -611 -556 1227 1346 -272 1626 155 700 473 2062 -98 -183 1787 2527 -64 1648 99 160 896 750
530 -398 -1019 -1195 -700 1336 1585 -263 377 1736 339 447 -2242 -2192 -1269 1636 25 -2120 -846 -36 2737 -1693 -138 2215 1329 724 -1737 -2491 -601 830 -851 -895
1525 -1349 988 -736 490 -1180 -1019 689 1600 431 -602 -143 525 1392 -1430 -1731 467 -697 -398 -641 312 1003 919 -253 -2666 44 -1030 591 1259 -1140 -1545 -465
-432 -169 -308 -669 -1827 -1010 -234 -537 -877 -732 445 1162 2349 -780 1071 1433 1644 585 -80 -1368 770 -70 -1100 -425 109 1157 -601 -862 -635 -271 -1232 -756
-1083 2123 -1823 739 -316 -1685 -1920 -1798 367 -16 -447 -922 1724 -470 -370 -1212 -96 -955 -1756 984 -1541 1774 -516 2492 115 -116 -258 -376 899 -9 -53 1359
-23 549 -1979 1622 78 1082 2798 -896 1300 -77 -574 -933 1735 -1239 420 -877 888 -1363 -1945 214 -1204 515 1935 741 -557 -1628 848 -1622 919 243 666 1470
512 48 -2698 -1193 -299 891 615 -255 -206 558 -116 -35 1283 -729 876 -467 -1148 398 -713 658 1031 -1266 -133 -160 569 -832 123 433 -1726 -639 -1141 1071
576 -776 711 2137 -420 1263 -568 312 438 1647 -576 709 -2001 1017 -769 42 -91 1516 593 -648 222 -2916 696 992 -703 670 -501 1520 173 1335 772 -2261
-84 -2483 -464 -851 -692 -2795 -1129 956 -556 -510 404 1310 27 692 -276 -1455 1372 172 -370 -3014 -596 -944 584 3093 800 392 398 -982 1382 -385 -1034 -843
-1030 -1197 -813 -1658 468 437 -881 324 -299 -367 892 0 -1213 -272 698 1050 -1272 2098 1060 -1626 43 -704 3169 -2137 -690 1089 1389 1622 -10 2093 -2070 689
-355 1100 1360 -726 1925 1052 -216 1944 1784 1648 2188 73 -2138 -758 -1031 587 1948 53 108 868 411 2362 -389 152 149 -13 -2107 -1196 2008 177 35 -2144
-1327 -22 -930 1187 -413 1636 2058 182 -44 2037 1984 -1162 17 -698 -1306 -30 -408 620 1528 1560 1918 967 1167 -23 766 775 -1123 -1259 1034 -1343 -792 -985
-2378 100 749 -1487 -73 -628 139 1684 -859 1569 825 -525 681 -1504 785 -904 -1156 -775 1428 2410 2706 -1266 -1045 -23 -2562 -614 -680 -128 -1474 -1051 1588 131
1999 -147 -1485 -297 717 246 -1631 1885 2313 -278 -215 -186 -439 225 1025 849 11 -2701 -1017 -1273 -1944 -1937 69 2369 625 -106 1552 -248 -185 -1448 786 -2741
-1906 1954 240 1804 -103 -438 893 -865 -145 -450 -399 1770 1155 -1409 1149 -388 930 278 -919 1215 607 -2241 170 -1741 1054 1131 59 -663 2297 1577 -304 -209
446 771 -418 64 2211 392 -62 1346 2159 1738 1654 1010 -924 -384 -785 3199 169 -729 -85 173 419 -58 -596 2108 -226 533 -736 -2631 -1221 412 739 2126
-1496 -1718 -1400 18 -252 -744 -917 -2248 293 1355 -953 1615 -27 -688 821 753 -893 663 494 829 -654 -906 784 1448 228 -495 919 205 -847 221 -1723 1322
-1425 6 -1241 -125 -553 167 -1437 -251 -673 1795 836 44 1068 219 871 539 -75 703 532 -495 -1486 2849 -1297 -4329 197 -2028 -34 -488 1338 -232 -932 -2774
-293 675 983 -1822 197 -219 937 1022 -158 817 1338 -1625 -851 715 411 752 394 264 -1111 1496 -502 -2058 137 -575 -419 199 587 -188 -1205 -446 2393 -900
573 -461 1032 -2000 -2059 -1246 -258 1685 -151 -1164 -1375 -77 515 -959 -1499 923 -596 862 1848 656 2661 685 -1333 1540 1075 -1100 -133 254 -167 -1567 -208 -2042
-243 -405 -2162 -236 188 1341 -1167 47 2526 2011 2688 86 -1097 2632 -205 676 854 207 456 1017 -902 -224 -1598 608 222 -128 1384 1513 -1248 639 -438 407
547 542 -1168 -558 975 344 -706 2110 -1121 -1093 577 3152 -474 384 757 -1217 -2876 -898 -268 -1010 1118 -2210 1416 -2008 995 -1122 -565 327 -700 -190 219 26
2802 1359 972 206 2 -2601 526 -603 -708 3627 2380 -1165 230 -11 1922 861 175 1098 -48 -217 900 -1179 1575 -1788 962 166 -490 688 1127 905 1934 -1351
-254 1317 1278 367 -577 1241 1217 685 391 -473 761 -1967 -170 292 -1278 109 -671 55 1485 -1568 1346 -288 1112 -1813 -1875 647 -1963 452 -480 179 -234 674
1172 1761 -304 -3078 -303 3259 104 -496 -1175 963 605 716 1160 532 -60 -1033 335 666 2803 247 1529 683 -1187 -1057 885 1925 -684 -412 -1560 -1424 960 -1082
1181 -629 1372 312 22 1372 3060 -225 -70 1138 -2176 1356 1196 -1028 252 -2078 903 2056 642 3594 -1303 -561 -613 2982 -1021 625 -1117 346 587 -1075 923 -1833
-191 -1219 -151 -1325 2154 1081 587 172 1046 -1548 -650 -2431 473 463 -1678 685 -360 1349 211 -597 385 2061 815 -652 -480 1297 18 918 706 -540 1466 -534
111 -2388 695 3480 -1246 2108 -197 7 222 -419 -135 1131 1135 996 825 920 84 2511 467 -1662 515 -80 1042 -298 -831 -2169 1681 -389 -560 1849 3120 -1342
-443 977 604 306 1116 889 1013 91 -1166 -944 -626 489 695 596 -49 -2272 -52 485 193 -456 1817 282 1990 1088 -274 112 -1503 475 1302 967 338 1205
-1964 -324 1903 -137 1163 1462 162 1004 174 -1122 567 1129 279 1817 843 -834 1027 -600 1276 -1905 -1029 223 242 -250 895 1404 1894 -559 301 177 -2573 328
-960 -2812 -498 -228 -188 3067 -1985 703 -411 1582 -1474 802 1212 267 -2109 -703 190 -347 557 566 -324 2093 921 2154 -713 -1351 -36 -774 -752 -1097 2470 -784
-657 -1504 -1460 48 1497 -1056 1532 1194 1554 218 968 -1185 -1346 -524 268 -1040 -1672 1021 763 -642 150 1347 -727 198 423 144 -1276 -854 761 -1146 1342 -1166
715 -416 -282 -2010 -508 487 263 -612 -630 1320 -907 1088 -957 -1159 531 -224 -740 1031 -980 1045 1204 432 1286 -1010 341 604 1264 1206 -1640 -404 -368 506
1721 -1496 -1101 -84 -1232 162 -217 1920 28 582 283 -1689 -1934 403 797 -628 361 1472 626 442 578 1226 -868 2029 -1752 -845 -625 1120 2296 1162 1162 -1234
337 -376 1497 8 1240 -3032 -364 2350 -392 380 946 1447 856 2276 -269 1544 -816 962 1757 -2791 369 635 683 589 1669 -2281 -419 919 1325 -1592 -252 -246
-773 481 -249 1838 -1782 -345 524 -1035 677 696 580 954 -537 -346 -165 192 940 272 630 1911 2138 2008 207 -1036 -848 -199 -207 -564 -1103 1256 -21 -626
-169 987 53 -81 -934 181 1712 -2644 130 849 939 2210 -573 -505 -1642 -594 1416 -183 269 282 -968 -917 528 -719 -144 -3759 1347 -220 872 523 1882 76
-1148 428 1332 -839 -1496 564 2408 432 608 -1441 414 -148 -234 1304 -697 -110 -1207 -528 264 -1850 -29 -1952 -1356 -1499 -320 -1012 2043 199 801 -3706 647 921
543 -22 391 -1249 -545 -814 -632 28 923 171 195 2850 -1969 1851 -697 -1635 1209 295 -39 -673 -255 -524 -419 848 78 476 -13 237 821 513 -1013 428
1380 -414 412 -1027 835 -1263 -1218 1539 575 -602 -1411 -487 -1179 2307 360 -1040 -1053 -1531 2009 -259 -136 -93 -2908 -1779 -542 336 -740 -763 816 169 992 436
-665 840 -845 -1826 673 -294 322 132 -1448 105 -509 872 -902 151 -1073 25 -2382 -1226 794 -897 354 1866 2374 1221 694 -1495 -1462 -127 -1352 -270 -2616 703
-1265 1142 -1279 -906 -1436 674 1726 -1750 2099 159 914 175 991 257 -452 -788 -672 -119 2353 -1979 -494 -653 -239 -914 -1361 -1506 952 1185 1690 2252 -1847 2435
80 -747 360 -1685 -1947 89 -1109 893 719 -242 -2089 -554 57 -1436 -2024 -1124 1823 16 809 1197 -211 913 -1680 205 -834 -665 268 888 -2028 -728 561 1214
-2220 829 -1239 1499 357 -1782 -509 63 -606 695 -713 -605 -514 784 974 1075 -385 -1399 -617 -311 -2621 -1253 2143 935 -537 1134 1113 2301 -374 606 2406 -2302
897 680 -2272 2674 -779 895 -161 397 328 -1182 -196 52 -1846 3147 -748 -317 -644 614 -1209 -1485 851 2970 983 137 587 829 576 1795 -58 -140 446 -1804
4 -77 1098 1439 238 -151 1605 -878 -1957 -1644 2256 1818 -20 -1630 -2253 -934 727 1672 -60 1679 699 1649 -677 -331 890 -480 -983 -1077 -218 -1461 -675 284
-903 1385 2532 1918 568 -379 -284 -1953 -149 -1209 2099 -1188 1695 2517 1229 -105 944 -721 346 -1773 -1188 -643 -418 3133 -1304 -1453 -2885 -2464 -3321 -705 -1722 1200
-330 -2131 429 1044 -2393 -363 809 -962 465 -868 1668 1468 984 -216 804 -1049 -1180 -256 -2156 -60 -1844 509 855 3118 -2092 -971 1884 1273 -835 -1360 -3614 -474
-1850 354 80 -629 2587 570 -1174 968 1688 -467 1592 -645 -909 669 212 -1434 -1302 1854 -2450 -190 722 -1132 -723 465 -246 272 -3046 1801 1186 -2152 1423 -3158
-1600 644 902 -967 -539 -1198 937 916 -25 -938 257 2973 767 -110 -4531 -1698 313 -116 -729 -97 -249 -232 -223 2925 107 109 -469 2290 1942 1486 -1545 1541
-1399 1679 -171 539 -1464 901 -3208 -1227 -1767 -757 -828 1262 676 607 172 746 567 433 276 -747 1848 -478 1252 459 -572 1876 350 183 689 1984 230 -424
-1153 -45 -1896 763 1679 1274 -383 40 -505 4022 851 1592 1476 1335 2849 457 343 -950 543 -1754 -522 -700 -1680 -2551 -732 -1490 -2088 -2320 2237 74 389 542
353 479 1604 -1133 -1595 679 3152 -1416 -2948 1142 393 -243 1342 -2071 19 1050 -722 2286 691 125 -1314 1625 693 -1052 -1209 -2187 428 -1859 76 162 -390 476
328 -1312 -377 -34 485 -174 3416 -1935 -220 637 28 -1013 -266 1549 -809 -1961 1465 1086 -1199 7 -256 -611 -1088 -1438 -465 331 1337 963 -638 912 35 375
859 -43 -3201 -2043 274 866 301 -2110 1085 -2626 129 1266 -1443 -1120 513 -566 -1603 98 284 -1812 559 -1073 -576 -415 665 -2954 1418 329 1613 -2863 -1750 -2123
-849 -397 -1686 -2308 1465 -55 -64 -1234 1099 -495 1473 -315 -219 -292 68 -1484 537 -231 -400 1402 -257 282 -3505 -435 -1739 -1335 3380 529 -2001 855 581 100
274 -1894 538 1002 201 -2212 442 202 -735 -1899 408 616 -2735 1602 165 2192 993 -2 -20 694 -1534 1198 -2191 -637 -1211 672 382 1136 -1268 1848 -1166 2481
-2085 167 585 -1989 1278 -2299 -1453 2976 -2356 -2068 774 -2400 -1450 -894 -1782 3279 1816 -619 -288 542 2167 135 -629 -1327 -1214 615 1040 789 1685 1889 -1508 1640
-829 -658 562 2234 -3877 1978 -2439 1800 -522 1619 1120 190 -1283 1593 1262 671 1020 -1469 -2080 595 -294 1529 -277 -17 1404 2232 366 -1946 -1727 141 -431 2266
85 -866 1630 -2172 58 -1681 -144 1420 -246 2373 -264 2293 1358 -1636 97 297 580 1012 71 -844 383 1095 211 -163 -2451 1318 -2633 349 1308 395 -3259 1253
-1580 -1668 1017 2199 -518 -1464 -183 1586 684 1586 3332 -508 -359 1201 -3361 1454 -1644 -2123 -949 -1720 -815 -47 -1023 455 -16 1441 2866 -3007 114 -2033 -305 -668
2330 -1690 -163 -1197 -86 274 889 -1047 -2552 1702 -631 653 886 -629 -401 -368 465 132 926 1703 -273 441 347 -860 1067 1169 -2530 2755 214 1091 1750 -1265
-2486 2283 1525 525 472 -2178 -1405 -873 1584 -98 94 3 -1704 -1056 -838 1066 -3800 789 -770 -1036 711 450 -1403 298 1753 1831 1078 -743 -240 51 -1616 413
-700 -1338 1219 -256 286 3287 773 577 -1156 1934 1600 553 1336 1271 -698 743 3453 -1540 -646 -1399 -1620 -2158 -770 1510 -3214 -149 -1050 3052 1026 1703 -243 -242
-1686 576 -583 -1425 -200 -1812 -2074 650 -3078 -2547 -793 957 1491 -349 1005 -570 1956 328 1464 -1672 353 846 -2519 1010 -1446 1731 -139 1200 972 -1492 1426 368
-2739 1643 -478 -2245 -251 1537 1283 -1331 1478 -1603 3023 -650 273 -1906 -947 881 400 -619 1036 -569 1005 -3250 2808 863 -569 2298 -634 -1323 -411 1042 -1913 -488
481 -934 -3002 -1393 472 1254 1121 212 -375 -1161 -1551 458 2196 -1314 -1895 -1828 2946 -1905 -1298 1287 1451 -1180 261 -2949 -1749 -285 -1723 -1555 -1927 1066 -1024 -1447
1166 -1454 728 751 398 966 916 917 1974 1884 -1303 269 2249 134 1657 -1925 71 -570 -332 -925 -938 -858 1141 820 -620 725 169 909 -945 -2318 2337 2310
751 1872 -2083 -389 -985 -1438 -1077 57 2589 1349 -171 1210 1452 481 2462 -1897 -1570 -117 -1769 3129 -2585 429 -530 275 361 -28 -1452 -2056 -342 -410 102 -344
333 1635 -2015 491 921 -1704 499 -793 -1282 2639 18 863 404 -2231 966 358 1652 550 -2659 -1816 -1012 2346 -871 169 -730 1598 -1023 -1184 3005 672 -1301 2220
1702 -2963 -649 339 -259 1997 -333 401 -892 -285 522 -741 451 1242 22 1307 -2011 727 -603 2 1427 -566 -1088 -1897 -749 471 3369 190 -779 -1603 -614 -110
-904 -1248 2107 2293 -327 712 1525 -1748 1813 1584 1190 247 -1819 -523 -1384 1616 -1410 1283 -2122 444 -1653 -2130 18 2506 1760 1849 -1307 16 -2481 175 -770 759
-2695 -2373 516 2403 1672 -842 -852 1654 388 588 -1222 -837 -1978 -372 -97 -832 1186 1415 -1677 -460 98 -3053 -3189 1514 156 610 2514 -1848 -1118 -1373 -1787 259
1231 991 694 290 2490 1097 153 413 555 1490 1208 2488 -1962 34 -359 1775 -2105 -1476 -404 -1093 -805 1588 882 -97 1291 347 -1002 -1023 -2713 230 1542 -1327
-727 817 1701 258 2801 -2021 -573 1589 487 3181 2916 -1607 -207 1058 1653 1310 0 -1635 -203 -532 1256 -45 1499 3074 425 -3288 -2370 -718 1500 -269 403 -2478
1428 1282 2015 -2707 2416 -1400 -867 -946 1039 278 -1701 2532 -472 682 1974 239 1818 1175 -2293 -2036 -1036 -1126 138 -1372 -810 486 -1078 507 545 1529 1593 -1131
366 -61 -524 666 -1525 3 -2425 -1773 -150 563 -2329 -114 -42 2835 -389 1800 -684 848 -1660 2119 -120 2671 561 296 2763 -742 -561 2644 1269 840 932 452
-1858 -1128 80 -2229 -970 414 -48 2347 -2331 836 1212 691 -713 -2062 20 -2695 -1453 1990 1432 3520 1728 1798 -353 -1816 2751 -907 -2325 -625 2112 -1668 -1269 -1126
-1053 286 1239 1721 1182 -187 -1212 2213 1355 1147 684 -2342 -906 -2554 313 -781 -2351 260 2764 1000 -2311 -593 1073 -195 1817 152 1440 1204 -409 -3305 -360 867
-1069 -201 -1201 1498 -422 -1308 -647 313 2040 -2454 -1969 -382 3120 91 -573 -1676 -1832 -1881 421 3163 -412 1452 -792 -555 -2224 -989 -956 2064 -2357 -583 -2462 -7
274 -2189 536 -1478 -207 1066 -1039 2406 2013 -461 -566 -1337 -677 1537 445 828 -2181 1422 703 -1055 -687 -2203 1289 560 584 -1061 -559 -1957 -2404 -2205 -797 -2041
1812 -269 -1553 763 467 198 1059 1248 2355 -10 1393 -2084 -1105 1530 -814 -785 -1082 407 875 -2167 197 -1167 -92 434 2158 582 2114 490 864 876 2172 -882
91 2117 -1264 2815 577 1789 666 1097 -832 208 -1587 971 -901 -1418 380 1084 -2122 1435 -1297 -2479 -172 -280 -347 566 218 -1138 -1782 459 4247 162 -1348 -2203
-1582 -898 -1209 -124 -493 -1702 -1703 47 677 4020 1125 2084 544 -1076 1068 -1762 1424 685 -1030 -1196 1186 -1157 -397 1009 782 60 -2702 -1472 449 -1510 -728 1122
-2497 515 -577 2937 -293 4 313 -1898 -2244 1156 1161 -4030 906 -772 1524 -553 1134 -867 -1804 -803 -1617 2709 1256 -264 110 -888 888 4 -735 -2128 1370 1837
-1303 -973 1941 -916 -956 -937 1365 498 -367 -1556 -882 -1876 -273 689 -515 193 -152 2470 1465 -1460 -476 650 2418 -824 1347 1847 -1257 1713 -1222 1573 765 264
-2098 -3644 -1531 2282 656 3432 -351 1037 -990 -213 693 1895 -3355 -1399 -866 -1041 1932 31 -1288 208 -1539 1506 -888 2080 -72 392 -913 -742 1164 -3002 -2501 -106
-1530 -2019 737 -2866 2224 -2834 -457 565 54 -2385 1144 -629 -1947 694 793 -1421 -418 -468 377 -1719 772 276 -478 -1240 -1983 -1579 551 -195 481 -903 1343 -3292
-2717 -3106 -647 1671 -487 -259 -1495 -964 2735 849 -313 901 -698 -2398 -1023 405 -768 511 -2740 507 -2557 -2359 -1256 71 -779 -724 1078 -463 952 -2003 408 -2152
1598 -308 -2687 -711 -1281 -1728 -1996 -910 838 -25 -728 -1973 -1562 1030 84 2101 236 -1431 -563 2056 921 315 31 -1563 763 -1754 1479 1045 1456 -1433 1252 -76
-1771 1561 -818 -398 -3162 1058 -2364 1697 -2422 633 -477 -137 -1146 -789 -1505 -3506 -691 -959 -2268 202 -1674 -1440 301 908 -458 -1252 -393 -831 -1926 -664 561 -205
248 -1109 -1041 -444 1348 -2158 -889 -1268 -662 -885 -974 -444 985 656 -862 4013 -768 -2086 354 1026 1015 -1350 230 -617 1717 1881 -1991 54 1013 -1420 -890 77
-632 1496 -1693 132 -2243 -156 2280 932 -1179 -3210 269 -2111 37 -1079 357 1272 -566 659 -1316 -1178 166 -1950 807 -1396 -137 266 -242 -1414 -87 836 822 -2264
2296 2119 -1376 -1349 -2601 -3567 964 -3136 -1656 1987 3335 -864 -610 -909 -1581 -345 -1106 -410 -2408 827 2371 2031 -1002 2200 -2536 1257 -1297 2960 1048 -3020 887 399
-571 338 2171 2549 -1542 -815 -600 1184 -1519 -3509 870 202 -113 -1287 -815 -843 -2065 -543 -2216 -1696 1210 -1509 1404 -52 1529 1050 -617 316 -798 -1240 -1597 -498
-2280 -2343 1130 1685 -210 1872 -1496 267 1070 3388 1473 2099 1751 -1333 -2490 2200 1529 -3550 -162 -745 954 -393 -2273 1593 283 -2853 1702 1621 -1719 1143 1284 443
-161 27 -240 -1257 290 191 1496 2748 1076 -672 774 -359 2600 -590 1384 2076 208 1993 -1159 -1843 -1748 53 -1197 1032 -979 -74 -138 1794 -824 920 -41 -161
-2093 2306 2869 -1142 -1359 1835 2558 -2469 -522 -1211 -777 2624 -484 1689 149 -619 -1068 1989 -136 1052 -81 -1345 -1510 -2644 2277 3894 550 -1792 -510 25 479 -1509
-398 -1194 -2573 897 294 -748 -3371 -2653 2687 -358 -1287 -1372 -652 -1369 -3140 -196 1000 -957 -2572 -139 266 -2910 -848 -3418 -153 1331 496 2649 -1407 457 -1293 -630
1293 1019 -273 -3228 719 -567 -265 500 -129 -394 -2245 1422 245 491 1697 -672 -440 195 -1319 325 121 -3653 948 525 607 246 97 2398 560 -1685 -99 -401
-299 426 -1496 -898 -229 -3286 -2501 3465 1031 -1171 1531 -1948 127 1208 -387 703 -1283 2064 -31 -762 158 1225 90 851 -1272 -13 -107 -1848 -281 -744 187 -771
291 -153 -722 71 1602 -637 -909 -2213 1296 -310 406 2239 -201 -588 1081 -1985 -684 -2308 -1037 2966 532 3255 1085 1152 506 -1104 -363 -203 -962 397 -758 -1540
-248 -2624 -2443 2837 719 -1435 1278 399 -2758 993 -1191 -226 -2641 -1152 2568 -268 703 868 -1293 -2172 -1918 273 530 -2084 -1049 2106 -598 -1126 -2822 1582 1862 -430
-1069 859 -220 -2020 477 2436 2263 -1910 263 -1814 1040 1430 -2916 -1554 -421 3920 -573 -615 -1887 -1181 -3543 -1338 -926 313 -681 265 -3239 -296 398 972 276 442
-409 -1607 -1678 1207 1444 -1507 -1328 -1553 -325 1033 1295 2000 -1995 1326 -1254 -3290 4386 125 -2099 1920 -607 -1677 -1585 1983 -1644 -638 2002 -2577 1730 -1703 -254 345
-4003 -3637 -1873 -1802 1727 757 1891 968 992 76 468 20 176 510 156 72 -943 1195 -145 237 -2522 1116 -1304 -779 2435 867 868 -760 -1904 -598 -1431 -2238
1 -275 -1773 1646 -667 -1078 3147 63 -1339 82 811 -494 1244 -238 293 -2179 -1163 -483 -1174 677 -680 43 1087 -646 1347 -2221 2160 -1475 -591 85 -573 -626
-720 -496 -871 888 1307 -189 -2015 225 910 -228 1583 -597 -138 197 -3790 -2405 -1204 1168 -1249 2959 -670 664 251 -273 -222 -2779 -423 -777 846 258 -405 -635
-123 -312 766 -744 -422 971 1099 -58 48 -1056 694 572 -717 -3287 691 375 2141 -1744 -890 1745 951 -3189 -412 -1045 -1098 -2881 -1159 -1858 881 373 -617 1394
1237 -277 -374 -29 -939 -96 -1981 945 1887 -1065 -1075 21 165 1898 1410 -1742 1500 -2542 68 -946 -394 157 -891 1941 -2343 2051 -1239 -29 -989 -194 1124 597
1722 934 -517 -2102 370 -1668 3036 865 642 -397 -1699 2289 362 1209 1239 -1629 1981 -1996 -860 1928 -574 222 -2133 -1523 2901 274 2697 2041 -584 1743 -446 -1473
-1043 428 -548 -685 689 -173 -1292 1081 -63 1280 1010 770 717 -2251 521 2649 -1448 107 -1084 -350 2928 2436 -1630 -971 389 1036 -2386 -1075 694 464 2969 -342
841 -235 -1718 1613 -935 665 657 -2151 -2048 -823 364 226 -1318 -2197 -305 1359 2002 -891 2049 -1554 182 -561 214 -482 -463 -671 1116 2250 438 954 -855 -1337
-252 465 -933 1988 667 -446 -152 1680 -1648 126 755 -189 -239 -795 1233 -26 -1832 2230 -1664 440 -95 -344 1086 -602 897 -187 713 1423 -964 -1036 1752 -864
1704 -811 -113 -1741 1461 628 353 -101 -529 -1476 482 -476 2745 -127 -1955 338 -1810 1001 -143 -313 643 1664 -538 -1555 1574 -812 1131 -2294 -305 888 888 94
220 -1341 354 514 -912 -466 2863 -904 -347 -476 965 -882 -1937 -2180 -3426 1236 714 -559 1810 35 856 783 806 1485 2667 23 459 2211 -1003 687 1325 1976
331 -759 -1087 -374 2137 1703 -508 3322 764 1200 106 -414 400 2421 1048 630 -91 -396 556 -271 458 -1672 10 601 62 1230 35 -373 -99 -216 -377 546
2394 2505 -120 -541 1172 -948 -777 -862 1395 1232 -1622 -239 -1263 -793 1041 2629 346 -178 184 -1224 -948 -1512 1058 531 -2585 149 -1276 -87 2155 781 1163 -1122
2066 1453 1608 -542 3312 -961 -480 300 -2331 753 -354 -459 1269 -49 1350 655 315 275 19 2527 -210 122 112 33 1154 1905 -682 357 -274 2208 3146 -362
401 -37 271 1863 -13 1942 -23 -1440 -2163 897 129 2086 -2185 -1326 243 1800 -117 559 -314 556 -257 1217 -85 126 388 -272 -1728 -32 10 -760 -618 -864
-293 1148 -1027 -2093 -302 2484 -773 488 -915 1482 -2508 1306 1105 309 -19 -1344 -355 404 1433 -1638 1273 1522 -74 237 -1452 451 1337 -2420 1029 -989 865 -336
2327 -34 -664 844 -1331 1745 2761 -1611 450 1009 -979 2257 -268 95 53 -1325 -1939 427 366 -712 -867 -158 1475 1041 676 2459 -88 -1685 -132 -1035 555 49
-828 836 867 161 754 -673 -259 1522 812 957 -377 517 -10 -1363 -100 -926 283 -537 -1336 -703 -808 774 -153 670 1117 342 -1691 1316 -290 2424 -827 -632
-2593 2288 -1778 296 1481 -1041 -707 -1867 168 -831 -690 1589 -2551 2537 2361 -608 -838 706 743 457 9 149 -384 490 -10 -169 1505 -1993 -991 682 1820 -287
235 1544 314 1793 -956 25 1218 -842 -355 1582 921 -95 -2315 529 577 298 750 3077 -1337 -601 -403 1190 1150 18 -1123 -1113 -893 212 -1254 1367 -1703 539
-2379 -153 -635 128 1232 1679 58 -211 382 -1615 805 475 -1390 765 609 1823 2489 1500 926 -1671 656 54 1393 -1100 -137 -544 -1805 -125 101 -778 -2363 -864
60 -811 -107 -2019 1548 775 202 1392 555 2225 -3518 2537 772 538 -91 -1689 1351 -927 118 -1607 205 2501 2664 859 -455 -173 1390 -809 200 544 -421 840
-1978 901 -1711 -33 -564 -3639 754 2583 519 -2769 -52 -1799 -399 -1911 2875 603 -2213 551 1150 77 -804 1319 1221 -545 3553 328 520 -1202 735 -841 -396 1699
187 -1103 -2001 -479 1873 2977 -1138 127 797 1550 749 -1140 -1700 -1130 -2700 -303 -1374 1195 -1567 -2110 -146 -1056 512 -398 745 76 857 -2304 -2402 1892 -585 1045
1259 -1695 -2078 1736 1013 -1192 656 -322 -2158 -372 -2965 535 -872 1305 376 542 -899 435 -3510 -1111 -998 2453 -1404 2241 650 -2149 -1302 510 2042 -688 929 -1231
892 416 810 -961 431 -1995 1227 2758 855 136 -387 -1053 977 583 2788 503 -2942 1995 271 -183 -918 -1200 -1 1975 -414 -2 563 3036 2911 -1016 390 -1151
597 -2903 -300 -1340 1414 -714 443 -356 -10 -20 1877 -3114 -536 1283 1558 962 -1262 -2175 -651 -177 1596 3640 -564 -1095 -2595 345 143 -19 1295 1207 -1129 -1851
-303 -2085 1115 392 68 1298 1654 -972 -2992 -2109 854 442 -906 681 494 949 802 117 -842 -1732 -157 687 1524 -712 -489 -804 3997 675 -672 806 321 -164
513 -2544 899 -1703 -772 -439 1608 2091 1480 -1300 -232 149 -1734 -313 -1510 1240 348 1229 1309 -1521 -525 -2790 1154 -265 1573 -402 337 2306 -1746 -568 35 -2002
-513 1060 2062 -1590 866 1705 1335 -806 2814 524 855 972 -1812 1362 -33 786 1560 -60 878 51 1084 1269 512 532 501 2087 -1201 -1015 276 1349 543 502
1017 1449 1221 -31 -819 -3231 -2732 1880 -2119 -918 -3021 -863 931 -897 381 -1842 -1211 1013 4017 -220 743 1577 -1590 -1174 -995 1928 439 -38 1587 -747 1286 70
-261 968 -1344 -1862 -666 4 2464 1385 676 -1827 918 -2361 2193 -417 187 602 -2580 -1269 1626 -712 1984 780 797 -478 2089 1951 -3228 2284 -471 2213 -700 -1081
-513 -122 -734 680 -2730 -651 333 -2331 1664 -465 508 238 -200 1774 985 -2470 999 354 -842 1413 586 -1691 498 -487 -1962 -2437 -985 -555 -1066 -142 109 534
2559 1531 1124 -1442 -603 2127 172 -591 -1795 820 -1564 286 -897 -85 1011 -498 335 795 -406 -894 -1557 -1022 478 -1392 -1003 1053 477 1313 -2053 115 -1856 1141
-211 -1792 2800 -2345 -585 439 846 -697 820 2076 125 1992 435 -1975 -96 -1537 880 -541 -936 1285 870 -628 1165 -1811 1562 72 1421 -242 2554 -1709 -1481 581
-3912 -1319 -846 909 811 -296 320 -261 -1685 2439 -1313 2391 2100 825 918 98 -344 3109 -1990 -438 940 -1784 880 164 -1785 -2234 18 1182 -226 -71 -417 1065
1438 -1920 -91 -2402 -1122 -1096 -948 2102 1428 -314 -1540 -410 -336 623 646 -657 -2150 -114 1191 -1344 834 -56 1508 63 132 1591 -399 -695 162 -3379 1168 -2421
1015 1312 -361 -1261 434 256 -376 1881 -2697 154 -447 -3336 -983 -1156 2931 300 -91 738 1565 1378 871 331 -1420 231 65 1467 1826 1899 500 -81 1190 144
82 995 2639 -3439 1731 1181 1717 -530 16 1211 1704 -1159 926 1048 -2522 -601 -201 532 148 789 604 -159 1162 -2105 711 275 497 -1743 -287 960 -1655 2475
1543 -1445 -477 -338 -199 -1741 248 -1587 368 215 572 1782 -368 -1672 -2183 918 -899 1134 3029 -1278 -1248 293 -68 -1066 -1262 -1275 -1612 -2566 88 666 -2859 2267
494 -865 -618 136 2698 -572 -232 -1245 1149 -1404 -1306 -2258 1312 850 1761 1201 -1116 422 1115 144 220 968 1452 -1719 -1635 1995 824 -1570 -2055 1267 2614 -2720
775 -2133 -1801 -140 -1040 -335 1197 -865 555 -1209 2980 -1848 2247 -2299 3177 -97 -14 -1005 -1043 440 -2217 73 -782 1072 520 186 -3 -923 1350 1250 -803 -1218
1567 -1520 -186 -1693 -2282 2857 -1150 -680 806 -1397 -1860 810 -450 237 1248 -1854 1585 -259 -365 562 3174 -210 -1147 -1572 457 -2023 -444 -773 -1528 541 1489 381
-3509 -2 -1216 1250 974 133 -592 -951 -189 1373 868 818 -1211 151 -211 1366 1725 223 367 -322 -2801 1520 1025 991 -1939 312 -1274 1628 1119 1267 -319 180
1033 -697 1738 -1970 1399 2690 1219 490 -220 -2668 -55 1279 339 -2304 227 294 -642 -1829 2119 -196 1061 1777 -1540 3360 102 1058 -91 110 -75 -1497 267 -1209
-825 -70 240 514 -895 884 892 425 -2326 3075 619 812 579 -366 -94 1339 817 447 -501 1724 192 1163 -561 1258 -115 2983 1325 1555 -936 590 -150 -893
1704 -408 1840 615 -1685 -876 -1014 1017 1009 -1779 876 1742 -924 -974 -1252 -1838 716 586 -34 -1629 366 1223 79 208 -1240 -348 -2888 -2505 890 -995 2069 -1586
-1543 -1590 949 543 -1768 378 559 -1689 903 -2441 -1895 1187 393 -311 36 -253 212 -513 1676 -1336 -493 -318 -707 1344 2173 -935 -73 145 -705 -1914 -683 245
698 -2431 -1142 -1368 -1408 233 -1212 -2315 1666 692 -198 889 784 1329 -232 -1622 -38 185 -1939 1650 -659 652 1490 -413 599 573 -1290 -367 3304 -1328 2859 2584
593 439 -2560 -2469 1726 -406 126 -2655 -1356 232 1040 -1799 -550 -3453 -417 3 1272 -37 172 926 -2423 678 1216 900 -1803 -2849 -7 -1421 -1463 -1036 -2963 -2124
-839 -96 -2154 2088 -594 -1413 417 -3184 -144 -1808 764 -757 -1616 3002 827 -790 -1149 -850 2991 -1654 -683 668 -1338 -1459 1704 -1958 -95 -1986 1483 2016 2419 797
1097 471 -595 -787 2412 -1733 1617 -1126 -4275 -735 -140 -912 1369 -1490 654 1048 1433 1408 1521 1638 1077 -2561 1064 -1414 -1034 -52 -1826 -4 -1489 -1037 460 -423
-553 91 -59 -1075 -1064 -760 659 -9 204 1054 -1323 -1472 1217 -502 -1391 -356 343 2263 222 -688 2585 -81 -868 607 1219 765 2218 2203 1313 -1366 1002 -674
-1373 -1811 2309 -1923 -355 3848 936 523 -273 -754 -1446 -2045 345 1081 89 -24 1280 -519 -2641 1251 -3146 275 1618 -204 643 952 -2246 -3329 -1369 -1819 2451 -1628
549 -1180 805 -1266 127 643 -2235 1266 2032 315 -1833 107 2155 463 1302 204 1399 -1456 -541 -2018 -1089 1027 -3141 706 2090 -2335 1653 2217 795 -1551 944 765
759 -1575 672 -68 211 875 1441 -593 580 2452 -1017 -247 -871 -956 -1228 -884 368 -885 -1265 1627 -1154 -1805 20 -1781 1061 -270 1267 -1523 -1708 -576 -32 -420
-2005 -1134 -1360 703 -727 -297 1639 -2627 -1220 -311 -2620 3931 -1335 1655 5 -3094 -974 1297 249 596 -729 -12 1267 -1273 -690 -1369 484 842 -1648 638 2114 -2480
2561 33 1586 599 844 -1607 -581 -62 -897 2022 -1176 -947 1554 547 1623 57 -1159 -1131 -1101 -199 533 15 1410 -201 3460 518 -513 1053 -1773 -751 -1881 -790
-1034 1027 1068 -1854 -1137 1617 547 2488 -734 -542 428 1249 466 2425 -218 2571 -265 2142 -2459 1552 999 -654 -467 -3060 -382 -121 1115 -1019 808 267 578 -785
-77 -1758 -1165 -1176 526 -1689 -1648 1781 -1089 -1168 282 529 624 569 -761 80 3093 -1534 2851 -4032 4288 -359 717 2119 -603 612 2181 1267 -294 684 3006 -1465
2300 -1025 1903 9 103 1366 -679 -799 1326 -1945 1395 -511 2045 2020 1642 673 -2241 1156 365 -1403 -1493 1411 1212 -114 1030 -796 110 721 -671 -756 570 -3054
-417 518 -1772 -172 -2080 -1195 436 -3047 271 2515 -507 18 -976 810 2832 66 730 -799 -336 -973 -220 -208 -1284 -640 1402 -557 -1403 -263 -719 -559 3427 -196
1058 11 -2859 -644 805 -271 1268 569 151 -1931 1262 -2199 379 -886 2404 3466 -1475 -2250 -417 613 1745 748 383 -2311 -1004 -462 -3209 102 2317 -2134 975 -1527
2204 -592 78 1635 104 -973 1326 820 36 1559 1965 -1 2714 -575 92 -674 -281 -2350 1828 -1403 -1242 2277 1918 -1823 423 -103 -1649 39 558 601 -1454 576
-1305 -1770 -334 971 -1876 1459 2966 890 -212 -1317 -173 -708 -497 -380 -1666 -676 2340 -1263 -216 678 -1554 1929 -957 -47 -1934 -227 -851 2045 1869 -430 -1335 1469
-238 -2150 -2022 -1857 -2723 -270 687 -2257 101 -832 -1798 186 -1360 2352 -1759 -124 587 2323 594 1367 -1091 1370 2312 -4741 892 -1724 2883 825 -1048 759 -2702 1661
-1631 593 -320 -394 -37 -1654 735 295 -227 2850 -69 600 -1038 -731 706 -2275 -1436 -726 1174 384 -175 -369 303 -555 2552 1552 2377 1741 1365 -1880 559 2327
-2172 -614 -438 471 168 287 1591 1365 123 486 1325 541 -578 2403 -660 850 221 1039 -275 -3159 940 -107 258 -382 -505 -463 527 1526 1348 27 -1638 -30
1011 -1211 483 -876 -525 -2031 1406 -265 236 -1849 1070 2394 -620 -89 667 -274 -2029 -157 -590 244 285 -580 2106 560 -1648 1020 330 97 -989 -2083 1872 -1536
-1352 1689 424 -1452 -665 -311 -168 -358 -1320 -1985 468 -1936 1119 -901 1935 54 -54 254 1237 1364 -1925 267 -1978 2083 -1545 -1175 -2036 -1276 -860 -1328 -470 712
352 -1988 1580 -3363 1442 708 2388 -450 -1160 1051 3719 710 -49 79 -849 -978 115 1173 278 454 -1240 -1159 2353 498 608 924 484 -851 -701 -1511 -2521 1227
-442 2361 -36 812 220 12 -329 -813 123 38 1397 2376 -681 -1608 588 -390 -319 1470 813 -1605 1352 746 -919 1382 -2155 -1165 -2903 -22 1010 1671 -1347 1107
-406 279 346 -1209 1430 -1768 1239 -522 -1140 -610 797 -1115 2191 28 -428 644 579 781 184 1099 259 2107 1173 2181 -844 259 860 1537 -2580 1194 -8 -295
-1818 -618 965 114 -1567 -18 -958 -93 -417 -18 1215 434 2083 -2183 1446 986 627 -1046 179 926 -564 -1019 1765 828 -2 2259 355 700 -267 39 -1089 -993
-1315 -113 -957 -709 -1270 2691 -1870 -2117 2015 -203 -2402 -129 1444 1009 1241 542 960 -960 -124 -955 773 774 -752 -2034 -52 -3791 606 -1820 -664 406 643 992
-946 -1284 1085 -1196 47 -465 1113 -746 -715 378 126 2437 -393 209 -650 -118 -63 -361 2848 198 -1140 770 451 -568 -1662 -941 -1093 834 1682 1646 -1724 733
2157 -536 836 635 1619 2427 2218 693 -161 -1433 724 1676 2115 -1555 1581 -2420 -377 291 1696 366 -450 1411 -2670 3420 -1503 -1147 1472 483 -917 -1916 -961 -522
-873 1102 -1225 -1167 -1241 135 -851 314 -1087 -406 -1198 378 375 547 -821 -671 1354 -731 -617 -28 2015 316 -719 389 -964 -334 1331 1563 752 312 -2590 -3051
1431 -2155 -788 1200 984 -1025 -983 -419 1085 1083 102 1939 629 158 -686 -422 600 229 1521 -1500 -875 734 -1261 540 -2431 -778 94 -2750 -393 1576 1761 -531
-48 -1166 1729 1463 -1039 -2273 625 -2490 -994 -2153 210 1583 -1632 764 73 867 654 346 1569 -660 1290 188 -230 958 1773 263 616 -1831 -862 802 -1967 2833
-625 -2189 406 -1240 911 -1158 -1597 -828 624 -143 543 -452 57 1458 -726 282 1319 -230 -2516 1259 511 -41 879 615 327 533 1398 -1698 1148 1088 2362 3174
-703 -1455 329 333 563 -2055 -982 -801 -1765 74 1661 -925 100 -1248 1365 1039 325 -542 -401 1153 -714 1864 -1300 795 351 -2642 113 -1671 196 -690 -1826 731
143 -591 -1670 -910 -999 -1014 -614 -1277 427 -97 466 1505 770 -38 402 -847 -627 1245 -45 -433 337 108 -1737 969 -1158 -858 -735 -2500 1490 658 -1166 1425
-778 -132 2745 389 3143 -1407 -532 -51 -2424 1023 1858 694 1069 -2095 -422 770 1083 -2868 981 1173 -1413 -692 687 -1858 429 1524 81 -491 1592 -2033 -355 222
554 -730 -81 -1098 603 -250 391 849 141 589 -2746 -265 2359 -851 -113 402 -287 2116 23 237 2188 -1332 -506 885 2437 851 1419 1055 1497 -905 2291 957
-522 658 1142 -1679 672 1460 994 -328 1285 -503 -244 -1544 -1461 181 884 1699 294 400 -142 -398 -882 181 -1193 -1108 1617 1582 -77 -2036 688 389 1140 -1164
941 -1092 266 -1313 200 1761 -964 -959 1235 -1278 -1647 1795 704 2171 1722 -1019 1766 -994 -816 -716 -1668 -228 -2105 415 -744 271 477 3285 2260 -428 -763 1114
-566 -226 -212 -413 660 -1804 -1001 735 -918 -517 -3446 1024 -164 1302 -1126 -512 264 -646 676 136 538 -894 -1350 243 -1982 -930 -221 -3062 9 -1457 207 -1337
-1695 -1089 -694 -564 1576 -350 -1029 -1284 1066 -1629 173 2321 1118 77 598 -1784 590 585 3049 957 -1077 -2122 1576 555 -1893 -833 1565 22 -2055 1049 1414 -1203
1295 -222 -1320 1304 -437 779 1041 1113 -3114 524 -901 780 2154 334 1294 1170 -522 -789 622 303 143 74 -255 -90 2522 -605 -1560 -1520 -1189 1038 -1562 -1094
-1411 1270 1705 1106 -551 1930 -397 1673 2457 273 -1303 388 32 906 177 729 -656 1594 -1797 814 -64 217 -1061 -1170 631 236 903 -27 -1162 -2195 1541 1754
1387 76 -2381 -874 1741 204 -882 1208 1063 930 672 1100 1403 274 2180 -1808 1832 -113 2396 423 1368 -722 -1173 13 310 641 -256 -280 -1729 949 3543 -1454
1514 1271 76 271 -68 -336 -1059 298 -599 1188 1994 1196 584 -421 1101 1365 -1284 1914 -99 -3240 -184 1443 -1356 565 694 -310 -2279 258 1288 -816 -259 668
1143 -994 1517 676 -1600 760 -651 -1888 574 2418 -1010 -278 546 158 -380 313 -1175 20 -1037 97 -528 382 -1096 174 1555 -620 725 782 -335 -1526 1145 102
744 -338 -1084 -281 -1086 -656 2339 2 1240 143 1634 -2612 899 -635 2152 1771 -2300 -2084 -1789 1174 904 593 1504 -1465 112 -759 -1548 -1493 -710 -2283 -1004 -1372
1228 190 1494 2470 -399 1403 738 -1090 -801 828 -578 -2398 1253 -694 -11 583 -1394 781 562 -992 111 298 678 -1434 -1401 -1103 253 -634 -244 141 -647 1604
529 1354 1090 1151 872 801 1930 89 804 983 543 -944 -510 -2051 -2141 1399 1659 -4052 -305 428 -163 790 -2044 909 -1268 822 -760 60 -921 -1644 390 -1082
605 -934 -2120 -840 -510 -222 -693 -795 11 -320 1079 -200 163 3262 -883 1895 -228 1215 231 314 -1190 -401 2036 -723 557 -2590 1408 1719 812 854 -1938 140
1472 -3170 -1624 1321 -1032 -330 414 1203 -907 714 -1167 1793 -1277 1956 -1080 -1005 185 -1241 -343 666 377 -934 -1603 395 -96 -117 -472 -4145 2888 436 -1105 3108
-967 -841 102 -2129 -21 -1412 931 -1304 1590 160 -797 -306 3950 -3039 -1619 -765 -1743 1872 1256 2264 872 709 206 -2562 -1618 -1807 -1565 -1099 1175 4204 -205 2252
-471 -2876 -1891 -1240 317 -1792 510 2319 -677 1656 -1223 -390 3217 82 926 23 -906 -510 1357 -253 4 2640 3631 504 -527 -2377 515 1650 1025 613 99 499
1483 57 -1291 367 619 702 -248 1950 -1327 3279 -2269 1691 -437 -2145 -24 1187 -3100 -84 -392 1145 502 87 -1335 -321 1734 3174 1056 1016 2040 -2800 3031 -4550
2117 3455 210 -120 686 912 -2733 714 356 -2863 1417 -486 -856 -352 -3041 -67 2280 -2981 2428 394 -748 134 117 -1100 1365 897 2476 1390 2190 3093 -783 809
319 -92 -1152 1671 -1559 60 309 642 90 -502 -1446 331 354 1207 -1599 153 -1172 333 -493 2410 -3378 -558 245 -147 -89 295 -797 -4059 -2021 252 -1236 1783
3152 -81 -2673 -245 4618 382 1026 367 -1587 721 -1031 128 -2015 575 1395 3271 1340 498 4443 -1247 -2494 537 884 -3127 -300 -821 1625 -1203 -2252 -1765 2137 -5149
271 590 -1541 2336 -773 2178 -1403 1811 -301 1862 -158 -992 546 -4102 274 121 69 -918 449 -1088 -1967 -1929 -1797 -1265 1114 -3114 -2033 405 1200 -2034 -269 1015
771 -5 2621 -2129 -459 -1766 -525 2698 -245 -1881 -473 414 -500 -1661 -464 -1363 713 2389 -489 -2840 1591 -1448 -56 1507 1581 -2030 1917 2377 2156 936 695 -1080
-218 2570 -2523 1957 -2135 -1630 -4699 768 -1723 664 -351 -1749 1002 2869 2007 -628 -1807 -2741 -500 -1307 551 -358 1564 1820 2724 1219 -377 2042 -10 1388 -1188 -822
1274 2798 690 -1395 -629 -1459 -652 -190 474 -2089 550 894 1522 -2195 1762 -402 -1964 -2528 1777 -1516 2705 573 -887 122 1445 -1767 -2351 1401 -662 494 -2161 -836
-282 -777 1175 -109 319 -2346 -1945 1112 -1270 1889 -1624 -1292 -1280 1678 -1269 1499 1845 -2002 -2066 328 -1201 2686 -378 -807 -341 3054 -508 2906 -386 -507 -378 -523
2764 428 -251 -122 -498 -2626 -991 4423 2464 297 -15 -367 -2636 -805 -1909 696 130 -1380 1042 -2631 987 -2382 1259 848 -20 1555 -2718 -3353 838 -599 710 2409
709 112 1477 -1021 -800 1355 -1480 -2069 -764 -384 1755 1560 445 -2693 -709 -212 -1342 219 -214 649 -1532 -2043 1692 1126 811 500 1677 -820 1316 635 679 2818
951 1159 -107 -1715 -2009 23 130 -939 3323 297 -734 840 1446 -1055 1295 1288 2784 -1865 1211 2407 2448 -3231 -78 1500 1297 -1800 -441 -1699 -1351 -1341 1689 128
-492 -2023 46 -620 174 365 960 -96 -1487 -4134 1113 -1261 1902 -1462 -327 -1900 -731 -2246 211 552 -1004 1230 -1114 -1349 -1911 -1054 329 1120 -1038 -1343 -1268 80
1057 -2791 -1210 1691 -3781 744 460 -842 -1388 -2016 -1221 -1848 762 727 840 -483 809 1614 2620 2665 -2806 241 -1024 3512 492 -2201 404 1012 -3840 3576 -464 690
-370 3197 -2704 -3093 1031 1727 1540 -1581 -1567 221 -3261 -1829 2298 -1823 -324 -1601 -1446 104 1748 638 -1555 -2478 309 -1638 565 -2307 -3535 -174 666 1325 -1484 -1606
-642 -257 -1330 766 384 -3703 1684 -2750 988 -2214 2069 -288 -398 -826 -900 2401 776 -601 1613 -598 970 512 1620 947 3085 -89 -9 -1444 -1563 642 -602 2597
-1949 -2632 1202 2759 -1494 1496 1973 -1707 1049 -2903 -2589 1504 -1159 691 1712 364 1807 -2069 -563 1226 494 -542 546 -2775 -363 -3197 -1527 723 141 -388 2046 -1966
-208 317 1074 1193 1115 -539 -2626 -256 1027 2343 -2604 1263 -1123 768 577 2167 -2307 1673 2134 -52 1795 -141 -1980 -975 -248 -451 1061 297 -1907 -1688 721 -2600
1151 -590 1508 667 176 876 1588 -167 -299 1919 -1171 99 627 -599 474 -208 -847 1428 -2692 711 155 -1140 -70 -3120 -1115 -477 -1748 826 1101 -1363 -2332 -581
-281 695 173 -750 -1785 -1434 -375 -1737 -694 1649 -1995 -524 1354 1262 491 -2439 -827 660 533 54 -2503 -375 442 239 1352 -654 3272 3343 1078 -2305 790 -1531
-1802 -11 2422 1340 -2602 -727 -551 -2371 -846 314 1258 -1 1417 1171 2040 -1279 -1229 112 -3001 1278 1143 1772 754 -2978 2639 -131 -1225 -635 -342 -1217 399 2038
-772 -1003 314 702 2088 550 112 2508 -507 -1717 -44 1974 -2595 2562 -1827 -1625 936 -875 -1067 -1200 -386 -2295 1402 -860 -321 -35 -1241 -721 -414 -940 -150 1520
-1867 -2978 2871 -1034 -1869 -390 1542 998 -961 -1566 8 813 -4684 331 -241 1471 -413 -2067 209 -3218 2845 175 361 800 423 -1204 2367 67 3215 1678 830 -2186
-973 1205 4163 931 1984 -251 -973 1634 1740 580 -1385 782 1528 1541 2300 -353 -2943 -959 143 -217 -766 1273 -864 -3023 2684 -2214 1075 -51 2117 -2090 73 -1086
-536 1822 754 810 -37 -2077 1857 217 -1114 -925 -1207 4038 -2090 658 -263 1685 270 114 -1135 2253 -3160 2301 640 -2533 750 -697 135 -327 -4 882 2392 -2727
-2973 1860 -587 -1352 -159 -1216 -678 156 -910 -1324 252 -454 505 1668 1088 253 2028 -339 -830 -1804 362 2344 -1856 -3320 -14 -1485 -2056 -1312 2133 -503 -65 1783
1149 1190 -3699 -1194 1170 -1482 -56 -324 1497 1362 1465 824 -18 -2839 -2034 732 464 350 -547 -835 -1108 3470 -818 -3147 -931 -2807 294 917 -1241 2433 -693 -70
-2669 -3161 200 -239 -3886 220 260 2233 -216 1804 -1223 2442 1003 1474 -52 1150 -1475 -493 -33 -2057 -965 -448 -4021 991 -482 1653 560 459 1183 986 846 1664
551 -811 -390 -1119 -2951 722 3444 -1733 706 -3343 -3498 -754 188 2968 -2153 -286 -1411 -259 348 1342 -1577 -1197 -33 -1641 4907 411 -79 -367 -2177 -739 838 210
465 -2308 3934 -3180 -996 348 49 -2221 1165 1578 -1209 2206 1206 -2286 2124 19 2197 -1137 -2122 42 -107 -471 1558 -1898 1275 289 3263 1809 1356 -1411 -705 -411
-2161 -1860 -1546 2503 1628 552 -121 -178 -2370 1713 -2011 2621 1357 1797 550 -38 -333 4589 -2940 -2510 -344 341 2661 1098 -832 -115 1381 2458 -518 -646 -1348 -1278
295 -1223 899 -1789 -1536 -328 1 -23 457 -547 -1331 -1067 217 -121 -538 271 -2328 1864 841 -947 2085 373 931 -1615 331 1660 -711 -67 380 -2569 -327 -601
1455 102 597 -1414 985 106 -2033 2123 -3248 -51 916 -5672 -1531 522 2343 1306 596 1594 1004 338 1671 1241 -645 1603 -1617 938 1090 1707 -418 -1126 909 1931
-416 283 4429 -3239 1083 963 2590 -2155 -1362 539 -128 -2143 677 2330 -850 -2820 -628 597 184 -684 -832 -1406 1986 -3287 195 -599 1626 -918 -2 1152 -1657 1660
2412 -777 1061 -1938 469 -2396 1229 72 1325 -1036 587 395 -296 -664 -2865 -435 -1758 1471 1831 60 0 545 -1214 -2034 -1269 -1252 -1706 -2052 730 -174 -1292 2143
1013 -930 1544 -625 1919 27 532 -2607 2329 -2903 -2250 -1909 287 235 1536 948 -689 -922 706 725 2270 -407 864 924 -1884 4274 -291 -2092 -2089 2612 2212 95
739 -2048 -2913 232 -590 -2104 730 -2424 740 -1853 2252 -1547 1215 -1355 4089 -1342 748 -1645 -314 256 -1802 2152 451 2825 385 735 285 -1124 1470 1549 -1501 -947
1695 -1632 -982 -900 -1420 4428 -1203 -1893 385 -89 -37 945 -48 1376 3523 -3479 1339 -1561 -1980 740 960 -305 -1336 -2895 -1456 -882 -1537 -1231 -2074 963 1837 738
-3399 1021 -450 1533 609 -1598 2041 -2805 -1218 -464 -57 1518 -587 -2505 -609 1418 2222 2172 -315 -828 -3461 2308 720 -408 -2485 -1034 -1827 374 2451 1519 -488 -1123
-538 -3121 2420 -2079 557 3691 1755 -809 -450 -2433 242 -485 -52 -1637 -1901 943 659 -1913 1754 1073 798 3561 -3320 3843 630 2146 1547 -326 -404 -2507 577 -3
-2991 455 -704 -1 -2673 3642 2041 498 -866 1472 -665 1690 131 -1604 -966 667 -587 1193 1026 557 800 -98 -1425 2138 -289 2408 3145 1053 -1560 -730 -1149 -174
919 -1259 1315 46 -2354 -1841 -1333 -662 1229 -1872 157 1403 1029 -1336 -1461 -2312 438 1019 -1201 -417 -173 1239 -199 130 -282 282 -1263 -1373 1379 -119 763 -1992
-1602 -2508 2311 2498 -1544 -1652 1126 -798 1064 -3769 -1540 474 -1038 198 1224 2077 1154 -1425 -79 -1001 -1887 652 -291 2538 2335 -2820 -571 1584 -758 -975 -603 275
-1497 -2157 -1009 -1351 -169 -998 -4232 -1007 916 198 1222 -1117 174 1211 -1600 -951 -621 411 -1951 -119 -1001 529 435 -2903 1426 186 -1033 49 3779 -243 888 3481
1710 571 -3203 -2432 821 -216 912 -4434 -2663 1998 625 -174 -1109 -2895 1125 296 1851 183 389 327 -2108 -1157 1058 1182 -1507 -3310 666 -2028 -1926 -1233 -3209 -2484
-747 735 -1473 298 264 -1758 2163 -2862 -187 -458 2396 -2026 -694 1616 -741 -1575 556 -1436 3152 -1796 -236 1496 -1741 -2899 1790 -266 -1583 -1072 2445 846 135 614
1936 -674 -889 -1142 2337 -3870 390 -1576 -3086 -285 757 -970 1534 -1899 89 3301 1801 768 1517 1852 1226 -2998 -49 -446 108 -14 375 -500 -1923 -1088 2110 -1417
513 -320 13 -1064 -2165 -577 54 145 -261 2508 -3178 -2215 2542 -1514 -1027 -1652 -1650 2477 -431 -255 1486 -594 -1634 293 119 -533 1906 3750 1533 -1102 2741 -1716
-1189 -584 2085 -2038 -123 2484 1177 137 -507 -1478 1485 -4382 -1084 1044 -328 1287 230 1108 -3314 1758 -4332 -795 710 -479 2026 2418 -1987 -3918 -1757 -1796 2287 -701
2148 -246 1016 -1794 -576 3637 -2792 277 930 638 -1625 218 3279 599 -40 284 3426 -1699 -2501 -2234 -1564 96 -1658 1369 -36 -2393 1091 2565 1211 -1482 -257 731
-239 -938 1380 1279 -654 -877 1252 -2010 1303 1432 238 147 -135 -303 -417 19 1207 -2590 70 2629 -1290 -1716 -647 -1135 2155 -178 1574 -1443 -251 -968 162 -126
-2348 -405 -656 277 -287 642 2248 -2916 181 -704 -1936 5002 -1568 228 -1198 -2029 -202 -564 732 243 1062 -1152 2464 -2429 -720 -425 354 -764 -3207 904 1759 -1467
3138 665 518 235 1621 161 -256 -1188 -511 2478 -869 -1554 646 281 1074 -1729 109 -2285 -2187 932 1150 571 664 50 1421 1339 -1010 -120 -2058 151 -2325 -1447
-877 1868 2224 -2774 -1778 2046 1253 2865 -1069 -694 -334 1198 1931 1162 -106 3298 563 3660 -2046 535 -212 -2014 -1261 -3014 891 -667 2094 -1131 1691 -506 1076 413
-374 -719 -1950 -885 652 -2017 -4077 3106 -141 120 -1080 -707 2536 85 -292 -738 2195 -2810 2460 -3732 4159 6 -80 3570 217 3779 500 1850 35 -65 1904 -677
3252 344 -340 1165 -603 2270 -1486 -2497 375 -854 1926 -1353 3687 858 2701 -36 -1186 314 -572 -272 -1839 2831 1496 1356 110 -269 -1075 -816 -303 1778 933 -2859
-1325 -725 -3178 -505 -2768 -922 -540 -2765 -828 2196 717 -2892 1770 -108 3083 202 -779 -1519 -409 -503 453 -885 -1990 135 1610 -1084 -1614 317 -868 -1368 3076 618
943 -494 -3496 912 402 1489 2532 -288 -288 -85 2979 -1533 997 -1109 1766 4820 -1003 -1267 -2786 1206 1943 -1339 2712 14 -171 -1262 -1633 1269 1202 -1243 635 -2737
2775 -2568 1276 3731 -290 -1027 260 1127 651 1659 1643 20 2378 -536 930 -1481 1857 -1686 1769 -1539 -1792 750 425 -1261 3 206 468 -1254 2193 -421 -657 385
453 -1868 797 139 -93 1474 1082 2796 -1571 -1344 -1052 -1290 -1388 -1449 -910 1093 2549 -1251 -1075 1948 -1005 2699 786 -218 -423 1085 -394 2734 1804 -499 -685 370
-1710 -1715 -2046 -337 510 -1190 565 -1604 852 26 420 130 -2166 2762 -1319 1159 -437 2452 1533 861 -22 1572 2669 -4426 534 -2018 1960 -461 1566 1819 -2781 -337
-2752 1105 -751 897 877 -372 923 967 -1154 1627 -506 -572 -508 -1177 1069 -773 713 -999 99 -371 -1620 370 1084 1024 -870 1823 -466 1741 -158 -1216 1781 -2870
1605 2206 -1567 437 -1524 1336 1040 1232 -1122 812 -2 1204 -1989 939 990 -1978 249 110 234 876 2776 1035 71 -258 -567 -239 192 881 -956 -1383 2635 -1528
-126 432 1271 486 44 15 -927 -521 258 -1860 2510 524 -1092 -1200 -539 -80 -411 -1282 -1450 -967 -1907 -1205 -1876 -337 -109 2217 210 -969 692 -697 -418 -1735
-1889 2112 539 452 1476 -2038 230 -1565 -43 -2107 2406 613 2083 -117 -215 -2029 1954 -278 1182 -1277 -2273 -1420 282 71 -2027 -1142 -1766 -1687 -268 167 -3061 939
-1465 -1179 -748 828 -244 66 372 1827 1790 593 699 1610 -97 797 294 1550 -465 40 -2059 809 693 2890 -297 1300 -1644 -1163 81 -570 -2777 -1728 -936 2348
-1157 -985 -2366 543 847 1887 105 -1068 1961 1307 -377 165 -649 -1450 1068 -122 -395 -101 -1351 -236 -644 -521 -887 -156 -418 -1239 -847 1803 843 -1453 -1114 -1295
-2251 -188 714 -403 646 -214 -507 1858 -395 1260 860 592 3147 780 -1685 -1102 -604 -1741 -425 795 -1056 1202 -1719 200 -1079 -555 409 464 2501 276 -2045 487
-256 1091 1170 -727 -421 9 -592 -843 -349 -2013 -1532 -252 -569 930 -700 -430 -1283 1098 -326 -1778 2467 174 1002 1181 -1928 586 2609 737 158 2102 -260 -409
-1968 -1183 -560 -546 -279 -813 238 -1213 -446 2999 1354 -70 -411 -1780 545 -126 -1310 -182 2222 -1004 105 -1141 -1521 -245 1340 85 -3483 -911 1591 -716 125 1047
1008 -2203 -898 -8 1084 1473 2390 -343 -960 697 1477 991 457 482 -262 -300 1935 1760 421 836 -138 269 -1337 287 -1373 -2168 -255 -890 -1679 380 522 1439
140 219 -435 571 1098 -1257 500 -58 -1040 1242 -955 1934 438 1134 -235 -1279 -1224 2622 -2006 1151 -937 -2330 1585 -2179 -114 -1367 -327 865 -489 104 536 485
980 1693 -1920 -757 1650 -441 87 -2508 -345 293 1818 627 -1638 -872 -85 -219 -875 -442 -73 -365 505 -947 55 -1660 1385 -2728 -505 18 2511 7 391 -1458
-934 -89 -1462 334 185 1106 770 -1093 785 -703 946 -1949 -548 305 -689 -199 -238 -937 1355 576 -1049 2394 -3364 -1895 -3203 478 1244 2377 -2055 1637 60 -1569
1562 -509 -1827 -1161 -1212 758 459 1056 -794 602 -460 -1124 -787 684 -1778 42 -101 1333 632 -996 1183 1832 -2779 -288 -696 1324 -1363 297 -1208 643 -437 457
787 1107 929 -285 228 -1020 769 -512 -390 -294 -151 -324 -1097 -1125 -201 -442 -827 1773 1166 1772 -1233 -373 -1119 360 -2063 3236 1321 1113 1090 1448 -222 66
101 -843 1694 660 -2004 936 -1707 353 300 2022 -366 33 620 1379 -536 -383 -330 -947 -751 -525 1066 593 294 1172 1863 3290 -1113 293 833 -314 1113 -598
25 -124 979 -651 -469 -1657 -892 79 694 1834 -656 2493 2174 -1519 -47 651 -593 1834 -1303 -1181 1774 -657 27 -882 -1968 -171 1354 -1092 1968 395 -827 -1837
-898 -319 1601 2535 -1908 -49 501 2366 -87 256 2838 -54 403 1517 -2259 -975 -480 -419 -73 -1787 1315 768 1598 611 -37 2443 864 -1010 1466 712 1765 746
495 -246 585 -2189 1051 2069 -463 74 -1291 -445 688 626 -536 1522 1358 828 363 -847 364 241 560 9 -811 380 -537 502 666 -216 1265 -1863 -376 -1906
24 1160 1257 -96 69 -172 -457 -64 -126 2060 675 369 -1062 -1202 -2155 999 -1516 1612 1008 -2200 2209 2207 457 2710 497 -245 -1025 477 -1293 -290 -262 18
-2476 -1219 -1031 400 -153 538 1794 2524 -983 114 1468 559 -163 -101 684 -1174 501 -445 -1372 -635 -788 -424 381 242 -474 723 -1707 -13 -465 896 -274 -53
801 1613 -1257 -2457 178 -1371 -954 925 -239 -1760 -539 2030 988 -1182 477 -555 -759 163 1394 -1126 649 2201 513 386 93 1393 961 1379 -2198 749 1375 60
-390 142 -1121 -1334 230 -328 683 207 1479 -1839 2631 -1054 -767 -1160 -326 1398 1453 169 1189 636 2532 -102 669 455 -1162 982 -2641 -1219 1899 1550 655 -46
1187 67 -2388 -598 1489 -398 861 3079 1865 -1613 -916 878 474 754 -1714 936 2048 347 2408 -1688 1191 -322 256 712 -1344 -2037 -971 1163 400 -58 -285 -3539
276 579 581 1980 272 824 982 -1532 1873 1767 -557 135 -921 -1624 3100 80 -184 -1950 -1013 1442 1710 1557 -743 434 -1568 508 1024 808 -971 759 -200 611
2740 100 -1618 760 -444 494 -443 -1557 2160 1880 -413 1364 1598 -744 838 -918 -661 633 90 2222 -2638 705 792 -176 361 -1690 -1431 -1962 -69 1830 667 885
-1769 1472 -1438 -1103 -967 384 763 -397 -1401 553 -851 1394 344 -2111 16 1160 -448 2 -1968 -1427 1317 -701 -236 -1070 -1273 1269 846 638 1309 -121 -1026 2574
1116 -2748 -579 379 1055 -283 -148 -758 494 531 643 928 -577 1093 -444 -1951 970 1559 -364 -1917 1090 -1714 -1589 690 -324 1855 2389 -24 1178 985 -3373 266
982 -947 1857 154 735 -662 -371 -447 -7 186 -796 433 24 1207 274 789 -1746 484 -215 18 -1508 -1877 -2259 1424 -1519 2244 -441 -290 -2706 -466 1183 -1249
-724 -640 371 809 562 169 -746 -810 -1298 -228 -1542 -204 -2026 1162 95 -204 -1055 942 -817 -322 1684 -2154 -222 2027 323 827 815 -1850 -1284 -664 -1435 552
-947 1313 -252 -962 1454 1067 546 -1471 896 -433 3539 928 -662 239 227 472 -83 -716 -667 -175 -1426 102 2343 -1053 70 -1089 -268 125 -624 73 -550 71
-2042 811 722 1282 1854 -1402 -310 2260 -1612 1500 583 1080 717 233 239 -581 957 -1043 1613 218 1080 896 2099 1794 -2009 -2610 -271 1105 405 875 -842 -365
-1660 -1380 -565 2418 -2275 45 -297 -699 -394 -1387 687 -1519 207 -466 -1062 1128 -510 -1403 -215 608 1356 -93 368 1606 -410 -1571 1857 -413 -126 -485 -532 -440
151 238 -1319 911 561 344 -124 623 186 -529 -186 405 1061 -1265 20 -181 1325 215 95 -1922 -1138 149 141 183 -1105 132 536 -2288 -1142 -1125 569 -777
2018 739 278 2640 1759 -1039 -344 -1258 1236 -776 -1088 -1284 1502 1110 -2181 764 1347 760 1112 -763 -219 218 1014 -87 429 -625 1151 397 -492 -483 535 1661
1797 455 773 -405 -181 1221 307 -1792 -1587 778 348 -45 259 3075 700 360 1407 -620 -1757 -1731 2949 -803 -634 1771 -1319 -1150 92 -1091 -2264 1383 359 -396
-151 -472 2218 -505 -1719 1317 -38 -1927 -1661 853 -31 65 -1564 91 988 -489 587 1537 -720 -2851 -51 -1524 498 -175 -296 -560 2929 -988 1236 405 773 -712
271 428 631 -393 948 -1695 -254 -772 -528 -1349 1493 680 -568 -186 -1203 -672 1396 -436 -1300 549 106 1734 -1341 -1064 -1420 19 -958 1083 1509 -95 1172 -476
-1359 337 1810 -602 -415 -571 -472 -1529 -754 -614 -1600 2684 -238 -51 -1350 -85 1088 -1112 -1913 1260 -175 265 353 962 -1478 1789 -1543 -488 -828 -1091 -841 1079
94 -1336 -1002 -1225 -1880 -834 -278 -2598 -206 -1061 170 -637 1139 2050 -603 329 2390 180 1 391 1037 800 146 762 -127 -9 852 -681 -1115 1044 1231 1452
1219 1181 -1461 806 1871 2469 1897 1312 -620 -1769 -210 -275 901 1712 646 964 -1564 -1936 -999 875 -386 -979 -681 -2319 -286 358 1239 1138 740 590 1902 247
1309 543 406 -1345 158 832 220 1186 -252 -765 -1212 1678 -349 -1400 -1026 680 -1117 584 -97 -99 -20 -486 -494 -240 -918 -263 -134 -1936 852 86 526 -1883
650 670 -403 -142 -1243 289 -196 -2292 9 1207 -88 -801 -1762 501 -1351 1241 1504 -2420 -1313 1488 438 511 -1872 -225 -2098 -529 786 -1230 1316 -279 -17 806
1368 1076 393 -1828 38 -1554 168 -825 391 -1594 -607 362 2166 -1188 642 1730 -1623 329 1178 -1749 -780 -1436 -856 -404 2236 -312 1860 1041 -2732 -292 1251 110
68 2326 -116 83 -1863 2004 -149 -390 -132 -2 -658 370 780 -8 -683 -711 1563 -1144 -2388 1327 -712 -376 -664 1451 1467 771 439 12 -349 -1358 -1805 2538
1317 1121 355 -1484 209 -1537 863 1231 -1630 -1430 393 -864 -184 1742 971 1305 861 -1114 -96 -692 -239 1570 109 714 -837 -153 -1637 2276 208 1599 -573 2343
-1228 -362 632 8 1025 518 -617 1734 -1558 -1196 693 95 378 -2055 -1677 232 -814 791 -215 -2343 1056 751 255 -413 -963 1195 -1429 155 920 2186 -1850 -902
789 -785 -1267 1248 708 -14 186 -1255 1560 184 397 -354 -13 -93 2035 1938 2072 -121 -206 915 678 432 588 -787 -584 2066 1406 -310 -1636 840 -1372 484
-1080 853 345 -465 -875 -106 679 1462 54 57 1031 344 -628 104 915 -2869 1257 273 1211 374 -81 1665 -1213 -428 -1069 301 -616 -249 -922 1186 -492 887
725 -2558 -442 269 748 -628 -493 272 1087 2268 215 488 -1067 1381 375 1024 -332 360 477 -228 -1045 -359 -870 793 -400 -433 1542 -398 -1606 -2225 -472 59
-8 -495 10 261 585 1529 788 1285 272 -110 -1614 104 696 614 704 -426 638 2 2382 112 -2042 -689 1542 -1523 997 -872 -1224 53 170 3098 -332 -1608
-426 1654 -447 -1911 3 -760 -644 62 2068 2413 -388 -916 -1135 42 1209 492 746 21 -537 1233 -1595 -456 -895 78 7 447 539 -1257 -586 436 -342 170
1654 1441 162 -1194 -528 -8 -154 356 -957 -318 -884 -3077 123 -381 -117 -67 1142 1739 -126 522 -1423 -502 541 -994 -1196 500 -648 -621 1413 370 -1522 -1596
-945 -855 1192 -283 -793 146 -1985 -930 -1644 297 -257 -318 -80 -383 -1046 -1778 1122 -2011 216 818 1238 -1107 270 -998 -153 166 379 289 1127 -928 1495 742
-466 357 -1958 1073 27 -70 1316 522 -286 -993 488 -1332 -478 -1832 -1394 -647 848 -1546 -742 -1736 763 616 2739 462 -1423 -1452 -1525 1235 641 185 -1473 1678
55 733 669 -2110 516 -284 2843 3 -1301 535 19 -211 -625 -43 1468 -2464 1169 -639 -1192 1650 528 36 337 -12 -667 -751 14 -2699 -1100 1162 674 221
-434 -1794 1132 883 427 1064 1481 1266 -1416 2856 1307 -122 1876 601 -1133 -62 344 35 611 -1132 -1958 845 56 -1224 -1418 -475 551 -2246 923 474 2308 307
-429 601 1478 -769 -1806 1066 957 -1097 -96 457 -1941 1823 -369 -62 1430 -224 -928 -2842 -836 478 -739 100 -531 787 1562 1779 252 547 498 -643 24 -30
1966 -602 -247 724 -514 -334 -431 580 -611 206 419 -2371 757 588 385 1279 1702 1088 -1041 -1368 -912 -928 -208 -333 546 2031 90 17 -513 575 392 -79
961 1254 -192 -1581 -785 2156 -145 352 1636 -3204 2566 -1467 1030 1270 134 1553 -799 -1398 547 1310 2586 -110 -368 1148 371 -1079 1343 1259 1173 -110 221 519
-9 124 1648 2461 754 -644 -785 365 -813 1636 -32 801 882 -1055 -1287 -871 -43 528 311 1006 1843 820 580 1479 1934 941 1434 229 512 -3 -596 1317
-1635 -231 930 504 1005 -302 1210 2909 1723 160 -1044 -1674 1135 -2347 1825 1720 -1199 -942 1126 -997 -223 162 -813 -1526 2604 2137 -184 654 -989 -710 -572 -563
3932 886 1041 1448 -400 260 -194 247 -1042 -224 -954 1127 -747 1039 38 -68 -617 -626 -1176 655 37 1060 751 935 -94 -665 -2027 620 23 817 1703 949
-698 89 1939 -1124 94 -1533 -1836 -211 327 1197 140 -322 -1275 -96 1212 2412 -592 -928 470 24 1843 283 -504 904 -501 232 -1881 -729 232 61 499 -118
1599 1559 2268 32 714 -1427 -2689 -1480 -2010 -2243 -2090 978 -418 269 -475 -2135 -1486 115 -1598 -627 -1143 1381 -2339 1728 -1147 -1045 1320 968 -1530 -1474 -87 -414
3919 800 872 -661 925 760 -36 -1783 -165 -1545 -2048 1985 -2155 -1231 2965 -633 1978 1772 -562 -394 13 -228 395 640 2148 314 -840 850 1607 181 328 -458
-1742 -1220 2717 584 -1716 -335 -466 -705 -407 -1294 -1118 493 -671 487 1265 484 -1389 -1858 -1293 -1326 -148 -1208 -569 -2512 -2071 1487 -2097 1198 935 242 -548 1089
-219 162 -1316 -3557 1614 -1833 1925 1429 31 846 808 -1520 460 286 621 -851 2164 -320 169 -828 -2292 2568 1054 479 -1162 230 1869 2128 -390 -654 -2340 207
-3621 -1247 1100 -873 1225 -2077 900 1266 6 127 -1546 -736 664 1592 904 939 -192 2498 391 -482 891 3284 -1283 -2929 788 463 -2127 -162 -467 -2016 1270 -607
3700 266 296 1499 -1655 -1102 1945 477 -182 -1013 -729 -2533 -1632 -1480 867 312 -274 -3414 88 -1194 -215 90 -254 -189 -754 -619 -1046 2054 1800 1368 -1236 164
614 1430 1852 -282 -108 1201 -111 423 1132 1304 1593 -1641 19 -80 2368 666 -169 440 -2687 1051 1738 -3045 487 1385 285 1694 -2322 208 -989 1517 567 1556
539 -106 1796 1036 1733 -258 2213 -1409 1650 -2745 -1400 1229 -343 -368 -1124 -2012 -2780 113 289 -2431 1479 3405 1567 488 -2767 -277 2572 -1153 797 1034 -2709 -1093
-2267 -3338 -361 159 -876 839 2114 -2321 345 464 1882 1606 -1186 -1279 -2834 -677 833 -2837 -569 389 -1632 586 1303 603 -121 1097 -1843 1013 1005 2364 947 4045
574 -1805 -734 358 1027 -1147 1859 643 476 -1054 -1586 2301 -281 -1746 85 -2147 2177 4 -1381 566 1717 -2539 -1651 -570 804 -624 -508 -680 -1226 1214 -351 -1946
708 -278 -383 548 105 -459 272 -2190 132 1169 -961 56 403 -1353 -1320 1114 379 1318 539 1270 -3630 -915 177 2473 -2699 1093 790 416 -390 284 745 1073
-425 1677 573 956 3427 1950 -1733 -506 721 -392 -796 -736 610 -406 149 -1677 -2341 -899 -1467 970 630 -1108 58 1142 206 -774 -222 -1174 572 897 1003 2072
-1001 -2044 -1459 1754 -684 543 906 -2233 -902 194 551 -698 -431 406 561 554 -2047 381 -1135 262 -2727 4068 -248 546 -1606 3099 -91 -205 -1741 2458 -984 -463
-415 1732 -1530 1817 447 2098 184 1015 -1283 1733 -514 -1323 1136 -1011 -380 269 -1609 1430 -758 -1036 -1256 2529 -393 1647 282 -207 400 -1914 -889 260 -388 -1411
1216 -606 -959 1368 -301 -635 -826 -2089 237 265 2828 661 -654 181 580 -961 -4042 576 -1688 -2042 -2653 2262 -1691 -10 1670 2234 -220 -97 -1369 688 -1045 -1139
1025 1735 -586 -1164 288 -1198 429 -1528 -718 3270 -1427 2059 1360 -904 1296 -736 1886 -421 1608 -2702 1450 -2006 715 3429 92 -34 1320 2577 2345 397 1808 -688
384 1856 -511 -1826 1091 -527 -1072 -508 544 2619 1703 -437 -633 -134 70 -502 1292 -1610 -708 468 591 739 33 -749 494 -399 1421 1071 221 -3129 -478 -815
899 -31 303 1315 -432 995 -1642 -181 1382 978 319 2214 -1792 590 -314 1211 624 163 -110 -185 606 45 2737 2398 -1269 1408 2162 1731 -808 2134 2177 1278
929 2163 -1966 -2297 1021 2518 470 -448 -1772 411 235 -510 -250 -1682 262 1967 68 1652 -242 -767 1388 -1083 -1763 236 -382 -1386 -608 -341 684 -167 1385 -1632
2117 1857 676 81 3018 -834 1522 3298 280 1159 -413 264 -1771 466 -264 -334 -636 1529 -476 -4816 -517 1674 730 1336 1606 2220 -604 1140 49 196 574 2645
-1895 278 -1660 -718 -2432 -718 -820 -89 -956 -1473 -1048 304 1395 -2598 557 383 -1394 -276 -1412 -54 -110 576 3055 -2164 1818 783 815 223 -967 -980 -2498 1419
754 2384 -1929 484 1539 -376 -338 2020 2700 101 -185 -1239 -239 1398 156 992 -2281 -91 1802 -2467 -1446 702 -39 1309 1476 1775 -497 -2213 -1161 2912 -1093 806
1397 844 -553 -59 1866 -664 -854 -1681 -738 -1394 -306 1035 -1324 -653 920 1171 495 -1004 -1210 -101 1809 -357 -1524 -24 1198 -1457 -3686 -2139 -388 -1119 1323 11
1912 1917 -3195 385 546 -1566 1034 3878 1377 1196 379 -1259 -1626 652 318 -1042 -2133 1595 422 -547 -496 -247 1290 1855 -2126 692 2186 3996 1374 1289 601 -2768
-1240 -404 589 -527 2459 -43 -457 -2146 499 -800 1133 -724 -1521 -971 1503 3199 -1405 -176 58 464 60 3263 -672 2336 1153 69 477 -821 830 1658 -241 -309
3024 -1713 194 -417 1623 900 -3483 1502 -998 -543 -3272 -2366 2846 23 518 1170 737 -497 -213 -1391 -1289 1626 1499 1059 2039 2430 -1333 528 -411 -802 -135 3422
-714 -1291 -2572 1589 -1625 2354 -1182 -1823 -594 -1325 422 168 -607 -791 -2020 -828 38 -1915 1032 1574 2378 -516 4073 2179 644 1453 -1020 1158 -3341 2440 885 -508
-2823 904 488 -32 1336 591 -1183 -2412 1339 653 1122 -1488 149 -1125 -759 -319 -927 -96 -359 -1038 390 -1195 896 776 -705 2160 551 -85 -109 -378 -242 985
1564 -1078 131 191 -892 -95 -3248 830 -2672 2003 -2203 -410 2632 -2474 2238 -567 155 2037 2718 1475 1759 -278 798 496 -661 694 1365 924 -1526 -1197 -636 -3725
2611 663 -187 280 -667 828 -1748 215 646 -817 653 -2499 2735 845 1082 863 -1428 837 438 140 1830 -575 548 1262 -7 2156 -819 922 -876 1445 1251 -1026
533 -275 1685 23 54 -89 -1375 -179 -222 -1333 1034 -827 -773 -2112 885 -46 3600 -997 -3064 2060 649 -453 3128 -494 -584 -1433 -115 2039 569 -1319 -154 -2416
1569 697 866 -215 3210 2380 1182 178 -2411 -1389 2270 1999 1298 -206 803 -65 917 99 1266 -1172 -457 -1607 649 -1495 -2166 124 219 1921 1348 3207 -2028 -400
1548 2701 1708 -904 2869 -3437 -2130 604 -1081 -1263 -1898 2182 -200 1686 -1035 -2555 -1443 238 -1335 -1525 -2712 -878 -958 634 -676 -1586 861 918 50 -918 654 1365
3336 550 543 -651 -1470 612 49 -1338 704 -2191 -969 2011 -3465 191 1626 1680 2051 32 -171 -1228 -1202 100 -132 -1687 3616 -1053 217 -496 2364 416 -440 1433
-1122 -581 2614 -290 -2744 -803 1268 -27 -1737 -88 1444 904 -1867 996 1483 -807 -1806 592 1408 182 833 1285 1162 -3226 -3306 1512 -2730 2057 691 626 -692 340
326 1351 -1267 -4053 974 -1771 945 967 1292 233 -383 -2237 -164 -698 94 -941 -239 698 755 -21 -4295 2337 108 1351 6 -449 -447 158 -2409 -1791 -1477 -447
-1059 -633 572 -1476 270 -2084 632 771 111 526 -892 645 2213 360 -624 -315 823 2808 -435 339 1763 1227 233 -2361 219 338 -1646 2491 -491 -1866 -2352 -1526
2132 2178 567 1617 -1568 318 1640 1568 -362 -1355 1329 -1790 -1496 -1836 592 909 363 -2869 1114 -2577 -797 715 -411 -1012 -10 -697 -4084 1055 1390 844 -714 -680
766 202 909 -1793 1098 -983 1591 963 826 -1687 364 -699 1647 1133 452 532 -1152 1322 -1926 413 769 -2186 2577 2900 -736 1402 841 1120 -2816 30 3024 1039
-1188 1613 1759 2683 -946 2670 -251 -961 1325 -1576 -3079 4010 1703 -1777 -635 -23 -2279 285 1883 -2636 892 2452 604 297 -860 634 1838 1093 1276 1183 -3064 -80
-2817 -1130 -1134 379 -975 2826 513 -2739 1431 760 403 2146 -534 -72 -401 384 2560 -1562 -708 -921 -1805 -544 -175 -904 516 -335 574 -316 1480 1509 1488 3445
-1187 -2014 1078 -373 769 -1936 352 1634 -2230 -809 -1999 2024 225 -1821 935 -2114 124 -1107 -165 785 -142 113 1917 1306 -358 114 -374 -1322 949 209 -825 97
2134 493 603 1386 -363 -842 1517 -2072 -388 546 0 -1583 1748 -1447 -275 -168 1786 1935 1774 710 -4912 606 -1320 3274 -3111 1115 1658 1208 -1193 549 -745 809
-1503 61 -726 1666 956 1795 -2041 1655 -1164 -2737 -2121 -473 758 650 -778 -1275 -837 -3373 -3006 168 135 -78 -677 1995 -1575 -2398 455 -432 -783 513 -2262 1128
637 -3132 -2436 643 2676 -862 350 -937 -314 1093 -472 1411 -310 1062 19 240 -67 -1347 294 532 -1860 2469 -2055 2185 -1870 576 2103 -2884 -1788 2008 1207 -1104
-1908 120 -457 2601 1198 219 372 801 -333 841 -1256 -557 612 -1766 -348 1231 -423 2125 -2223 -1049 -830 1729 1203 1621 716 -1217 1711 -1894 1037 397 -2323 1242
994 -643 -497 -371 -1150 -2438 -1900 -1882 1942 -491 3180 -320 -1255 1630 342 2160 -2035 -1820 -2818 -2557 149 804 -1636 -1222 -485 1495 1964 -2172 -339 1232 1152 1893
-100 1036 1048 1418 -1133 -1707 -939 -706 -2245 2257 -934 3898 913 -532 2154 -622 1067 -1652 -25 636 1432 -2731 -293 1799 -734 -1728 464 485 590 825 -1629 -522
-764 3352 -1295 -3903 886 -1436 -1832 -1460 1080 1967 870 486 -1811 -1818 725 218 -553 -2100 260 2854 -1007 398 -658 349 123 37 -983 -389 434 -2213 -999 421
-215 -196 1456 1229 -394 1760 -676 1251 -160 601 913 -793 -1489 -1139 285 1669 -944 -174 -251 -1300 -3321 1226 2380 -857 -770 1638 1003 490 766 1185 -150 760
2740 309 -2813 -937 -823 -1704 1794 -1705 -226 244 309 135 691 -877 -1936 2802 -1944 1233 -1045 1922 1975 -1163 -1104 1985 -159 -1168 -1605 -624 2238 -767 2360 -1608
1886 3334 1285 1048 2981 -2891 2245 1457 1310 327 -122 773 -956 -622 1909 1266 439 1276 767 -3367 670 -876 1397 385 548 1387 -582 1529 1207 440 -543 1229
-1252 -256 529 -83 -3760 335 -394 -1050 -1324 -1268 -989 2475 2076 -234 1088 897 742 -1396 -884 655 -1216 -109 -288 -466 1796 -555 -289 2850 -144 1004 -964 3298
-283 1497 -2591 233 1102 -1243 -873 3509 1899 -1631 -1857 -664 1947 2418 279 1041 -1129 535 696 -2296 -1356 -698 -1610 619 -999 648 -1301 -2447 -951 1981 -446 497
-498 1320 114 -99 1899 -548 -1556 -1432 950 -1085 85 1536 511 1826 1964 403 160 908 734 -645 -446 -1270 -532 -1276 360 -221 -133 -2534 -771 -1782 1025 -54
-223 2193 -3317 507 -438 -467 1513 1550 47 251 -1360 -918 -490 -420 1439 129 -405 1315 -220 1338 -1191 -512 1370 -287 -1226 652 1551 2538 27 826 -1372 -957
-542 -467 -221 -876 2627 -421 -1139 1372 1280 -304 -1875 -414 -1343 -309 2142 -117 -1588 -1295 -1288 -1703 -256 248 263 2614 1403 1299 826 804 -1003 -740 1021 453
3326 -1588 -1804 -376 2370 -746 -2200 2938 -1093 -1979 -1735 -2656 968 871 586 -438 -110 416 1254 -1283 524 2552 770 946 291 2481 -1112 700 -2222 -123 -703 663
602 583 -1458 810 1236 -1279 -2399 -1147 -228 1081 1326 2116 -770 -391 -1153 -719 -126 114 2081 672 216 890 1876 345 2005 1362 -1360 1061 -1425 1929 -913 -778
-1169 -697 1479 929 -314 2149 355 -2461 604 1310 -198 -1644 -925 1184 846 1490 -1498 -1251 275 -407 -1395 552 74 -2123 -1832 1211 2538 569 -790 -790 1172 -43
-132 -1241 -695 558 -2509 847 1184 -1535 -1719 103 -297 -482 2904 -2749 2062 456 -812 1742 606 -303 522 917 -453 696 -309 350 -978 -704 -1178 -1392 -780 -984
1992 455 1014 1015 -76 153 -1256 -805 330 723 -575 -2695 1349 512 -57 358 102 1219 -1151 1010 813 -938 -1474 116 -707 770 1094 1625 226 1973 953 -749
909 -837 2661 1784 577 211 -859 -99 -154 650 328 -14 -3247 -2802 592 390 2028 -1615 -3772 3107 -369 963 -229 956 817 682 -730 -1274 -1777 -2966 221 -2399
2451 300 -728 -82 2757 1186 1758 -1428 -2651 -1053 2492 2557 2152 2743 1295 -958 -1567 49 -558 -257 -600 -1839 977 -1236 231 -895 976 1961 1519 3378 -2298 -1984
1525 199 -649 591 292 1774 447 -1876 2248 489 974 -668 85 1489 991 1028 1426 741 2660 -1271 -81 -1462 730 964 -1406 392 -2066 -937 -1710 1609 984 -882
-331 797 2234 811 -451 -9 434 -1003 1422 -1269 561 -823 -971 1069 -660 851 -112 -838 -565 785 -107 1466 -917 2129 -301 -790 2852 1010 2178 -228 -48 -1045
1200 2084 -1083 90 1140 -849 -1872 211 -2137 640 654 -577 168 74 -1448 -1661 2597 570 -1746 1407 -815 -573 -232 -1358 1710 -104 421 -621 1752 462 -54 41
-423 -2088 -185 2212 1311 -1684 1344 -347 185 183 198 1479 -1176 -653 -2059 -1043 -1187 -641 -489 -1812 -555 230 -600 -1981 -235 -1292 -22 878 345 156 2858 -272
848 563 -2033 2107 -2541 685 -1280 -590 324 -143 -142 -1543 -1269 -412 246 -110 354 -716 16 -275 -944 917 -538 -497 471 614 -1391 1862 134 370 1163 -1523
652 -1359 992 656 1726 1002 -154 -208 -1384 -852 68 -1936 1760 616 325 1421 1275 -240 -639 -2274 288 525 1105 -1165 -1111 2950 2309 -395 -1398 -77 241 98
-674 969 -1421 1390 -638 -759 420 987 -1177 -985 -769 -1148 -443 -2374 1246 -402 -521 -1554 1603 -91 535 -420 -622 1204 1799 -436 -1100 -594 548 681 -1061 1567
100 1266 -12 659 221 -972 -167 -169 -2375 1670 -564 -2106 -1791 259 -1126 344 -541 173 105 -1114 -505 13 -908 1196 1499 1902 949 937 -361 -207 1341 2993
-1009 2591 1285 828 2075 -827 -2327 -74 -735 1635 -141 -1254 -2191 458 -735 795 -154 1198 997 1434 -1649 -139 269 1517 -967 968 57 111 -337 -632 -3820 373
-267 862 3018 -269 929 -970 -255 -888 304 35 142 -2772 -2223 855 251 2506 -3268 -264 870 2171 -311 269 914 418 -245 1877 -200 455 -106 -1027 2154 -287
-2431 -244 575 849 28 -1889 -447 593 846 1288 -1159 -669 -125 -428 923 -367 1904 2829 829 324 1522 -361 1103 -554 1331 214 -1173 2650 185 -505 -2941 -979
-1600 -780 109 -35 241 1001 -1406 -2015 1239 -1008 -1186 371 -905 -979 -610 54 2205 -1655 -635 1720 -1401 2629 -304 826 -912 644 -2858 -2388 591 -151 -1452 61
239 579 -298 -712 398 -1950 218 717 -198 -1773 -2280 363 -735 -180 1366 1132 526 -640 207 -1102 1511 235 728 66 2400 -1712 -114 2165 1863 -2270 1559 -480
-213 -803 -109 424 -1336 -974 -1410 -303 1422 1622 -887 -1378 -3048 -1577 -1322 -1131 -1138 1318 -2208 -1353 850 -1046 702 -2394 -271 -1378 -312 359 1913 1487 1670 -878
1913 939 -707 -103 1414 801 -853 -295 -1753 393 -2124 1275 -842 2415 1534 210 -1374 -2701 1810 -1240 -1632 -974 -570 1406 432 799 2882 1028 -884 -1344 533 -1190
341 450 2117 1241 -1150 92 242 323 2518 -200 -418 465 -1074 2036 747 -69 -1320 -198 -472 -582 -2298 -1097 -183 -3111 1397 816 -1545 31 514 696 174 266
647 709 -2235 -1333 875 585 91 508 1301 -1430 -2881 -63 -323 -2459 1248 2375 -1857 583 -1634 437 1724 -2 943 -464 -323 3759 157 -324 -102 -1140 -767 2695
-3072 684 -211 -1061 -1907 -336 1127 -377 1412 -1850 -699 -817 1749 -15 1479 -781 753 -146 -985 393 1890 -172 -2071 274 465 -575 1130 333 -1920 1456 -1689 2021
-1524 1698 -582 1639 1721 -250 -1200 -501 -1299 -1650 1178 481 -2374 673 1328 -664 -842 -2345 -1722 381 -758 1750 -481 -270 -1574 182 237 -1136 277 -770 -171 1921
-548 647 -2826 1639 -1392 386 -610 -2507 -497 -538 1467 734 712 -320 -1862 1506 -779 157 2101 2124 275 -656 -2552 -507 -110 -792 -796 2838 -1130 525 -3280 1277
-213 -1587 1826 -389 873 -1370 691 41 -1053 -506 -1069 -231 -506 -372 -16 -1186 1019 -1150 100 647 352 1662 810 439 1482 1187 -360 -925 -883 533 1900 681
744 1527 867 1264 945 1744 2241 -940 1333 -762 824 909 863 -1660 332 -129 -304 2091 -116 -2564 -561 1409 -224 1028 891 -1196 -1363 -158 794 7 1134 -1430
1532 1434 -534 1323 172 1887 -205 1000 -1620 1311 1040 -1294 920 1066 -233 1152 10 744 -606 2179 -1934 827 -3340 395 889 479 1336 -860 2269 27 -1681 1310
-692 -213 817 1228 -18 2800 -2341 -561 705 -756 -40 1335 -806 -2102 -1855 822 -590 125 1564 -883 1691 -445 -1882 1903 417 806 -880 666 1269 1533 970 2303
518 957 -1345 204 -1060 1321 -1748 -3126 -431 -566 34 -796 -1551 -665 824 -292 937 -1193 743 390 -439 -1023 -415 879 -1505 363 -89 502 1387 1483 -684 -973
-586 -485 -1555 949 -1139 558 659 -665 -911 -558 1357 -980 -218 1288 710 2078 -1892 2125 -1763 2220 -1900 -888 -81 -1102 -1181 -432 -1343 -16 -1041 176 -107 -144
-1422 -259 -1051 -885 -403 -454 531 1137 -867 -1420 -725 1416 -2673 -2387 -889 285 21 519 -1137 2922 -535 186 979 1934 -2708 -738 478 483 -1090 1170 -648 1802
541 -931 -1969 -837 -535 -2132 1283 3232 873 -143 -2970 -938 463 -1684 -726 -2042 1802 1087 -740 -1710 -432 912 1187 244 1725 1004 -1921 479 1540 816 -1602 561
-2644 -820 436 -449 -1360 379 1895 -1261 1143 -1730 686 727 672 400 -2674 -1907 1167 451 -540 -1710 -1037 -1115 898 335 -368 -1800 750 -1039 -340 1485 263 -421
-939 -546 202 -1282 -3085 788 2795 -936 -3115 -1418 -27 3598 1143 2525 872 1186 885 41 -1528 1226 -138 -3989 -918 72 -67 1815 -218 -543 1295 -1528 1591 -2286
-481 353 -3092 961 1536 393 -190 1077 -534 -716 520 -1160 3718 1917 -1812 818 -60 1013 222 -814 1913 -218 11 519 -1928 729 13 -2492 -2989 -356 -2040 676
-1239 39 500 1467 -633 1004 646 1627 -898 146 182 1485 -1404 -2063 1804 -880 -1271 -1015 -1696 1015 941 2887 783 817 -1375 712 617 -1680 -388 -1083 3325 -1026
-1590 -1043 2564 -1596 -225 420 1660 -674 -71 2929 -323 930 -359 -2118 2429 107 500 -476 -143 612 510 839 856 -859 600 598 3659 1989 418 -140 -47 -499
-929 -1590 -353 78 -942 -7 266 3349 -1031 1731 1028 -691 417 230 -3010 -930 351 1441 115 -1870 555 1160 1438 700 -555 1401 854 687 -2550 -2373 -383 -1782
179 1392 1091 -133 762 647 -576 -1564 1196 -287 188 -1221 1700 416 -328 2307 -3396 13 666 127 813 -1977 426 895 -436 -275 494 99 529 -1824 -903 -758
-1428 -69 1530 967 654 363 -1310 327 -745 -1741 639 -1641 996 996 1203 -793 1789 1133 -471 -276 2056 -1016 -344 1944 -2098 260 -924 -2022 251 -807 -997 2017
1308 490 3178 -1764 863 39 1797 -769 -339 1865 -68 -893 -1919 2346 947 -1947 763 -89 -942 -1853 -1847 -1480 2357 -633 -864 -254 1622 -2627 -462 -34 629 1863
52 1348 -113 -1397 100 -3216 1055 320 652 -1538 -269 1722 -844 236 661 -69 -601 1794 -859 1805 1849 307 -2733 -530 -337 -1917 332 -980 1219 1854 -788 2669
-936 -1116 981 -1751 293 -279 608 -1629 148 331 -393 -246 712 451 148 249 1352 -2286 1061 2068 1373 1443 -1786 -47 -770 2757 -511 -1246 -1260 -124 -485 671
-1944 -240 -1663 -2061 74 -2424 742 156 707 787 1259 -970 -1187 180 1357 633 1230 238 -1249 541 -910 1703 1161 1023 -194 194 -266 -616 -1071 -1774 -1020 225
605 -886 -524 -1550 -1132 1910 -585 -1144 699 -114 30 1035 1902 1399 2449 -878 -1136 -405 -922 1026 346 824 -1896 -780 -428 -633 110 1350 -1777 1 1454 -1057
245 809 -147 -1466 29 -1165 1340 -2360 603 -1539 834 2382 543 646 -699 -2196 2594 1514 188 -734 -1291 756 -2238 79 -971 -2695 -244 -59 1460 1396 -494 -987
-702 -2599 253 -408 -66 1781 -498 996 -1797 -46 2262 -134 548 273 -516 -225 -107 -1963 351 1928 413 2680 -492 478 1761 -930 812 -1026 -1163 -1544 -332 2169
-851 1545 307 -1566 -2650 942 1152 474 -1053 1392 -540 422 341 -1382 237 891 79 1329 1706 -2392 1915 -2377 -776 -714 769 -231 1919 2041 -1013 868 -438 -1353
57 -744 83 67 -1462 -607 249 -1786 1198 -1223 -957 -1454 1097 906 -2202 -1869 998 336 2057 266 -260 -1510 -810 -858 -792 1944 -1245 647 620 770 -1415 -93
2004 -1040 2871 305 -666 -1687 1197 1284 -629 -2226 982 -875 -50 430 1418 1943 663 -105 -418 766 1478 2176 -1592 2949 1847 -1703 -1651 1406 -1621 730 40 -372
-1354 -571 1195 111 872 -703 -1706 293 912 127 -234 -2493 -660 -738 -1793 -2530 238 2443 357 558 -543 -988 -40 109 327 -1354 -1397 -87 2579 2158 1220 426
260 -996 -1431 -944 1909 268 365 -2510 -2396 -350 -61 -389 -63 704 282 1450 -926 1113 -1300 -562 1477 -1021 706 888 118 -665 1385 464 -228 -2030 -590 -1095
-680 -1386 715 -62 -512 -289 1443 -515 -205 481 1030 -1989 1014 1058 -1006 -501 1409 1372 1159 -1904 1819 697 -1609 -2084 251 30 -308 -616 754 746 59 -2601
3104 484 1125 -150 1361 -1522 2 155 -1575 1080 -173 243 811 -734 -489 1603 -28 -395 11 -234 644 -632 -37 262 1673 -395 519 1359 1157 198 2374 -819
-1115 399 1399 -635 -491 1617 56 1621 1968 1033 -2538 -479 2774 365 1432 -1644 -1655 427 -404 -1066 -665 -702 55 1378 -355 -67 1834 2048 1462 -876 -179 -1906
-32 -509 698 -1289 -595 2174 -889 482 -1757 827 2671 -4307 -1133 -298 -885 510 456 901 81 1454 -2589 -1135 764 364 2362 1264 301 -2855 426 -1003 3178 -1984
2744 1580 -459 -780 925 3125 -140 -477 181 904 152 -460 544 -359 -612 -1410 1554 2692 -1193 -610 -123 -808 1114 631 -1648 -444 -1594 -102 586 -1230 -1240 -1193
-1077 244 920 94 -1416 -2333 -441 -1702 -329 -238 -751 1636 1331 736 454 654 413 -3759 902 2756 -133 -1363 242 -567 496 -1095 2631 70 -818 -1451 -738 1309
843 -537 12 874 442 369 23 679 1963 -821 531 1575 -1203 -1084 -275 -1741 779 16 2906 -176 2709 191 3092 -2079 -3029 356 457 628 -581 752 2098 9
823 959 -110 -440 2050 427 66 266 181 1140 1293 1324 504 1078 951 -385 -137 -867 -570 -1202 749 362 -469 1207 884 -883 157 -347 -67 742 -409 -2181
-563 2338 2259 360 -2621 1477 1362 660 262 1737 -1402 696 1409 -1137 -413 756 1345 2372 -471 2222 775 57 -1600 -623 1713 -2748 2426 -761 37 -760 2498 1712
-588 1694 220 -159 -34 56 -1263 1818 1672 3771 928 985 1418 -304 -401 -1965 -179 -1874 1483 -993 1294 -888 -48 742 1722 1834 755 -62 1384 -879 1332 -1115
1732 833 -1058 -788 -2513 2595 -1304 -863 -311 -273 1564 39 2985 -184 600 -873 -692 526 -1184 -1216 -625 -304 -2369 -266 -461 575 422 -733 839 -735 564 73
-1283 -2312 -622 -532 -2347 -1078 -2536 -943 -1090 -768 2665 -1891 2247 991 78 -438 -994 163 -203 -1101 496 -1289 -1393 1848 938 740 -830 -536 1503 -1143 -49 903
633 -170 -2130 -754 156 -34 1289 -316 -621 1574 2161 -1127 668 754 486 2418 -154 -960 -2956 756 -1195 -1896 813 889 -42 -109 2102 -195 -1802 330 -1125 -18
225 -831 1461 2456 841 1067 -23 -107 -165 1552 -1585 -591 -1255 -424 632 -1415 364 -991 228 645 -388 1540 151 -177 -1558 -1037 2185 -1650 1032 -2000 -1347 1281
1059 1488 1801 -859 1551 686 1105 574 -418 -296 -1402 -731 873 264 269 686 932 -1871 57 1936 -1838 2105 -757 -187 1435 64 359 2021 2158 1086 -254 825
-1823 -1201 -2238 1734 1281 -2943 -962 -232 1074 695 483 -436 -84 1002 -1743 226 -486 522 3049 -214 659 148 -495 -189 -1372 -2428 841 -1198 1169 803 -681 -477
-1100 949 1726 -2427 -234 370 744 215 124 -1139 -487 -463 1634 -2578 2685 2607 2096 -53 -1456 -1807 885 836 873 -1470 331 804 732 3028 -1190 -330 480 -1672
1152 452 -2321 1540 -54 706 -1883 1326 -2289 1666 -432 215 -346 2361 560 21 185 -458 18 -1673 -2005 850 788 711 1622 2962 686 -206 -3149 -2895 1102 -1716
-1290 1755 971 249 188 2376 1035 -2297 1175 207 1135 -1460 -1621 -1154 -1252 1663 -752 2755 1300 76 1020 -453 -2260 -931 2009 799 768 -472 -603 736 -1102 238
-139 -256 1153 219 -1205 1739 -3424 -1118 575 -1475 1925 -2593 -601 1094 -1159 777 652 1764 867 -616 1769 -1353 2831 840 -1898 -1491 -1320 -1768 -775 781 -2264 3826
-611 -1370 860 345 -263 270 1861 -1366 -894 551 -3657 482 842 1512 1823 -2096 -839 1194 -976 -188 365 -2872 615 422 -2027 -2559 1456 -687 -1446 -831 -553 765
-1145 -75 1154 -3633 483 179 -385 1470 1905 1140 439 789 361 827 -114 -1351 -289 686 -266 1656 1400 859 -859 -377 1401 -1605 373 563 472 -2260 1924 -842
-897 -1910 2934 -949 -2504 1011 -966 -1939 2857 -808 -832 743 734 1824 -2257 -2173 -34 -1859 -2116 220 986 115 -1410 1151 -1841 1566 515 -1014 1997 -110 -917 3226
123 -1057 -727 -938 -506 -1553 980 -1300 1742 -1354 -662 1508 -1173 3598 1194 -544 1770 300 -123 1285 1351 666 816 1789 -1015 -235 -441 958 52 1050 -247 -1375
1137 772 -2547 1072 459 910 568 -504 44 468 1065 -458 2108 1395 3594 -1300 -1673 -922 -1726 1198 -795 -751 -759 -2156 -1275 2778 -1464 -2044 -1297 -1917 1072 -1266
27 -934 -156 502 521 774 2685 -1404 26 -2031 -97 1433 719 -3417 -1648 -658 2861 2070 -1451 -1202 -799 1917 -1046 -1267 -1884 -2157 138 -1978 822 -1791 1197 990
-1995 -2301 487 242 -1508 1700 -592 243 -1310 297 610 -1428 -1175 3176 -2912 932 138 47 -2432 1561 -992 1410 -23 -1597 778 999 1797 -2872 200 -563 2928 1977
-1069 -589 -1284 957 -3049 1792 3351 1129 604 -1143 2026 1725 44 -1138 -402 -138 -1542 2430 2692 -2586 -22 -2577 -151 131 773 -2211 2274 -860 -1458 -1027 -149 1405
-2350 500 1128 -810 -256 1565 26 -1686 -843 -102 394 -1000 3554 1055 183 -1713 421 32 -1294 2341 -566 -491 -763 -982 394 -468 2662 2379 -27 281 -1975 -1520
-220 -763 -744 261 1074 -2188 1675 2221 1558 -1028 322 -1300 954 2254 1086 1608 2038 -2240 -958 856 -297 -16 -576 710 -455 -826 -2395 3176 -574 -1363 -928 -1482
-2733 58 490 1162 642 -855 -1345 1442 -647 -743 1267 -2709 -534 -1255 -1952 -159 -484 2509 -386 -1207 244 1710 141 -3623 -1760 -811 -929 1907 1874 1918 -2195 238
836 416 -1709 71 -427 422 -301 -1233 -486 1950 -803 731 -823 549 -567 716 466 1680 395 1272 2109 -1866 745 1171 -276 487 610 -1855 -757 -166 578 -1235
-341 1233 2702 29 1503 -663 1080 850 188 809 2341 -404 1207 -454 -3131 -658 658 -2283 -639 -1202 747 -1010 -63 -2573 724 472 -1135 357 2863 -1575 -207 -2472
2361 -3356 175 778 -935 -1521 -1073 1780 615 -1088 1434 178 -961 737 629 1471 351 289 242 -416 83 942 -527 67 730 1136 1115 -597 883 -2041 2924 -1551
2063 -458 1851 -220 -3146 257 -1279 1959 987 2848 -1415 -915 1637 980 -174 -2781 -2318 -455 -884 1448 -1503 -591 -769 375 -3082 -735 898 1382 919 -301 489 -2574
2064 1449 495 -1565 -862 -2193 -926 763 -1307 824 4070 -3100 460 -1077 309 8 -202 1860 -927 900 254 -1945 548 1489 -473 1163 378 -1465 -360 -463 -246 -394
1904 1244 -616 386 -1135 2698 979 -590 -622 760 2801 -486 786 375 -2853 -620 2141 -452 -2219 618 -443 -1611 85 1200 -2568 -1329 -912 -1019 651 1977 -723 -134
-963 -749 735 -593 -2527 -2430 -1019 -515 -82 -1257 1980 138 752 1007 687 635 1653 -3059 1449 3479 752 370 1126 757 360 -28 1853 2501 209 149 2034 637
-1269 -288 1935 -301 -205 397 1621 1573 2554 -1003 1378 846 -831 -1810 -1498 877 1088 -1415 1015 -969 3616 148 2314 -2812 -1022 2128 -1629 -1646 -2266 1793 -361 2096
43 -214 -729 -1592 1528 420 499 -2101 1342 -401 -625 -822 -2449 54 -1730 -164 3980 -1316 303 410 -1238 -196 -449 -49 -2464 -259 873 -2409 -1782 -100 -861 -1111
661 2001 513 -954 -1791 -1249 1273 1084 -1401 1840 -1177 901 3231 -2216 -155 152 326 1749 433 -363 -513 -1788 -947 -618 1583 -473 1093 387 -262 -533 -5 -429
207 3322 -727 632 776 -840 -1258 47 2427 2011 -717 -489 2126 -1628 -1213 -2118 -543 -169 1294 1267 99 690 -1378 1118 -39 2025 -2267 -147 -416 -907 -1956 802
1699 822 -1951 220 -16 339 -580 -2327 -667 1122 652 -2001 2316 687 971 -395 1946 -458 -717 738 616 166 -973 185 -954 1465 -142 -1574 -153 1611 150 -54
892 -1126 -1850 927 163 1124 -1070 -288 -1766 -885 2477 -2883 2257 -483 1931 -535 -648 -1026 1154 -101 1871 -2210 -1515 1898 -1426 -1796 550 573 -824 316 -1269 1098
2173 -50 -309 1212 2147 2916 1694 -798 237 1318 1517 2207 -1491 -63 -776 2262 -587 -540 -2201 1014 -717 -1706 1197 3439 98 864 1165 1800 -676 1210 376 248
-492 -1515 2827 1961 1308 -444 -2224 -464 806 829 -1371 304 -2806 424 991 -2095 2450 -219 333 420 -878 -462 247 1842 291 51 2210 -1908 2111 -2454 625 1603
1766 383 1000 -1578 2864 -358 -673 -350 -1366 -1005 -251 -1228 -2413 -1275 1619 -261 -858 1915 418 1790 -1369 1117 2265 -785 3551 720 374 828 1483 86 268 -715
-2485 138 -965 2034 1756 -3219 -2159 483 1008 1970 1780 48 346 -1101 -97 610 119 218 813 -252 2053 827 -800 1239 -1281 97 -322 -1075 2521 507 -953 -69
-1745 -587 -184 2370 -1819 306 2095 1601 -1228 -1396 -73 -962 878 -701 311 2417 1478 -2149 81 -1796 679 -834 707 2089 -1705 -113 -778 -927 123 -961 -384 -1909
1622 2608 -2780 431 -905 236 -787 241 -799 1194 -1461 1490 1075 -351 1130 -1178 235 186 1186 -174 -550 1133 -541 -571 -565 268 630 -2491 -2947 -1741 3769 -242
1621 1548 1242 3071 1920 -533 -206 -121 -20 881 796 -1942 31 31 -2985 1016 1013 1893 1798 -998 -2065 714 258 -1897 1610 -618 1903 -264 1043 554 -1141 -287
1596 1582 348 706 592 1634 -1621 -2932 -1029 1427 1941 33 279 906 -1414 -58 74 734 59 -3512 2203 -1480 1343 829 -2453 -1057 -1212 -2507 -1712 1181 -382 -985
82 356 490 1779 -2659 1277 -978 37 962 156 -1557 477 -1108 1110 -428 94 1761 1113 -1250 -450 1418 -215 219 445 -1393 -2161 3882 816 -1196 558 -1302 416
-911 -1171 -862 -373 1428 324 -361 -603 2241 990 515 454 356 114 -1602 -685 733 -1295 -1939 1091 -2741 1979 -1108 -2308 188 -194 -1690 38 989 -2314 1115 -1034
-2153 -931 1712 -1221 262 -212 -948 -330 580 -66 -2280 3548 2304 2326 -2632 -513 356 -3576 -845 546 -1779 1127 19 -390 -3001 896 -68 -2082 2078 -1964 -1644 -50
510 220 -368 39 -3340 514 -381 -2543 562 -1496 -2113 -142 -407 2702 -34 89 2199 1700 140 -1300 1897 -125 -1362 1759 -1978 -626 1688 1636 96 2369 783 1906
1009 1722 -1473 602 2304 1299 706 2193 -1356 -543 4 486 371 877 2279 519 -2890 -151 -255 41 12 -3451 -1444 -2492 88 2094 -196 13 3150 -301 1238 -888
1411 -801 -173 240 98 1911 -790 1048 -1750 -171 -200 913 -54 -1898 -890 105 -138 1018 -1147 843 136 899 522 1402 -1165 -615 -138 -2014 -1319 -483 2380 -180
-685 1070 -531 411 -1821 -1247 -817 -1386 -1689 1275 -272 635 -1471 1381 -2039 159 715 -1004 -3062 2561 351 -544 351 -2936 -292 -1199 50 -681 511 697 -118 881
1250 -606 -910 -213 -422 -2490 1004 -1705 922 -1508 1819 837 760 -790 -340 2061 -2526 -1176 277 -2301 -1962 -969 -766 -1214 2291 -2653 997 619 -1726 -1125 610 1480
131 3784 -330 -1178 -1498 2254 321 1853 1733 -1191 -323 -2028 669 1126 -788 -1689 2230 -3139 -1485 2133 -703 215 -2292 1390 -40 694 2284 1119 -1424 -1097 -380 1970
1146 346 -1567 -1579 185 -697 1694 2247 -349 -684 341 -3285 753 776 -962 631 961 150 -935 -467 -173 746 -463 -451 -1080 357 -3210 4854 306 1441 -1265 2080
-519 1488 905 -490 -28 -425 -254 1876 -851 -1477 1285 -31 723 -2672 -262 1075 -123 1378 1048 -727 1219 567 -1180 -1398 -4438 1811 -978 1768 1426 2404 -1532 -1399
1685 -585 -123 1249 -818 1466 -445 -1213 2106 -162 -57 -107 974 935 302 1310 1124 -346 640 2219 2073 -598 1784 -957 -1511 4808 729 -295 -1504 -782 -1035 -314
-82 389 2187 -416 -2279 -554 -430 2526 122 961 445 327 710 -2028 125 -1381 228 -247 439 895 -241 410 -417 -1175 -917 -105 -206 465 -2 2263 27 -469
96 -3219 -1384 112 -1042 1675 386 2813 1163 564 6 -1426 487 2762 -409 -1301 -2333 1033 1583 -1828 -481 7 -212 129 -594 1761 374 -939 -183 -1669 764 -37
2318 -1023 373 -572 -577 -245 1357 565 521 -589 635 722 -815 2159 -381 100 -137 -2706 2043 1967 -1573 -295 466 -124 50 -273 -231 -2069 539 2146 83 -2306
334 2659 555 295 -1738 -1919 -377 -1007 1280 2103 1183 23 -252 -1376 983 1186 702 160 446 1074 761 -1171 -461 1985 -1906 -1771 -1922 1262 -1738 23 -932 -731
-72 213 1335 468 -1065 596 771 1735 -1964 1799 358 -1796 -88 743 -1090 -310 1648 1081 -277 474 -567 -565 -1371 -624 -1313 -44 -1630 -1115 -522 2114 27 -2481
494 13 1671 -1715 -1902 -577 -813 781 -1420 -1037 196 803 1518 -1525 691 -2353 1765 -1792 621 1629 1156 661 1330 -1535 -220 1011 305 4091 534 -442 2826 415
-2037 2032 -851 4 -1844 16 1881 1342 955 -1048 3194 -3035 -403 -1000 -1401 402 1578 -471 352 -1169 1728 1176 2934 -1779 -1613 609 -1845 968 2027 886 -2050 2564
-1058 1116 205 -2065 949 -168 2100 -1091 316 -1108 -1013 23 -1768 -76 -985 -978 5043 -716 383 1201 1378 692 1446 -1291 -858 -1575 285 -2638 -2786 42 790 140
434 -472 -66 2201 1046 907 1975 1503 -1814 3348 457 1873 363 -462 -71 -2024 188 -1514 265 -800 -1524 -1451 1535 -85 -1853 562 451 -1010 -387 1729 1663 559
1463 321 970 -81 -2663 185 1501 -1897 1968 528 -2826 2309 -1121 -722 -295 367 -1624 -1822 186 1466 -942 879 128 1057 595 51 -1971 -167 1168 774 -1819 413
-97 1287 596 402 1088 -1184 -1039 -549 -1501 882 -1200 -1614 1233 1195 1160 1197 1196 391 -1250 2 58 -131 -195 -2648 -392 3185 2205 -310 879 444 -680 1127
1988 -117 -1858 169 235 407 543 886 315 -3619 1921 -44 -445 2450 1486 110 739 -856 1257 -132 1578 -1354 -1243 -289 -1616 -1145 4002 1636 1758 1338 -1528 -903
-266 -799 1943 2059 2699 992 468 -1381 194 59 633 2821 468 364 -1591 379 486 598 -969 -24 148 291 -2380 2526 1183 1654 -518 253 -339 432 1143 2399
-2136 -384 871 356 2263 -1255 -428 1765 972 1127 -1628 1021 -2025 -1099 999 1432 369 -148 -547 172 -663 -1046 -1590 -500 2622 1542 1304 -307 -1534 -1049 -1002 -152
2696 -33 1014 979 289 1114 -347 526 -1831 -323 733 2792 -1673 1130 420 81 -1863 1222 -999 -372 -1592 2093 1696 766 1552 -234 -1465 82 831 977 1312 1953
-3136 -283 2054 223 1 -3222 -1206 842 -316 753 -1034 798 527 -171 1572 324 -434 -1780 524 1388 3836 1564 324 2006 -223 -660 -1691 -556 -49 185 1038 -102
-1250 295 251 -1238 153 -1535 2626 3593 -1895 2327 -1282 1322 -1173 -926 914 -3032 -661 -1149 1010 -1385 104 -504 -1492 -1165 1506 1591 1060 1598 524 -2459 -510 3303
632 1756 -1801 -1664 -1936 -225 2026 1137 -354 974 1067 896 128 1141 -1339 -543 939 -178 1423 -3114 -12 -650 -1739 -1662 494 395 694 -1312 -694 -259 -45 754
-656 -249 1936 -1173 -217 -2047 1433 -1205 -151 266 1644 514 -712 1029 247 1792 -4173 137 1177 -290 -1079 -235 1680 -538 -2828 1546 1050 253 27 695 924 -1489
114 1203 -1441 -2958 -497 203 -1684 -964 -562 -1964 -16 -1229 564 -2399 -1630 -1129 -1416 776 2195 -310 -1562 386 -472 1091 -3986 -980 -3616 -2767 -735 -1929 -1677 -967
1716 -332 449 -3296 601 1024 1713 1275 -1532 654 851 -55 -904 1409 -1883 -1764 3334 2063 -686 1233 995 -1092 2206 -847 567 7 1817 116 -958 -740 -1959 2316
-9 3548 -1975 925 -721 1487 486 225 150 1038 157 3435 136 -1924 -312 296 1078 -636 186 -862 -131 3262 -1990 -846 -1253 -1978 -2721 -1482 932 1471 -1110 2264
-1461 -2335 679 -2316 2825 -872 1631 65 -1576 647 -752 -1031 3669 2462 -1117 312 854 -2722 1036 2331 -1145 2418 1274 999 -3709 767 1867 -711 -2662 -1563 -72 -368
-1411 -1729 823 527 -3097 -215 -527 581 1375 -737 -1240 2158 1215 -2040 487 1045 803 816 849 -436 242 -434 -537 1605 -1810 -132 560 3279 -994 -402 -3240 716
-714 1181 -1450 -832 -380 2040 -1652 -3063 1351 -1712 -2199 -121 1187 32 2178 355 -1183 647 -762 -2047 18 -1160 -912 -1809 427 -791 2179 -666 823 596 747 1016
1190 -3503 1029 -1173 514 -1009 -1520 907 -1575 -2130 -1741 3809 22 835 -206 -3150 1096 -1190 2203 -1121 982 -945 270 1278 -1150 -2255 -3138 848 887 1587 897 1804
1313 806 1527 1565 1015 980 -1134 669 -1320 696 1752 2241 3399 -1656 1504 -2302 -107 82 -5 2762 -1646 2235 -1003 2467 -950 -3941 -84 -640 -352 -2334 -1591 634
-2030 572 -268 -455 -2222 -1330 -439 1112 -2621 -1200 -759 -41 355 1649 -2139 582 1218 -3343 -1812 -421 777 600 -1116 -1319 -1695 -1623 742 1910 -584 2156 -2838 -566
2656 -1737 -994 2700 1051 -265 -1646 1358 1995 1248 -468 424 642 1532 -373 -629 2045 -2798 2537 -202 -2958 -374 -2717 2277 -2184 480 969 -2396 -662 1809 1619 115
479 -831 126 1063 -758 -2751 1747 -300 -476 -966 186 -1857 562 120 -1643 213 -250 420 267 -642 2968 -352 480 2001 2168 -877 -918 261 -392 1481 -3432 3223
-428 192 586 11 -1161 -1472 -1336 -2551 3337 -340 2422 -1333 -581 834 970 -660 164 778 -1555 68 958 42 1199 -245 -2201 322 1447 -1595 750 3098 3566 2872
109 -2293 1471 633 366 -2476 -1017 -1809 -1611 -1484 1160 273 2480 -1142 549 940 -977 -1394 910 2770 2615 -615 -1798 2113 -401 -587 -238 -445 1353 -1842 -1997 -639
966 310 -732 -1488 -2677 -1605 -2542 -976 1389 -529 -514 -1093 822 -1315 -953 -1189 -1542 86 -1357 731 -814 -2081 -2818 1471 -411 -1826 746 -1658 756 809 -1499 -1669
593 -1295 1984 -859 1221 1484 -301 1330 -2197 1137 -378 265 1590 -1500 993 -1319 -839 -1427 2722 -111 -3066 523 1002 -3511 838 2318 -2524 1128 3615 -1362 519 -264
1071 8 -241 -1079 -612 -1468 31 1473 2923 -669 -1572 -835 916 390 -1007 1450 -1456 -645 74 2131 2763 -2266 6 3140 1142 -597 2463 -2865 2004 -1774 2297 -70
2856 2026 1935 -1024 -1632 231 2872 -1376 468 -154 1202 -2124 -1657 -2434 3337 1951 2839 1027 1759 -610 1516 -2294 -96 -672 -323 -789 -1281 -40 1734 1501 1091 -2717
1224 996 412 22 -1589 895 -3 -856 -454 -1046 -2279 1977 -400 2917 929 -1505 572 1566 -968 713 -317 -946 -2086 -864 -717 178 -35 384 53 608 -1425 374
1068 486 702 -39 -1014 -3210 -787 2001 1 -803 -2510 655 838 1928 -1714 -757 -107 -3040 1229 2299 222 -348 924 -1141 -2946 -1855 -798 -1001 -564 -398 918 -1166
-2088 -305 130 907 1608 -2138 -2106 276 1950 -1297 1607 1538 2038 -8 364 -1081 1324 -196 4059 459 253 -33 2857 -2821 -2463 -668 1953 753 -1552 326 1138 1131
-1004 1132 -170 1269 -1600 1979 801 -530 -1811 -1013 -1763 1016 -94 1087 2241 3242 1527 140 2470 574 -861 1738 542 1009 2059 -1056 803 -1962 -1576 139 4 -1244
-1626 2585 610 2799 531 1595 -912 2627 41 559 -1553 1405 -1983 -353 -75 -1293 -1834 -491 -3250 381 -394 -1327 -1773 607 1207 202 970 -356 -3030 -1231 582 2122
2540 -835 -430 422 2020 1577 808 834 2521 1092 -198 1075 -633 -506 850 -877 639 -82 4410 211 2994 1060 -1148 495 705 1588 -938 -384 -418 2526 638 -1821
716 1512 1138 -173 1446 -265 -3962 1281 -550 1851 -484 1651 1915 -95 921 1425 -1328 2950 503 -2230 1114 39 -1234 -2520 1671 672 -54 460 1248 -953 -1002 1445
1366 -362 1734 2767 -639 -389 -98 -2019 182 -49 -738 30 1254 354 439 -62 -369 880 296 -454 -1877 -704 -737 89 547 -1289 2647 658 976 3 -658 -1893
625 349 -1961 -1451 -145 -656 2325 -1436 292 -161 2036 -1255 2898 -355 2386 1435 56 -1279 -3251 -2 -520 1552 -21 -1092 -1554 82 -574 -1927 -2068 -2261 -592 -244
1504 1707 1671 1080 -515 1479 107 -3242 -774 1004 -2001 -2223 -825 -671 -45 1546 -550 2164 -1221 161 -71 976 468 -2761 -2507 -1278 1472 360 293 1015 468 1709
