-1879 -3206 -5101 -5267 -5291 -466 -855 3120 3707 842 -19 -1542 -3102 -3386 4718 3954 -997 -7097 -3489 -6606 -2371 -2961 -6534 1897 3683 3098 6226 -3616 1487 653
2829 2935 3231 895 3851 -87 -242 -8975 -3207 -2553 -1356 -2659 3261 1441 2640 3995 4216 9285 284 1058 -105 1209 6398 1208 1959 -223 -1575 3875 1246 1312
-3349 -7772 3937 1531 2424 -2043 -3331 -4582 -4634 281 3388 101 -4986 138 -1888 -4465 -5332 -1580 -1637 4216 4349 4525 -1176 -4700 4406 10234 -949 3165 -1807 -469
982 -115 -2342 4321 2330 74 -166 -3792 2629 -1211 -6972 -5174 -2870 -3170 -6162 -2425 5343 4678 -6455 -1601 1103 -683 6386 3387 451 -858 -3210 -2713 2155 3034
2105 883 -2619 1924 1632 -7517 3582 -9403 -2614 1595 -5299 8764 3386 5993 10098 -3044 -177 1917 1340 1778 6149 -2863 3369 -2953 3865 -4696 8436 -7388 3171 -898
-2636 5245 -4104 -3112 -4018 -1431 944 7630 -5744 384 1156 -1711 -136 2539 -3471 -4880 887 -1105 -1514 -2539 -3042 -6536 -1538 -3447 3068 549 -8090 1432 288 -3996
-3111 4175 4524 -4836 1112 5575 -1489 -3240 3669 -3726 513 3674 -8253 -432 -1161 -1958 4207 -6742 494 -207 1896 3564 1620 2484 3213 618 7087 9054 -3477 -2289
999 -3810 191 3878 -668 408 -3826 -2400 7491 2219 2962 -1532 6893 21 -1344 -5255 -1972 -4874 -5625 -7397 -12052 -7359 4765 695 -7683 2842 -5681 1193 6911 763
5663 -1117 6355 1815 -3046 -490 2667 -6491 -1381 -1492 2380 -18 5414 -7414 1295 505 216 -3007 -2468 3574 7392 -1047 833 6748 8865 935 6785 -8018 2750 1169
3258 -1592 -2404 983 -2859 -918 117 420 -1607 -7935 878 -4723 3749 192 3594 -4734 1942 665 -879 1379 3485 153 5502 294 2162 1997 -6279 2163 -2959 -1074
219 -439 -5582 -7 1769 1195 -617 -8381 -642 -2021 -9427 1132 -458 3700 -1599 -1535 -385 694 -3006 -2234 -360 4517 -2610 -5522 -3922 4532 1442 -1874 -2544 -4799
2149 -333 8968 4726 -2360 -3423 5368 -3045 2983 -3209 -981 -1345 -1809 -862 -1857 -2623 -2369 -8704 3031 -4804 630 3018 5718 956 3878 2220 -4717 -1618 3316 5925
3377 -2279 5831 1726 2721 -2004 6667 -3310 4990 2562 1386 -4515 108 1369 195 4738 993 -462 -824 -1536 -7815 -11582 -8773 10214 2691 -5649 -424 -220 1935 2113
827 -127 -6715 -8626 2553 1537 -872 -7612 -9120 -4331 2080 -494 6855 1766 -535 140 -1742 -432 -916 -1125 2436 1140 511 1389 5199 -480 -1441 1615 5890 -76
-1503 -6065 3649 -1030 5894 3482 -1380 2268 7881 3582 6 -580 -1552 3855 5136 -907 -6108 582 -3385 5988 2931 -3050 -1287 4253 -679 4366 -2710 42 -4984 2429
1266 4492 -1605 715 8130 6733 2388 -4172 5206 6727 3664 2479 -631 2055 -4566 -1494 -5429 -5827 -4346 2369 3811 283 -5806 -6840 -3091 -4016 4589 1422 597 -2015
1811 5113 -2250 3604 -3539 1031 -960 -2199 -833 -10672 2994 -2367 1700 -1726 -5927 -4378 8549 6910 4675 4701 1296 5865 -4111 5063 3837 1129 3624 376 -1020 -2714
-740 984 3830 5993 3411 -622 640 887 3608 2074 -4703 2635 -2743 -4850 6110 2397 -1302 1955 3622 -590 -5 -5815 5058 -6978 -3531 -4225 -1270 1034 -4869 -5065
-2506 -2100 1462 4416 -2649 5483 -550 -4160 665 7332 3183 -5783 -1451 2617 1065 -3481 3276 -8523 -5269 3421 4261 2032 5716 6090 -4981 1480 941 -23 2168 2318
4168 5332 -3475 5165 5586 1082 3787 6404 2806 112 -1909 -1372 4511 1864 -7689 -2710 -2047 3440 90 -6228 4782 3386 706 4240 515 -1369 -2815 -6745 -5757 1773
-1437 -3352 -2127 -455 3900 -3977 -7783 -3552 -6905 532 3405 -4115 -7596 -2581 769 3751 1369 3101 2974 -2626 -4144 2158 1066 4505 -2128 -4221 -544 2928 -4679 -5544
-1749 1873 1717 2647 -3640 2640 352 -3524 -4669 418 -2937 2363 5350 -7612 -405 -279 2230 2653 -4783 -3449 -1095 2207 -2573 -3817 -3778 3752 -4080 -1807 3353 579
-4096 1299 -6237 -1749 -871 -4234 -8912 -2751 4470 -370 6478 -3221 1545 7243 1559 4574 4255 -2535 -11983 238 -3859 -1395 -667 2141 -2397 1102 6265 -284 2888 -854
2544 -1914 4473 1500 -1767 10198 4150 1599 4783 4446 252 846 -489 -5255 7243 -2357 -20 3902 -152 6309 -5686 -669 -2955 -6548 1366 -2550 494 -10898 -5142 -1543
4735 1356 972 -2196 -2599 -3688 636 -1345 -7822 421 -3629 -1447 152 -6515 -50 1632 -1623 12002 268 6204 -1001 4404 -1759 -56 1226 2888 -623 -8203 -298 -1043
-2100 1374 -9360 -6722 -1102 -305 -2299 5084 -4824 465 44 -625 -977 -1232 -4594 615 2148 -5807 -3715 -1766 -3254 -3428 -4670 1129 61 4968 2891 -202 -402 -1195
802 10026 4386 -2752 -2763 -574 5974 -7129 7998 -717 3779 183 1977 -1358 -2230 -1222 736 4136 2491 2198 3060 2834 -620 -5165 -5380 -1880 -5203 -232 3147 1533
7396 1995 678 7850 588 1471 1195 -5155 1491 4712 1607 3589 -6544 4625 254 -1701 -5292 1631 1021 -2854 902 -1357 -3119 -485 2282 2485 371 6427 2800 -4509
951 173 5776 -1843 -1188 1366 1489 7031 -4557 3163 -5421 -11570 483 5269 1553 6562 -4858 420 -5294 -1670 -8889 -6744 1357 -3713 550 8119 -2083 -5102 -2975 -1216
1351 112 1401 -1752 -1324 870 -1819 1988 -2887 -6918 1345 8755 4994 3858 -463 -3011 4868 4523 -496 4315 3525 5988 5132 4207 1858 3843 1003 -3254 2507 2292
1727 1772 -6285 1372 350 -4121 637 6262 4177 393 -1191 -607 -5613 -3111 1336 4405 -1919 -8830 1130 -1667 -3841 1503 -2710 -1128 821 -3600 3639 770 1513 -163
2136 1836 1748 -6663 -1542 6215 2902 -2175 7762 -3768 -6154 -6341 -3848 -99 -4017 8984 236 5915 -4716 4702 -6086 8789 -445 368 -3988 -4616 -3645 977 1992 3034
-797 2896 -81 -1588 -5361 4877 4758 -9670 -4714 -3628 358 2780 2466 -688 -6733 -10531 -3386 3287 9068 5020 -5719 -2304 -1217 -4803 2124 3281 -4234 2233 3146 -4315
2144 -10005 -1503 -2488 -1512 7341 -8141 -1456 -2979 853 725 2211 605 -4946 -2706 3482 714 -84 -4437 -1724 -1664 2416 2727 1389 -2967 -1369 -773 -1822 1094 892
342 -2625 -3601 228 160 -907 3051 -6251 3980 5137 -1280 -528 415 -1589 -5209 -3290 -3021 -409 -5759 -1803 -148 -6025 -1269 2381 -5710 -959 -7514 1386 -641 2758
1227 -2159 2135 678 2578 -2233 -1354 11 1125 -2069 951 -3271 2507 1947 -374 -7476 -193 -786 -4246 -6409 -2300 -5413 2430 1531 2278 -1035 740 -1146 -102 -71
-1679 2248 2165 -2139 2744 -2623 -230 -1404 -3084 5311 -933 -4607 -4988 4014 519 4380 70 -2189 -2427 5653 5640 -1039 389 2786 5552 -413 -4425 -1046 386 -4245
-2836 -609 2050 1113 -1897 -403 5574 -1481 124 1021 2815 2723 -288 1879 -1540 -1013 1406 457 -8499 -3671 972 428 5189 -4035 -1540 4699 -1862 7521 253 -192
-2843 1322 1774 -4363 -84 -5848 6014 -4717 -2620 3944 834 5355 582 2895 -4888 901 -4603 4367 -8920 3750 875 -1884 -2843 3934 -3234 -469 -1835 4555 -2052 4343
1470 -1810 7359 6310 -1280 -5974 9144 4900 -4601 -2713 -1639 2395 -2078 400 -5794 -1696 4307 3869 2648 -2281 1128 -3201 4884 3132 1501 -3397 1532 1287 3141 -2537
-2497 6468 -1336 1959 2236 -2123 -4229 -4085 3269 1599 -4933 2634 4739 -3371 3672 -2826 2943 -2891 -5232 254 98 1591 3272 -2216 448 -2359 -3144 5972 2995 -4778
-923 1969 -1526 602 -9296 -4072 3534 -2986 3424 -744 -8793 4594 -2114 -1017 3330 -6958 6301 -3947 3624 4324 -376 4189 1868 -1056 3134 614 -2834 1826 1272 -1676
-549 3392 191 6314 2512 114 5507 -2299 4460 -421 -1594 -2426 -1253 -5281 354 -254 3251 -6448 8410 3875 -2843 -795 -2191 9000 9933 -3255 -3286 2892 -363 6963
3923 -1801 -163 1392 4784 5235 1832 -6152 -511 -3295 -2722 2304 -8306 -1352 222 2363 1193 1395 -2719 2879 4160 3313 -4791 -1087 -2661 4322 -1 2638 4727 -1089
-1660 4120 -3557 3050 1447 -2563 -3516 1621 2685 -2647 1458 -9167 2225 -4718 576 1868 -3262 -4483 7150 -2545 6760 -6784 8827 -1050 1868 9386 3082 3956 -3065 1038
5055 -859 -2173 4411 5456 -2748 -8293 -2276 9264 5048 1525 -3343 -6008 6560 -1789 -347 8973 -1874 5088 1768 1000 -948 -7572 2371 7586 -1505 976 862 145 -1971
-1656 -1029 160 -9056 -1262 -2120 -2949 -222 5621 -4889 2379 -5080 8007 8289 -5559 -4034 2378 6998 3158 2564 -422 5118 6101 7795 2951 9912 937 2653 2909 -2883
-4586 -964 2297 2323 3871 6020 5831 1047 1058 -13309 -3549 1513 832 6293 7678 -86 -4228 -969 1599 985 -3132 2838 4234 3248 1227 -4261 7512 427 -503 2103
-3204 -1661 -4599 6124 3499 -3827 7243 -2457 5924 2242 -261 -4808 -2633 7491 382 -1551 -151 399 1053 -1726 2276 2350 6074 -1918 -1291 -4975 5818 9013 -3199 -2145
2207 928 923 943 288 -1010 991 1177 -3441 -899 -4919 5339 3449 -234 -5707 -3716 8549 2420 -8283 4515 1184 -2097 1529 -75 -2656 -9337 -1657 -3176 1804 2329
3182 -1383 -7188 5675 2788 2260 -4566 -2043 -10 -3931 -1234 -5827 9 -200 4417 -3224 3043 978 -2588 1021 2122 1185 403 -3281 1834 -2710 -100 6969 -7101 -847
5657 1384 2108 -3812 2654 2783 2015 3010 -1470 3005 156 4465 -2537 -1143 -2783 886 3670 1538 -891 584 3640 -7382 -355 -506 -1436 1982 -121 486 -3822 214
-3629 227 -2055 -1178 3947 -3057 4076 5465 3366 4488 1657 -126 -5643 -6675 1054 7101 485 2357 -426 -7155 -1747 -688 4919 -771 1942 1299 -1171 7753 -2938 98
148 -196 1558 -1237 3702 6672 4116 -3844 32 -637 1227 -2016 371 1105 2448 -876 -79 5197 1898 4362 -1578 -3641 -122 4860 -3618 -2271 -2085 -2052 -648 -2979
-1424 -3335 -2706 537 -4748 -826 3003 634 -3112 -3778 304 3595 4321 -2880 6517 -26 -5713 140 5394 382 1213 -1493 1388 796 -1837 -2097 -1027 -3115 -3744 -3678
-5118 1271 -3603 721 -2004 885 2184 1101 233 -2230 534 2175 2782 -2013 6806 -8128 -7919 4521 1935 1014 -2070 -2774 3362 4107 -4277 3992 -1975 -4012 903 -6619
2510 11133 -74 89 -5921 -319 -1075 1493 -2539 6979 -2011 3126 456 1288 -4552 974 -1583 -5634 664 2623 -780 -3634 4623 1924 -7244 -3476 -686 -5118 3296 -2164
776 -3877 2056 -6221 -1363 -1719 -4753 -6072 -4615 4923 -2536 -2427 2969 -1120 -3452 1602 -153 2278 4427 5101 -1264 2751 -1700 336 -7269 -3326 3230 -1909 1089 -5099
-1491 -5823 2075 80 -11043 -1597 1250 -710 -5127 3415 -8883 -3081 4702 3258 -3378 221 -814 1303 703 -1943 2346 6561 -5736 7791 -3182 -1627 3914 -4630 2967 -1234
370 -894 2058 -5007 -4754 48 -3779 3171 -6312 -2517 4664 -2094 -1452 2035 -1686 -2524 3848 1679 -2611 -598 -838 -1782 -3870 -3146 6589 4014 3040 -1041 1880 -1508
2296 -2763 3904 972 -6534 3422 -209 3067 -2922 -540 2369 -70 442 2149 1195 -2857 -2312 2610 5284 625 2210 3597 -1804 7181 2809 638 4881 5339 -5902 3436
3927 3142 -2560 -2840 4317 -3216 -3552 3168 3767 -10933 4005 2437 3769 -5986 -6949 -3779 -2577 -3 335 -354 -5979 3816 -2871 3757 -1599 -4696 -4701 4411 -4162 -6215
-6401 -1669 6137 -5182 -1271 -4132 -5975 -197 -955 -697 -3140 1593 1722 -1033 -4468 -5019 -3524 -2020 929 2142 -4705 3900 4057 5189 1448 10005 -1741 -6153 -1862 840
-3729 562 -5723 2253 -1993 -2262 -2095 -1376 -1990 2349 2879 268 -8632 -6429 539 4259 -4086 -3782 -7103 2642 -7027 2844 7843 -424 -270 -1077 551 -437 6033 -2414
-2270 3045 1578 1834 -1125 -1290 -3299 -2375 -910 4026 28 -878 179 -7 87 5503 5552 -2002 -5610 -6731 1060 6497 -1335 -1271 6880 -2583 1843 -4418 1674 -1311
4802 3650 2491 630 -8925 -153 -2859 -1318 3161 4715 -737 -13 -4584 4230 -2852 -418 -3538 46 4039 2655 -236 2368 -7090 3723 2521 2654 4220 -2745 -6105 1899
-437 2446 2453 4367 -1740 653 -2142 4283 -2635 3955 -5688 -1738 6569 827 -937 2028 -990 -3644 -4520 2291 2873 122 -1242 1810 -372 -1433 -7332 7660 1417 -1559
-3140 3287 405 334 2634 4169 -525 3372 -1306 2676 3481 -4820 -2108 -5616 -2279 7456 -3459 -2498 -1585 -1701 -3866 2651 5000 1869 -203 3152 8600 -3569 -4669 3906
4491 -3409 1990 10118 -4624 5531 -2195 -541 4560 2155 -2504 1943 -3678 2286 5001 2792 713 -3334 4271 -1677 5157 -1206 -5365 694 8693 -2564 -5127 -388 -492 -2740
-3662 2501 3483 1399 -528 839 -372 -345 -4775 -6222 4430 1825 4151 166 630 -938 1318 2728 -1600 8676 2620 1133 -1814 1754 1900 3456 4186 6694 -7509 -4883
1019 3639 -2942 -2200 5499 -1192 -3059 -370 -1855 -2576 -86 2674 505 2724 -5067 -4251 1052 3682 4586 2986 -1867 5155 -3456 807 -7115 -2346 -3542 -2199 -5764 2317
3422 -1419 -4968 8427 3726 -38 2336 21 -4838 5302 -2612 2700 -2862 -2036 -6522 2003 489 -6325 2138 -1089 -1591 -21 5194 4528 800 1405 -4701 6368 3923 -4098
-2107 -2377 4314 -460 -2500 -71 -2233 -1257 763 -695 4023 2411 2191 -3471 1206 1656 315 -7418 3018 1641 -720 736 -4073 -2181 -2395 1222 3034 -1518 -7911 -2702
2205 1749 571 -5820 5310 4077 -13279 -8945 8073 4550 2624 -3354 -5718 -3216 2080 -2684 -2689 3619 3412 6255 3212 2658 1485 -1180 3604 6074 2521 -743 248 2655
2512 -5707 4331 -1951 -10741 329 -5570 2374 8735 -823 -5853 3927 3499 1091 -3376 -1525 -551 2997 1760 -1230 3988 -298 -658 540 580 -1510 -2585 -2744 -4773 -1764
2696 -945 202 -1603 1075 -3984 1528 7667 3928 -5 463 359 -1192 6769 3226 -1806 -728 2891 -4384 -2383 -3214 7504 1647 -2477 -2515 -1529 -760 4217 43 2846
670 -3488 -4914 6801 -4260 1593 2268 3690 4454 3312 3637 -7720 -6914 -5482 -3508 -6521 2579 3610 -138 -306 -5111 -2159 587 -5395 4766 240 -3898 -972 3862 -1583
649 11379 268 9783 720 4150 -47 9055 1183 7193 1471 -2997 1312 -125 -1463 -114 -2912 -5109 4378 -761 5297 1572 7393 1130 -1848 1101 5129 -7180 3151 -2051
-457 -5591 5926 3045 -155 527 -1812 1910 1288 463 157 -3336 -7277 -1797 4156 1250 -3266 3058 -7657 -2401 1362 -566 -3719 2832 -1271 364 5213 -3661 -4972 2757
2297 1969 -2967 -1497 6047 7742 3576 5289 5053 -594 3259 1434 -2937 -1665 -2685 6480 3804 -2650 2098 1330 220 2390 5018 12434 4531 340 1853 -1378 -1054 -2386
1076 -5813 1161 3673 -3599 -7029 -3965 5580 3020 3142 959 1016 960 -329 -12318 -731 -4987 -4173 4826 -3814 2077 -5019 7502 5832 1319 3131 -1167 -2092 1761 3397
-3248 -1069 -6442 262 1223 4648 4381 -319 -10373 -4092 -3216 -4867 -3177 -1132 -4001 5476 -1300 -3771 -1670 1778 -9478 -1297 -2608 -1513 -4918 -1537 5052 -5428 4936 5079
-7547 -1732 -4355 4558 -2019 4970 2948 4231 -475 -2748 -550 6903 5581 1132 14957 4649 249 3313 -6508 -3176 -2067 9913 2606 1922 -192 394 2906 -578 7045 -891
1445 -2960 -820 5443 5612 6546 -1367 -912 -3819 3596 -6598 4288 3203 -381 3257 -3673 1005 2968 261 46 -816 1524 1120 3145 4534 -2784 -5607 -3735 3416 199
6276 -3028 991 5628 -3451 1942 -3252 7179 -508 1989 8142 -2816 -4300 859 -1934 1932 2870 738 1807 1493 -2711 -2510 1642 -67 436 3806 -1674 -462 -2361 5539
3913 4781 -4558 4099 -14078 -5401 1670 3129 2396 -468 1920 -3849 -3935 6238 1566 -5194 1017 8083 -2301 636 -466 -2649 11432 -1391 685 -3545 247 6741 -3837 -682
-1000 -21 2484 3753 472 2098 932 936 1713 535 -2026 1612 -3166 -633 2075 2437 8577 2623 -134 5700 -9730 4280 1123 -5987 1581 3653 -614 880 1209 1192
3516 3478 1265 -4547 2374 -405 1001 -4954 -5808 5589 -1655 3049 -614 -3613 -9548 -2258 3009 -2299 2374 -292 1091 1413 974 2536 7809 7316 505 1627 3887 4092
3404 3937 9729 -1284 -7902 4351 -2892 -1151 1649 -770 -1264 -1839 4628 5575 -4946 6793 1143 -3547 -1786 -8864 -2545 -6578 -2839 5444 -2456 -1132 531 3189 -8588 285
-387 1636 -207 -5204 -1593 -2490 -4674 -5502 -3 888 -835 -1036 2834 -2360 3193 568 -1214 482 -531 1576 3124 4658 -2427 338 2829 1204 3132 -2545 -4702 -4727
433 -1549 -6674 293 -3089 1466 3391 -766 1027 -4653 -897 1536 -3093 1131 3742 -9137 238 -8287 2235 229 1805 70 1339 1451 5350 3151 460 2773 4556 -3029
-2785 6661 -2565 2036 -1866 -2457 2280 5065 236 -5488 222 -3710 739 -6462 1780 -5756 9656 877 -731 -2238 2263 1466 -1776 -541 -2366 4053 2350 -1915 -9597 3097
-6003 -2216 -2790 -819 1254 -4270 -371 -1823 -9 -5250 1111 1670 3275 -162 -3393 -9042 2367 -9028 5851 -2036 3002 -1695 2507 131 3506 1349 -1992 -190 -1643 2583
-7148 7640 -882 4045 -4725 -1733 5560 -6087 2215 909 -2307 -5130 1028 4215 6634 6257 -3704 -949 -1840 -1687 -8477 -1794 -388 3329 45 277 8907 3658 4896 2596
973 2480 631 6155 198 3281 1748 -712 2041 1584 7632 -1501 -3567 3705 1303 2387 -3819 7718 2856 857 10956 5866 -1942 4725 -2951 -5537 390 3433 -6262 -2693
1270 4359 1574 -3560 3338 708 2884 5220 -3536 2771 -7563 96 -3118 -1246 2307 4088 -5292 1551 -3462 -1150 2702 -4774 -4276 4009 1619 -459 332 2282 -6336 5389
-4320 -869 -1404 3091 2372 -4834 1884 -92 -822 -5040 5700 -2081 3281 -751 -4973 4996 -7929 5007 -468 2633 2041 760 -6193 2848 2721 1740 116 4793 -1238 7917
-1730 -4265 -3147 -5468 748 4440 -3437 -845 -3519 918 -254 2763 2468 -626 -7470 -3151 6804 -4077 -724 1258 -3467 -4145 2182 -4223 1887 -3465 2814 2358 -2598 -1834
-1259 2686 -6785 2028 1181 -2437 -5167 -1584 3885 4175 4576 -3678 -3481 -1432 10218 6217 1478 6674 4497 -6917 -3139 4030 -374 1636 -10164 -5776 -128 -5775 2927 -3624
-4832 1667 8896 -7867 -2244 266 -1029 7647 -3511 3410 -864 5867 1290 -4414 5421 -9301 6331 322 3627 3056 -1162 -5956 320 3077 6269 -1539 3503 6837 4064 3917
-2124 1593 374 -120 3154 3546 1439 1280 -12420 -2354 2012 9591 4106 -1456 -1380 2706 -737 1284 -8988 7421 -7789 -4345 -4859 8270 -2316 3104 143 1067 -4163 -240
1656 -3414 -1820 3086 -6069 -4676 -1247 577 10100 6857 -1476 3398 4795 -2205 -2123 -2541 2169 3648 -827 -1885 11855 1859 -471 -8590 -7230 -1709 352 -2895 5392 -1140
-562 8396 -3791 3342 4094 3922 9211 3815 -1113 -6713 -8159 2768 -3338 -3100 -5284 2200 615 -1901 1685 -5457 -5273 -2996 1182 -4879 2246 4584 -4369 -187 -999 -6760
-4635 -893 4036 2171 -901 -1648 -8115 -4516 -2392 4433 -807 -4499 -1494 -2327 1825 -6944 -90 5649 10512 2518 732 6287 -1198 -5163 -1507 6384 2592 -3857 2330 -1766
-3477 10107 -5187 -3393 -264 -3381 558 -8898 8508 2638 -946 -2736 -4580 7985 949 2312 -5806 -314 -1881 -7489 -5547 -1164 2953 1209 -988 -1726 3409 -1638 -5834 -3535
186 -51 1875 -7176 213 -4254 -1058 -3432 -1770 4249 -2815 -282 7580 -408 625 1241 -587 -3168 2588 -4588 -1004 -2252 -8251 2083 -4210 5569 -1006 5472 4991 1477
1176 75 -277 3853 5633 2083 -6371 3825 -1371 1743 -3248 6192 -4567 -386 -266 -4940 -52 82 -2892 -7834 -788 -2738 1428 -5475 1489 3499 -4264 2798 -2454 7844
954 500 5765 5089 3559 -215 4061 3678 -4226 -1345 -3019 2379 51 277 -2650 -3675 -320 -4522 2112 -8184 1795 842 6637 -8561 1883 -883 -861 -3932 214 -2099
4758 -1267 -1091 -823 -5258 -9567 -6373 -132 -2073 273 -8287 -5090 -4713 -5257 -8101 9968 -3182 5346 3552 516 -971 237 -6524 -5109 -1085 -121 11633 723 -4616 -5605
-4791 -2795 243 -1705 7127 3879 2543 1430 4374 8097 3314 1206 -962 1405 1982 1529 7110 -3828 -3081 11 1553 -1204 6318 1769 -6337 5885 -3826 9489 703 -2140
934 -2249 2127 -2532 4704 -444 2444 4710 9794 -3067 4487 -11674 -4977 1070 -2394 -2458 -2441 4734 -335 -317 -4917 525 2509 532 1237 -4411 4695 58 -486 4262
2135 -1260 882 3903 10542 5843 10903 1285 1867 -5817 8766 -51 2818 4125 -4898 -1591 -13057 -5496 -4022 -7441 -3525 -1034 499 8028 3062 2502 -2323 3759 1891 -561
-1969 5170 -2764 -4724 -2815 -9199 -1361 2075 -3048 423 6084 365 4580 -1519 9221 6668 3064 902 -4053 -999 2794 4176 291 2906 3447 -2863 809 -6145 -5457 3221
1427 1845 -415 -908 7763 149 -8691 -2716 -600 -5401 -2175 2207 1012 3287 -2493 -2577 3122 1825 809 306 11432 3273 3084 672 3544 4460 -2115 5189 2915 -943
4671 9121 -2994 -5339 -10391 -7122 -13809 -9526 -4354 5872 -1443 3240 -1493 1175 -687 -3167 296 990 6235 -6917 -6550 -2204 -419 3433 -9084 -333 -522 4636 -342 3225
-3943 1315 2358 1071 -4530 242 4924 -5162 1253 -7707 -4390 -1800 -3074 3775 6626 1617 1564 -2145 -2739 -152 1870 8524 6647 9329 2514 389 3546 468 -6465 2417
-1271 -4222 5474 2964 -162 1563 3501 -481 -933 -1337 795 -7728 3882 -133 -666 353 -2127 -2516 -606 -1792 -370 274 -5312 5153 -4194 1694 -2046 -503 3216 -3035
57 2282 -9538 3673 -7042 5054 -5136 1049 -2447 821 6522 -3386 5306 -6676 -5207 -6848 2752 3397 -3495 2396 3424 6509 1256 -1345 -374 44 604 -4858 6324 -844
-9112 7069 -1255 6863 -711 -7102 -2488 -897 4266 -2911 -3828 2137 -192 467 2734 -4550 2380 2700 1733 -7289 3499 -6616 2426 -3678 -1177 231 5615 -6512 8926 5168
483 -480 1037 -2103 2157 -1201 2167 -2166 1632 -1219 3158 -8246 7246 -6608 -1692 3179 -2578 -837 -2580 2725 540 5155 2190 105 -5304 -6344 -2420 -27 -1976 1112
-2740 1848 1135 2443 -2399 -4275 487 1977 -4745 3382 -184 6707 2957 2867 2207 -4499 142 2708 -569 643 12 -1587 4182 5628 -3419 -1587 -894 -5018 1436 -4656
403 -1584 5946 -3633 -2773 -4270 3063 1354 1284 -1397 2914 -5498 -4223 -361 3621 -1922 1301 -2536 4511 -1232 4004 -4209 -3303 2307 -2518 -2588 1791 2162 -3126 3213
-448 5231 2559 788 -1523 -4818 5047 6775 -8840 1785 -1968 1386 -709 -4226 -3452 35 5086 -2329 -6442 -5137 -2322 -2496 2491 -7693 819 -4538 -7480 1733 -380 1299
2539 3723 -1627 953 844 896 4452 2606 3383 3573 -4126 -2100 7895 5265 2877 -1524 3019 -1554 -431 -2763 -2815 373 -3788 -191 -2373 1375 -10389 3651 6419 2084
-333 195 632 6736 1647 6395 3927 -5122 7564 6306 5481 -4082 -1993 4976 8713 1576 3598 1017 -864 2552 4602 2603 -3988 -5322 1699 -3486 2721 196 -2429 -6675
-1298 960 1974 -3928 -879 -4260 1139 568 -3270 258 -2866 398 -3301 -4458 1902 2859 412 5178 2391 789 6624 2505 -1685 -56 7372 -3967 -4762 -3894 4411 1075
989 -4731 -2193 423 5560 -1414 -197 7165 -1336 -2562 5374 1638 -5302 2463 163 2067 -2799 7935 9257 -2814 -3924 -5896 -3917 5741 -5337 -3355 8202 3187 -10371 3786
-4483 -1446 -4870 2293 4631 685 -1681 2041 5362 3564 312 7734 4998 -1144 -1383 -1991 -3175 -720 6857 5097 8270 3520 -5566 3102 -1210 14 -7326 4573 3096 2047
598 -4911 3673 -2102 5597 8345 -3604 2095 5560 -3417 1916 -5301 2615 -1457 -3466 -1240 -3572 8870 -542 -1432 -4269 -969 -3566 -5870 4814 -1632 -1366 -4683 -547 -4391
-1029 -7227 2392 -1712 -4215 1633 -4955 -84 6179 6085 3921 -2364 -2508 8428 3290 -8132 2443 5465 6356 -1595 -562 2214 693 -1412 -187 -3970 6343 -3074 -3437 3327
-3787 -423 1170 -3098 -1695 973 -2710 1774 290 1233 5846 -1039 -696 -2601 -890 4054 -1591 196 485 1053 -63 1053 426 -6932 788 8430 3527 -121 972 -1961
-4810 -3438 6389 -1921 -1289 2278 -1548 -1168 1549 2428 4931 2155 4453 -665 1063 6010 -10097 -1311 1715 2633 5865 1867 -2595 -6353 -6912 -3923 2370 -4728 -698 -2301
3440 -4954 5174 2154 -1758 -3256 -649 119 -1654 2258 324 -5916 -4930 5438 -878 2579 -8139 -167 -140 613 -3087 1018 2276 -3789 -5805 -62 -6037 -1754 -1837 -1842
564 -112 6117 -1074 2711 233 -1679 -4808 -3068 -5941 4897 -536 -3526 7264 -1278 1817 3880 4926 7329 954 1231 2833 -978 4575 334 420 -923 494 1516 -822
-5899 7562 -916 -1877 -38 -3979 2761 -4906 -712 3109 275 -46 1668 -581 -798 1989 2312 -1060 -3326 -902 -6796 7737 3958 148 -4014 1505 -3302 -2499 3209 -2265
122 -7223 -6618 -55 -9425 -1885 4300 -3753 902 -4419 -799 391 -5406 -42 2396 678 2126 -4318 -5131 -418 3296 1975 3164 4761 1389 -7397 -1700 560 -3828 3683
1523 1407 -1017 -989 1272 1532 1073 6198 -5207 -4360 1535 2745 -4114 -2077 148 3145 1401 -6142 -11303 6457 -2987 251 -7125 5109 -6 1673 2 -1011 11623 5964
485 -5990 3003 -4027 -191 5095 5469 -2269 4422 -495 1647 7563 3880 -9223 -3345 -2677 2396 -3080 -539 -2686 5105 -3943 1282 234 3387 4776 -5215 3684 818 -1503
3405 3768 -2266 -12846 -2604 -2021 3321 -557 -3973 -2619 236 -663 2706 5859 99 -1775 -1141 475 2684 471 -111 -344 -4818 -608 6101 -1242 -1539 -8636 -5032 3384
5378 -4065 590 865 -2595 3141 1289 -2671 -1715 -6207 -3015 6745 3688 9637 5131 706 -4488 -3531 2689 -1878 -7782 -1460 -118 -105 -120 -699 -1567 3250 2788 -5393
-2901 -1698 -2661 3436 -2057 3801 5340 4370 -821 4045 2189 4650 1302 -1450 5372 -2683 -686 -3477 3022 2044 -2146 4046 -2825 901 -1596 -3372 -7276 -77 -1220 -2293
1326 776 -378 -2737 1831 -56 1480 1600 -1408 -9393 -1530 -2358 2396 6186 -5349 1379 -6640 1300 2433 921 454 -223 2777 3390 -2504 7456 -7189 4498 -902 -532
75 947 -71 -5081 4416 81 1975 -9276 1942 -4331 43 1569 4677 1730 2844 1918 -6769 -4260 1485 2170 1973 788 936 -6744 1623 5306 -2901 -2672 157 1227
-125 -9257 3453 -40 -2902 -7795 -1283 1875 2194 7002 2475 1125 1966 2579 2033 993 -4113 2189 1903 5059 5750 2428 1382 670 2465 2609 2156 27 -4040 -3118
3839 -983 -5441 2123 2516 3909 -3886 3881 -1292 4983 2348 -1972 -2274 -4684 -850 -6892 8157 -5976 -3154 -580 -744 -7736 -6105 1929 3358 -7492 5771 81 5262 -2562
-493 -4394 41 1279 6725 6170 4413 3090 -2602 -1725 114 336 3445 -452 -4569 -7012 2471 196 2083 2812 -7932 5378 -2117 -2586 2519 -874 345 -2321 -1881 152
-2442 1455 248 -5849 5549 3681 3710 -5226 -2812 -24 -2843 -4908 1402 2873 -1714 -3252 1571 3196 2029 -1190 5626 8808 3647 -1736 6240 -1534 3859 2559 -5560 3653
-1250 2150 -1335 -737 -592 -952 710 -7352 5275 4030 5864 -2583 -1285 2872 -7616 613 -5695 -4141 -3374 697 1154 791 -7299 3834 -4168 -1396 -19 3543 -7307 -1526
1430 3092 -6302 -3216 728 2861 49 1887 -1345 -4867 -254 -3295 2532 -14 107 5470 -1566 -4156 -1862 -724 899 -2977 2476 2805 -628 -747 3617 3515 342 1669
140 40 2647 1026 3234 911 932 6668 795 -2040 -64 1609 -871 -492 3805 4253 2213 -7370 397 -4839 -4170 1397 2364 -502 -5344 -5387 -450 3227 -4333 -620
203 -1809 -794 885 -3436 -301 6007 -1159 -336 -2782 -6121 748 111 6712 -1213 6363 -1101 -1743 2488 1205 -1755 -2493 -2220 1899 2979 -2658 -116 1321 -2662 4808
-832 152 -409 2631 2430 671 154 715 516 98 1520 -1067 6426 -5096 -6473 3660 5275 10236 -709 -1799 42 -308 7258 -1951 4549 -2621 1700 -2596 -2476 3406
2281 -698 -4778 3852 -6229 5312 3061 -7788 -5277 4282 6823 -6458 4281 524 -9330 -47 4095 3159 -4849 837 -2660 -2052 7964 -1612 2288 -634 -2791 -2718 5826 -916
157 -1527 -57 -6747 -5837 3711 -1856 6704 -3515 2877 312 -2914 9492 1395 4623 -8744 6248 -5140 6216 -2846 1535 5557 -150 961 -4657 976 -3269 809 1746 -1187
876 3291 -3130 1545 -4836 2590 4103 1203 3993 -999 -2126 3294 -3037 5836 -798 -4449 -9130 -5827 -1471 226 -212 -3067 -1771 2228 1477 4089 -5982 -1845 5465 1170
-5141 -2369 1265 2506 -7783 -1641 8725 -6426 4856 -4881 -1837 -472 -132 -39 -468 -1317 3457 -2650 -5277 -5912 -4464 -3385 8493 1999 2985 2313 -617 -828 9975 -824
4411 -1224 -4553 3427 -3311 -4785 -1115 -3917 4911 -1269 88 2422 2835 3108 1714 470 9678 4239 -1912 -2643 628 -4689 -2911 5565 -5010 -110 4536 -5468 -3523 -2192
1221 589 -2216 2000 1336 88 2656 -1699 756 -1487 4988 -4138 5507 -272 -6225 4147 -681 -1644 -408 5230 -2714 4657 1709 -1608 -6695 8754 -747 5140 -3944 -2545
-2189 -5903 -52 3349 1116 -5160 3338 3875 -2920 -5845 -172 -4507 3376 -5108 1354 -976 1122 1455 -5340 4054 3669 4034 40 7866 -7520 1672 -2853 2410 -443 1456
1085 873 4330 715 -4091 161 2336 -1138 3902 2686 520 -3420 -1256 2568 403 -5540 4321 -3317 690 -5606 -1158 -1116 -152 -3596 3662 1298 1470 1235 -2044 -4991
-6992 4311 3022 -4703 -179 -1456 -1458 -1312 -2954 4520 -4853 3051 6730 -4350 565 1461 4305 -9437 -7749 4269 -5916 5771 4863 -8335 2422 694 -7298 -2433 3355 -233
-386 5830 10 8701 1428 -6422 2014 -1213 -449 10896 -3226 2209 5092 -674 6016 -5539 7214 -4953 1488 1993 -5188 3620 -1545 -1057 7361 -5095 -1770 318 240 4245
518 -1974 1128 2248 -3525 8197 4359 -7582 -1596 -5078 1531 309 -7700 4969 -162 3962 -1946 -3577 -5591 -2788 5069 -10074 -165 -1631 5323 -8547 -5980 3829 -1711 1682
4471 -274 -2055 7580 -3729 5781 -1416 -10389 5814 -3895 4418 -483 -1409 1902 2740 4427 -4858 5275 -3214 -8195 9915 -6599 -3886 282 -4654 -646 2960 -1961 779 -3496
5975 4836 -4968 1418 5659 -2744 -3865 1189 2365 851 -133 4599 -3655 -3748 2799 -9534 8009 -2664 2487 -2055 130 -2130 -1894 -1319 7117 8366 -1309 3660 -934 -2212
260 -4596 -159 -1308 344 3720 -8057 2953 7263 -6734 -3064 2426 630 2160 -4086 1777 7474 1526 1833 8024 -500 -1967 -2614 -387 3293 -2645 864 6998 -4025 -1173
3582 1744 -5448 855 3436 1255 155 -7151 -10352 -5279 699 2517 1034 3735 -4739 -1141 -3174 -401 3942 1011 -324 -878 -946 5917 -2334 352 2656 5932 5326 -1369
-4805 2734 -7518 -3721 1017 -3583 1894 860 -5725 -3190 -2051 -3019 -2925 -2802 1204 3520 -1452 -5161 1240 -8676 1127 -4762 -1910 1429 1248 -1528 -2039 8598 -3635 6289
96 5223 -5252 1190 -7525 102 -2468 4522 -1380 -1450 3460 -12846 1775 7793 -7253 701 -3239 -2760 1221 -5768 5621 -7205 -987 -1342 2803 -7790 1080 -5583 -2483 3443
5818 -10629 4293 -1667 -5763 8371 -441 -471 462 -2160 1060 -407 -145 5416 -790 -5083 99 3876 -3287 1155 -919 -4013 -3193 2 21 -6115 -7411 735 529 -762
1804 1759 -7638 10485 789 -905 585 -4112 -3558 6473 -4141 -3172 -2552 2483 3215 744 4720 -2637 -4415 5892 -3543 10235 -5235 4210 -7362 2583 -1028 825 -4339 3306
1839 273 -1746 -5447 4663 -1658 -5798 -161 -6946 7881 -947 -4667 2650 -1213 3867 -7817 7200 7314 -10506 2344 1953 -1029 10906 -13 -345 1852 -3740 3036 -2339 -1227
-2325 3469 613 -3664 -1001 -1040 -5264 7700 -6890 6338 5279 -7294 5958 -4839 -1516 280 -1617 4976 -2319 2836 979 -2369 -1785 -3437 -519 3815 1054 2340 -1926 -6824
-2169 5378 -5560 439 -5505 -5693 6116 -5746 5185 -1169 6435 3664 4317 2227 -3596 720 -10437 4144 5296 -473 -1032 -2357 3458 4304 -2684 6119 1066 10412 2444 -7856
-2312 -3290 -2700 -6464 -3893 1460 -3683 689 317 1688 -860 7481 -6787 4582 -1864 314 -2914 2179 668 1934 -4986 -5405 -1930 5686 -3236 9110 107 -2890 4173 -137
-4235 -1957 -694 3277 -5598 7111 2808 -2861 2873 843 -9867 829 -1007 -4064 7163 -7977 -1518 2533 -2650 3916 1334 5323 5021 -1391 -3413 1212 -3340 -1050 -4271 476
3777 4418 -4436 -770 47 -1939 -2916 -4091 -1511 6855 -302 -4030 3592 2048 -2137 4707 -94 -5953 -4332 -2047 838 -3403 2133 -6045 -5033 2281 -749 2518 2229 -279
5789 -219 -6881 2426 -3044 -2855 45 -2659 -219 -1272 -3810 -9716 809 1770 4565 1929 4459 -5630 -4275 2343 100 3258 -1115 -986 -6824 -708 9464 -4908 1269 -10614
1724 -1812 3382 1365 -6271 5288 3067 991 -3379 1384 -3857 3891 1939 4680 -625 -2821 2947 -70 1094 720 3485 827 2853 4158 -4923 -2462 1084 482 2524 -2043
1495 2117 -3403 3031 -3709 357 368 3227 3563 -5704 3324 1576 -2463 3360 640 -3436 -1657 2248 -947 -2120 3709 1768 -1675 -1081 -243 2121 -5075 2187 5061 -1498
3237 -772 2128 1891 2326 75 -813 2621 4256 929 -186 -3292 -834 -3749 1517 3314 3446 -1927 788 -5720 5042 3414 1833 -98 -2644 -1205 -3733 1979 -3035 -1588
-993 -55 124 -5589 2519 6673 -48 223 5087 -3071 -2741 -5413 -1119 2640 367 -2606 -367 4763 -7043 1757 -7323 -3614 -664 1991 -3520 -2808 -3629 9263 -1647 -248
-1733 -3507 -671 -2835 3006 4246 -3887 -4614 -3372 -46 8792 3673 420 5489 -3776 320 1833 -3952 2778 -2776 1101 5788 30 -5411 -436 -3153 7905 -550 686 -2869
-6550 -784 1501 6992 -7369 1886 1540 -1875 1715 -1826 -4606 6332 4516 -3089 -4712 1215 -3534 -1769 1616 8154 -4076 -5109 -761 6701 4549 1063 1509 -5554 -2758 6464
230 -2431 -4635 -2365 3838 1351 -2813 -1838 4592 -1485 -3596 -7444 2171 -5406 -7177 6076 716 -3267 -1148 -6090 -3376 307 -2109 2899 -798 62 -2008 7725 77 -225
2373 -610 9023 -2261 -579 1134 -2711 4136 -1465 2138 2927 -6232 -1250 9724 -6548 7032 3284 -1669 -2598 -394 1605 4020 2402 2412 673 -3951 -3620 2490 -6473 1100
-5241 -967 -842 4978 1558 869 -1599 1658 2039 -3463 3504 256 -2109 2133 -6356 -7896 -2039 -195 -791 -323 1329 4188 -295 -949 -1302 7706 167 -3195 -532 -2973
-1219 -243 -428 -2692 -1946 8654 -1587 -4832 2849 -2384 1281 366 3780 1267 934 4127 2524 -7547 -132 7580 -155 -3044 5700 2333 -1674 -1874 -2704 6591 3239 34
2509 -1624 2222 207 -4779 -505 4271 -7846 1654 4268 2879 1122 2411 -3886 33 2465 -805 962 -2662 -7614 -3920 -6130 -5912 3496 1566 558 -3819 1835 -5370 3342
2477 -2594 80 56 5115 57 -223 6906 -963 -8129 3465 -2570 2179 2064 2642 2492 3699 3594 -4246 -2499 -1759 2025 4398 -3545 4427 -1180 -4068 356 -423 48
307 1842 -3577 2144 -3745 -1437 -5856 -4933 -1093 6842 -1438 3988 432 8396 2149 1217 -4540 1119 6569 4732 -339 1348 -2255 616 -1583 -5803 -264 11314 -2543 -1613
-878 7133 3677 -9618 576 3031 209 3917 -83 -2253 -5974 2735 556 -2313 -4819 2735 -3329 -11347 -2817 -1624 6669 -3591 3541 657 85 -4735 2511 -5446 -317 275
2112 4030 -1640 -3303 -78 -1591 -5139 -911 -231 -21 -3894 -300 2264 -666 5168 2685 344 6242 6008 4333 1879 82 -4870 6217 -1470 -4602 1048 -1804 2194 1872
-6063 -4866 3046 -954 2235 8450 -2251 3753 -1175 1724 1039 2914 -872 -1260 1822 -1472 -3450 -3012 1410 4150 -8276 -5423 5309 6201 1092 2253 3356 -2071 -7260 -784
3401 -1118 714 -1465 -3942 7550 -19 698 -82 -5763 -708 -1066 3900 -3936 -4251 2910 4439 313 -1785 4527 -217 -457 -2644 -11707 -1884 -1077 2242 -5576 -4032 796
4258 3268 -906 2657 -3034 -4702 -7750 -460 -7175 5923 -3591 -3996 5417 1149 -2293 6633 -2696 -4778 3640 -3558 -3794 4010 4139 821 346 1328 7319 -2252 5029 -2520
-6718 1503 -5607 -1365 432 3332 -3011 9606 10362 -2226 3837 2952 4500 3581 -766 -2248 684 5343 677 -5904 -6059 -2076 3830 601 1427 3148 -7201 -61 -5211 338
-4651 8165 4933 -2057 -2221 583 -1002 -2762 -2754 -942 326 -3885 5020 5238 -1592 1105 -3195 1112 5725 2137 3278 57 -39 -7503 -1490 2633 11662 -4818 -2596 629
521 -9303 -1335 4665 5498 -2422 4282 -705 -3611 -924 8418 -2769 2960 2193 90 5541 -6692 2011 -3890 3084 43 -6290 2178 4069 -4470 -2884 6483 4861 4137 2840
1347 3647 -1686 7729 -7683 3230 -7883 -4058 233 -4157 -3041 7301 -2840 -7190 -187 7828 5836 -446 -7364 -2181 -2393 956 85 1932 -6952 1516 769 3024 -3224 -843
-3411 -4972 4105 2154 3048 1155 4494 -2319 2543 -3506 -2338 -4222 128 -672 -1601 -334 2681 3108 4724 1359 -7310 -4901 -1107 6926 525 -7338 3384 -5811 348 2658
-2750 -3626 -203 -1427 -1297 5857 1035 929 3510 -1746 4102 2420 -1065 -2916 -2911 329 1171 1404 2709 881 -812 500 -1053 -4482 3352 -1434 -1601 -91 -5549 -1288
-616 9114 1281 -2481 1871 7871 2913 6457 3735 332 2486 -4104 -4081 -74 -1108 -1806 -2013 2963 -65 -2651 -1831 6346 765 14 4334 2849 4674 2400 -2180 1883
-1756 -5863 3388 -1490 -2345 -908 3200 -6164 -4812 7873 -2175 7562 -1371 2177 1767 -3219 2764 -5810 -1362 -7026 -5597 2999 1221 -2889 -889 418 275 -1020 4130 1549
-763 -5568 1974 6626 957 5141 7481 -2996 945 1216 -3062 1576 1691 5121 2114 901 2312 -8494 972 3527 4077 2670 4678 -2 -2758 4439 -844 1689 -5488 -764
-834 5258 -2901 1386 -5169 -1687 -4136 4522 -6351 -8251 4144 4760 7251 4637 454 588 -2236 4951 2204 -1479 -6334 -536 2186 2631 6239 4346 3013 10581 1582 2255
202 1958 -1442 -1258 380 -6658 -6712 -2733 10978 -4492 -2060 -2532 -4390 -1195 482 -1231 -5052 54 3848 -1492 -1323 904 4627 -2416 -8921 -427 -868 1447 -6733 -5358
-1366 -4970 3664 -2361 -81 4215 -5153 -4654 1756 4154 -312 1207 11677 -1093 3023 -938 1239 4343 2197 -1621 1039 -2463 5827 4366 2788 -428 50 -4186 3069 4284
-1432 -1701 -1411 -6611 -2894 4167 5012 -1843 -4283 -715 -1686 -3001 -708 4598 -4408 -4375 -2479 -2558 -2061 -1489 -2093 -8423 2536 1978 -5226 -453 -1754 -2475 -718 131
2434 -1857 6374 -2670 -344 -698 118 1071 -286 -5863 -3383 -5015 -6485 -4224 -4608 -1520 1855 4302 -1195 -4113 631 756 -1103 3097 3905 255 1725 -2193 -261 -1113
2243 -4860 3952 -4388 5093 -3666 -4683 3243 -3799 -109 -189 -2939 -420 4480 -489 -918 -931 -2345 2954 225 1157 -4323 2323 -4309 -1552 -3385 -4802 -2659 -2381 86
-2060 9784 -647 3661 675 457 -6318 6307 5718 1014 3224 837 2133 7035 1644 6346 -3860 6105 -7169 966 -1028 2792 -4001 -2653 -769 10262 2028 -3339 -754 -2615
-4982 612 6330 -2657 -2591 -7803 -2399 -1044 4051 5933 -956 243 504 4361 1690 -4146 6369 2125 6103 -4689 -2445 -2196 -8457 -3625 -6603 8628 -1529 -10905 3051 -6819
-1277 1844 4162 5460 -1615 -893 290 -159 2941 -3979 -4124 1512 -5230 11318 325 -3451 364 -3451 -527 -1574 -734 -1795 -1025 -3148 -2514 1359 1152 3511 5297 2477
2951 2350 4831 -2820 8419 3260 1284 -671 2102 -6695 -1763 2282 -3452 3655 3364 -1655 -1221 3278 184 -6296 -2511 -3220 -1023 -2669 -6255 3868 6437 2839 -768 -1003
1485 1336 2174 3728 3248 -34 747 -9653 1550 -4131 3105 1298 -730 2949 7143 4482 9846 2771 -2930 -7669 -6864 -3889 -3828 340 -2146 5916 -2293 -2824 -6722 -810
546 -4901 3252 2743 2245 891 -6501 2666 -1817 -3055 51 -4026 6312 1611 -2906 5608 3742 5264 7093 6677 -3337 -6430 2419 -867 401 476 1448 -3769 1322 -2427
2811 -7721 4867 -2137 -408 2726 -1553 2171 -3425 -6898 1729 -4871 -3519 -4502 -4579 1421 1320 -2347 4912 4040 -11198 975 4904 -4949 -500 -7276 1957 2331 405 -3663
1011 7 -219 5676 -51 2517 7546 1050 7277 4303 -4940 646 -1464 -1280 -1238 -9453 -1205 -5983 5945 -6546 2146 -4714 3753 -1344 2259 -2334 1019 319 3496 6105
-3459 -517 -2453 -5831 -364 -6462 1146 -858 -464 -4216 2265 -483 5024 668 -7965 7063 -3885 2504 -4036 -8592 -2763 -10787 -1702 -1227 7610 -245 -751 -2773 1414 -430
2423 3818 2086 3903 -983 1964 1811 7627 1863 -1181 3178 8437 723 3422 -3250 3990 860 -3587 10958 -2507 -4216 3413 -5002 -2483 7224 9118 -62 2061 1936 381
2247 1557 -1369 -4975 -2100 -6231 1708 3057 -1428 -569 6895 2734 2171 2911 -6683 10644 -3334 -3484 -8524 -1871 1503 -2592 6185 -1117 -2264 -796 3431 1074 3109 1232
3869 17 -5127 5349 4579 3095 -657 1435 -5052 -6027 967 -13 4287 5163 1408 936 2819 211 2744 -468 -1908 -250 455 2895 -9021 -6616 3619 4385 -3055 -2957
-837 1255 -3645 7228 -1496 3034 -1289 6795 -6162 3068 -3600 2357 7839 -2537 4208 1870 -6448 3247 -4662 -2417 -3067 -4055 -230 1698 -495 2556 -1553 -9239 -4920 -6204
2368 -5982 6833 -1784 -4814 4708 -3505 -526 -7043 4639 -10157 1273 4737 1593 5014 -2945 1057 2740 2845 3061 -1985 5093 -1608 -3674 2118 1448 -5323 381 -52 315
2546 2349 460 3606 -356 1629 -3912 -44 -7715 177 3057 1104 1420 -4558 2 116 -6804 -8422 5464 -2909 -5469 -614 6813 -429 3441 -2549 3112 -4345 1781 446
263 -3420 -4266 -7531 3701 -1874 6049 -5745 -1704 -7551 5328 -1141 -6922 -1780 -7929 5353 2886 -4626 -4363 -806 1896 -2956 1315 925 -2854 -6026 -4589 -3702 -583 -2762
-1729 6884 -3020 5078 -9984 3435 -7270 -3743 -978 -6171 1294 -1946 -4006 2855 -5519 -1927 -4023 -3138 -5020 -1869 2508 -205 -4128 -6659 -3073 3290 1522 -3476 3089 6924
-2439 -3726 3727 1153 -4531 3535 -71 1172 3990 1149 2521 258 4159 -3048 -1109 6438 -1805 2505 -714 6045 -568 523 -1427 -1940 -2454 2662 4521 -4483 1771 -8099
-968 -1828 -2337 564 5299 -1816 1310 3359 5593 2633 -2079 6301 2134 4620 4925 2862 6207 -5623 2889 2572 -4011 -2893 -1498 3875 -7032 -2162 -449 3337 1504 -1614
-4390 4889 2807 -3924 3993 -987 1488 -1213 -4087 -1704 1252 960 3763 3365 8893 -2909 -235 1294 760 -4783 -2495 1997 5682 -7496 -1641 -5071 -2545 -6968 -884 -5573
5671 3072 5105 -3869 1889 268 -792 2009 -6090 -2987 -1986 3772 -3503 -4091 -2644 -80 -1207 2252 1226 -3442 178 -5611 -6279 544 6498 -9100 -158 -2557 6231 -718
-1200 5989 -5931 -5008 -331 -748 -2459 -801 -818 -735 -6070 -1357 3873 -3079 -1882 -2501 567 -3924 5723 2028 -7279 -2787 -3812 -1529 -1413 -3120 4782 -2170 -1283 -7089
2921 2173 1638 54 2434 2722 4208 -4501 8942 -555 -504 3103 -3481 2406 -3097 45 1968 -905 8097 996 -6385 3011 -2050 4649 -3660 -2599 -2354 -4396 1074 453
3441 87 5187 1895 1428 -2163 -8465 -4783 6853 -3252 133 -960 -4216 -2752 912 -2796 5600 -1696 3055 7578 2572 4725 -810 -4415 1605 -4668 -2883 4052 -6241 4226
3292 -6827 2851 -1429 2154 972 -1439 -837 175 -5418 1873 -5870 5543 -3426 4807 3559 563 -5343 4151 1068 5266 -6490 1700 -2630 -756 1612 1114 -6387 -7427 1419
-556 1025 1315 3154 4797 1393 1415 3596 2164 -992 1648 5896 1684 -4691 -7054 -9441 565 -675 6728 -1884 1547 -563 -2520 -3144 -5491 -7587 4559 2410 -7835 -645
-12 -8688 1728 3639 9097 2230 -3155 1009 130 -4326 1072 6079 1648 10773 -824 -700 -1312 9037 -933 -1976 -5638 -7521 2246 -6280 -2099 3963 1273 -2464 3017 -6439
-2816 -725 6451 -4076 3121 5472 -3 -7146 4206 852 807 5446 -119 551 -2033 -4026 -4759 -898 8006 1293 -3940 3344 -960 2622 -1520 -395 -1829 -1002 -4233 5857
-2536 -3308 -3676 1423 639 3914 2174 9 -37 -1138 842 1590 -3123 -1714 -2543 2797 -8057 2168 -3355 -4812 -2660 -1783 -3419 4320 -3126 3754 -3261 -14 1760 -823
2268 -2092 -1318 -7058 -8 -2054 -2161 694 -2490 -2617 3548 -421 374 3523 904 -2492 -2237 9578 -1489 -5184 3082 792 3939 -2244 4653 -2807 -2691 -444 749 -3001
-634 -1025 -674 925 802 -2390 -4262 4113 272 3490 2459 6011 12876 -425 -3672 3089 2260 1616 -3626 5436 -857 -3468 728 709 -941 1587 2465 -1283 -1443 -920
-2128 5801 2868 -2368 708 1628 -567 -4354 -510 -1009 4095 -3690 2711 3223 771 1605 -5987 -958 412 181 -805 -3142 -2572 -4001 4051 -5131 -3687 386 1463 5123
7098 5190 1338 1650 -366 -1419 3859 6202 3976 2944 -4693 -7298 -4295 5134 -3474 2687 -1791 -1853 5966 743 248 3226 2689 411 10328 -4251 3511 1602 878 340
1021 5239 3306 -329 4222 -6356 -221 6124 -4258 6994 1318 -4121 6116 -202 -1119 6729 -2075 746 -832 -60 2993 -4384 -613 -2205 4014 1935 1126 -1472 -4314 140
-7672 1736 1779 -380 7434 12069 -1974 -1141 8653 -3113 8558 427 1601 2106 3330 504 6181 -4371 4538 1313 -4892 3985 145 -389 569 8570 2103 -3878 1535 1496
1836 -2851 1148 3142 5469 -1416 802 -5079 -1551 1291 4548 1090 170 -2065 -4034 -2853 4362 2579 7732 2936 947 -5290 -2296 -4469 -3138 2633 2383 -3681 4631 -2263
3118 4788 -1558 -1073 99 922 -2256 -6011 1092 -6690 5998 -3368 -3983 -2015 -327 -789 -4401 201 1378 -3480 -13946 -3476 820 4260 -4723 -7191 1781 297 -1052 -3305
7844 -5226 -3914 3844 2062 1495 2981 -460 934 160 -1594 -240 -5506 345 1525 -347 -1385 -1637 -5489 -1035 1187 3093 -4395 1908 286 -4235 -9322 -1233 972 2548
1196 3678 -2828 -4870 4050 174 4351 -2468 6235 3382 7424 1450 -7012 -3024 -7144 7826 -4452 3288 2564 2750 -1 -2680 -5490 -4073 3677 4244 5373 4941 3875 -2409
-5829 -1212 998 -1921 1982 -381 -6039 -6651 -447 1722 4831 3885 968 -2003 -1520 6942 -3062 -821 1164 -4870 -1732 2827 4471 -2126 -3823 -6439 3701 -3062 -7405 2560
3352 -676 -1228 -578 -66 3186 -3520 1198 997 112 -6311 3393 2698 30 -2655 76 8025 2865 -2045 556 2284 -2289 2981 -1034 492 3185 -1761 -7738 -830 -2569
-3864 2035 -3421 4247 7663 4368 13318 -302 -3285 -1364 3113 -5745 1799 -4208 3250 -4827 7384 923 -2435 -480 -9023 3498 -1103 -4145 1760 -2232 4519 -6237 -7899 -889
-3320 1629 1628 -2155 4076 277 -772 276 -2621 10711 -561 -5099 -841 -1577 989 -9351 -64 2175 -890 -1149 -3704 5877 5123 -1250 540 -2422 2382 -4161 -6995 -1114
6305 3287 2945 3635 -3656 1269 -1560 4682 -6277 -4271 -8645 1022 2328 -923 -3436 -3406 1570 7582 5264 -3431 -369 3173 -1111 -5279 -264 749 2133 4536 -3246 6292
-4060 5262 2196 2892 4036 2194 3214 3161 -5100 877 3429 118 -6537 -4800 -586 -549 -7879 -2063 6322 -5067 -2330 -1522 5100 -3899 -1795 74 6812 2750 9915 4277
2069 -2976 -96 -778 -3071 -3511 1836 702 -4281 -5140 1603 -11185 -4159 -5270 -843 -1259 -6176 -1691 -2224 1818 3117 2186 -906 -4119 2643 3372 -3605 -450 -7602 323
12 4826 -4142 273 -5203 -5727 -137 -4058 3001 -4021 2989 -2064 -279 -3311 -1554 2871 -560 3817 -584 1047 -3715 -3582 -237 -1308 -6474 4769 -3126 -4362 3913 4292
-5681 -3896 -5507 -1216 -561 -4849 1122 6609 1163 4701 10287 4182 1652 -14679 911 2347 -2328 3059 507 -1657 3153 -5598 -7092 3390 -1374 960 -1984 -7894 908 -2820
-2280 7682 -4306 -6081 4773 -4533 1225 1944 6270 -2285 -2595 7287 -489 -3787 5202 -25 -247 737 -2813 -1549 308 3370 -4402 -3435 1711 -1575 -4739 -5814 -3904 -756
-5134 -577 340 -4038 -6667 2614 1708 -1370 2565 -10912 -2314 1477 -4026 1104 1381 -4088 6103 2550 3476 -5417 3206 2381 -5841 -5700 -355 5816 2052 -5740 3719 3099
6705 -1176 -893 2796 2542 837 537 1874 154 1014 -4096 5248 6259 -2847 6996 -3637 -883 4529 4225 353 -1797 4562 3135 -2887 8384 -2947 -1200 -2299 3945 -5132
-306 -1511 623 -1998 -3920 -3794 -3254 9300 -275 2874 453 5994 -3776 98 2842 -9508 3450 -47 -1871 -5347 -5132 -657 -2963 -6469 -4794 3841 4098 547 3737 -809
3769 95 1658 91 4364 -690 -4828 -1240 4281 1820 -6804 204 655 -1127 5083 -1860 -9083 -9190 -7916 1295 644 -2348 5222 2621 4008 240 4824 8360 6687 2944
2559 -2324 1349 -3244 4736 -10244 -2444 -6957 -5955 592 -8348 -1159 74 -942 -9091 -94 -584 2995 4255 2382 1784 4135 4346 -95 3788 1553 6541 4801 -841 -1964
-1707 -3416 -4467 3464 -3113 -2550 -1336 3058 3757 -3908 3461 -4781 -3828 3811 -5114 -726 271 -1348 -5763 -6702 5013 4878 1970 1426 898 -708 -397 3786 -2896 -75
-7048 -466 1433 2518 1588 -3758 -3050 2516 947 -25 239 -751 -38 54 1471 1443 -2538 1669 3345 721 5223 1673 -3471 -6949 3424 -4101 -4665 1501 2957 -584
-3484 -4523 -2456 -3047 10309 2147 -7881 -1848 -6869 -2536 -4418 936 280 -3037 4608 4931 915 5126 -3496 -126 6891 -2222 -713 1778 7648 1556 -3320 693 5740 -1147
2348 3895 13900 4248 2481 -5532 975 5996 6245 -515 -1811 -2886 -7302 -4465 2288 3706 230 767 -2018 -4775 -3182 2757 3835 -5334 326 -594 -11402 -1931 -154 -2301
2107 -2491 278 265 2777 -1063 826 -2159 419 4148 -2246 3830 -3005 -356 2255 1971 -270 2713 -4172 4210 4682 -1998 -593 -5537 -2881 5431 -1594 -2452 4946 564
-1694 -5179 -428 4232 -4171 -291 -2490 -4246 14 2801 3499 1104 3178 -5190 2085 -1022 559 2942 1025 496 -3050 114 1922 -2506 -2850 -1491 5180 44 -5842 465
1360 4410 -7714 407 2293 3394 1716 -2263 -640 -3000 8414 -4461 -1299 -1034 -5012 3131 -1612 -917 -5847 -2521 4939 -4579 -1799 -601 1987 2052 -1574 -2098 4652 5502
695 -7022 4501 65 2017 -5390 1953 -4562 5841 2188 -7699 -5505 -3163 1453 1348 2853 2287 3668 -904 10192 -4004 5426 -2006 -137 1086 -6883 748 1635 1012 -6345
2037 976 -607 1254 6641 764 -3868 9656 -8758 -3417 4705 -2246 -1862 1634 795 -222 3363 5065 -1770 -984 6650 -2361 -2033 -3434 -6035 5809 -2704 -2506 1668 -3479
1564 5542 4182 2162 -1501 1188 -9035 -1159 2263 -6478 6797 2275 -1505 2430 -7638 -1679 3414 7028 778 2490 -3361 -1469 2861 -2075 3299 5698 -1989 -1783 730 -1449
-3676 762 -2256 2149 -6943 270 217 -4540 3142 199 -2887 2186 -3710 1429 2272 -10294 -2060 -7076 4976 1235 -316 2461 2504 -2928 -5747 -2298 -3323 1083 -1443 -49
6167 -1369 4202 633 -4596 1607 452 -5648 -1277 8433 -3861 392 -277 4862 3767 -909 -402 1460 -4664 -1313 5451 -3455 1069 -1464 -306 3759 6707 -4410 1662 -366
-1709 -2167 -3575 7151 -7155 -5672 -798 -3427 -4898 4034 -1285 -1728 2412 -5349 2094 -4200 4123 386 -1303 -3425 -6799 -2749 6770 -1148 7069 4298 -5042 191 6672 -904
-2607 2810 4178 2767 -597 -2512 -2669 -5248 -4456 4916 -3190 4973 4346 -4990 -266 -4518 2179 1019 7618 2488 4469 -2345 5338 -3800 -5171 2571 8147 -245 2086 1618
2280 -2762 713 986 -593 -1267 6229 -5655 -1687 -97 -138 -2401 372 -2031 -4645 5056 385 -580 -7336 -1422 133 2658 -538 -8968 -8270 -154 -7576 7878 3275 -1080
287 -2505 -2356 2846 4794 8985 3242 1205 -1040 -678 -6113 -3140 -4904 -4596 988 637 2172 528 3459 -1227 -5045 7295 4643 -783 -459 -6993 -6994 -3400 -2772 -5349
-3441 -1356 3110 363 2259 -1667 -2345 163 6395 976 -3070 -1783 -350 3136 -1528 1661 4577 5152 4506 -12786 -3967 -2054 6265 -1183 27 6872 6561 -6730 -1664 -879
-2814 -3890 -624 618 2524 4904 706 -4292 -5219 -3486 5658 -1776 -639 4629 -8828 -651 2520 792 2050 -1381 175 -5591 -646 -768 -3235 -2742 2383 741 -6120 -2263
2171 -4884 -4354 1377 -4670 6332 -1281 3063 499 3323 7847 -3842 1394 -7472 1426 -2961 -3628 -4814 -3719 2910 1554 -7605 3977 2901 700 641 1579 -2062 -357 -1674
2567 -1721 4823 -144 4151 590 8855 1782 -5211 -5022 5948 4686 -2765 -603 -6130 2127 1168 1238 7391 3716 351 4002 -4159 -1042 -4686 -9266 -4467 -252 4706 370
2152 3452 3817 -1191 -1435 5200 -2824 253 -2256 -8982 1752 -1647 6445 -8203 1347 2229 -4719 -1578 4138 1230 309 -7817 1708 1634 -3309 -1874 1286 -3708 -1646 2217
-1556 3711 227 -2624 -924 -3749 3152 -645 -978 1242 -5271 259 606 966 -505 -776 -623 -160 5775 1181 -1710 310 -5969 -5206 -6014 1992 924 -2598 -2572 -4401
-2363 3519 -8310 -802 -5541 464 -7108 2035 1504 7661 -643 -290 -1783 -4853 952 3723 3748 2779 1271 -438 8172 -3980 -1807 -657 -4662 -988 3131 3908 495 3516
-1068 1380 -2541 2718 762 3778 4233 808 8481 2750 -933 -6465 6206 -1343 220 2718 6357 3220 -11350 1972 3075 3565 6551 4863 -639 -2974 1527 -8615 3604 2833
976 -2468 8204 -4419 2777 1984 2968 5213 195 -682 1246 3947 -4084 2492 -10218 -8228 1132 -720 3101 4305 -451 741 -3674 -313 -5395 3961 480 2917 -5840 400
3293 4695 -6290 -7747 -9892 -1460 -42 -2342 -1392 852 -6439 -410 7982 -6228 3461 481 343 -3241 -2403 741 1541 547 -1953 3541 2685 1353 3285 -3006 -1514 -4612
2942 3764 -1188 -63 -1125 -383 -3368 2256 -7563 4910 -6084 4897 708 -68 502 -4031 4101 -2415 -4991 4268 -6351 2221 7326 2182 4098 -6173 9662 -2452 -2625 -1861
1605 5114 -1115 7550 -954 -413 -4346 570 270 2317 1937 -2664 2881 -5089 -1388 886 -3148 -212 -3347 -209 -2845 6814 -2758 1863 -3741 -7572 -585 -2404 440 -2294
-5076 2559 1480 2076 -93 3897 2765 802 -5736 -4272 2268 -4456 790 -3216 -6072 1531 743 1476 -4596 -3143 -4533 -2856 2293 3224 -1520 -807 4244 -2314 4603 -5844
-3399 3202 3949 -2975 -3710 -1834 -4543 7513 -2722 -1982 -668 1095 -672 3653 271 3803 -6137 199 238 -1406 -4734 1651 1500 -4956 -2540 2532 -3064 -5039 2930 -6696
-1994 -1516 3753 -872 3404 3644 479 -3464 6186 -3621 2937 1404 2543 1102 8923 1370 4113 3260 420 834 2807 -5217 3027 -7235 -761 3082 -984 1813 6684 -706
78 -3228 216 8040 3029 -4544 4399 7019 779 3615 1732 -3891 -184 -3066 -4996 -1031 -2583 -880 2475 5197 -4086 -453 1986 2377 4187 -1958 2612 2528 3440 -851
1984 -3279 5542 -180 -4365 4032 3073 -128 -3220 -1883 -7944 3623 530 1654 8484 -2101 2011 -3925 4927 5264 -1355 -3099 3507 -4854 -2417 8157 -1670 -2621 3740 -1131
2561 -6179 6124 1381 283 -1241 -2790 3381 6674 11505 1272 567 935 230 -50 1661 661 2655 2495 -105 -476 1713 115 -4035 4338 -951 -1978 -2120 -994 1119
2994 -4172 3839 -346 -2867 -246 3319 -2885 -2294 4195 8882 -4226 -393 3561 -5350 3672 1667 521 -4714 167 -3407 6881 -2019 -644 -2275 3450 -1741 900 1871 -713
-3000 1988 5032 -1510 -1630 -153 -4244 -6411 -8910 5446 45 4601 5964 5396 -4544 -1650 2963 5594 -369 -385 664 -2826 1716 -1998 -1057 2225 -1569 -5865 4789 -2951
-2679 -185 -737 2724 -605 -4638 4336 4215 4021 6379 7611 1848 1755 -65 4473 6936 3642 -3423 -9430 -6593 235 -944 -5967 -4453 6260 -2799 1782 -1365 5677 -3191
4566 4926 3069 3759 -5305 -973 -3435 6131 -2996 2019 -2882 992 -3062 8858 2092 -347 -329 -6831 -4447 -8639 3653 -264 -1147 -8192 -203 369 -1531 -7698 -5828 936
6412 6184 -6882 5674 7929 4973 4059 2933 1582 5836 -6931 -3712 -890 8468 5886 3389 -54 3007 1644 -97 3633 3800 -1402 5829 5331 -121 -3399 3535 -271 7288
525 -2205 -1088 4714 -601 -304 -3083 -359 -4540 -3917 -2315 489 961 5724 5767 -5019 2544 8914 8011 379 1893 -404 -1460 6060 1668 4241 5209 -8196 -385 -8555
-4506 1438 -6315 -1419 -8378 -3782 -2612 2486 -626 3420 -279 4541 803 -5782 -1867 -4236 -2939 3270 -6893 -845 -4752 -637 1004 1033 2133 -594 -6890 -4418 4115 3054
1451 566 -5159 2731 8157 1729 3188 4821 780 598 -2052 4039 -3259 1248 4811 3682 187 788 2290 -5174 -5768 -6095 -795 3901 -5591 -3065 3215 536 -3628 -1938
7283 -468 1640 -4889 5587 4665 2798 2283 -6236 4280 389 -1197 -4039 4053 -4365 1918 -2732 2798 876 710 2391 6479 -2375 10299 6339 5990 -3217 -3489 647 634
-1510 -2946 -3667 -5848 347 -336 -46 4921 699 -4506 4562 -2642 2669 2215 -11200 -1826 -5467 -511 1233 319 -4416 1165 488 2364 -2160 1965 -2087 -8241 -598 -4957
2750 921 -6108 -2484 -5647 4366 1259 3362 5625 2833 4316 939 -245 6308 -1847 -505 33 1279 3307 -6239 2100 -3794 1752 4999 4959 3682 812 -3058 5474 5805
-2932 4056 -2539 3343 260 1417 6855 4408 -3358 4984 1354 2331 183 804 -2226 -688 3308 -2104 1005 -1506 -2089 3015 1822 -3712 -4546 6522 584 -1993 4276 -2214
4735 -4594 6642 5755 -6659 -1476 3490 -2246 1350 6174 5839 -6597 1587 2320 4167 -2927 -8104 -7155 -4824 -1062 -2449 -3114 8729 8307 1460 6457 -119 -1651 -4129 -1203
-3727 -7670 -2001 3156 -3388 -746 1872 4651 2558 3059 -2486 -3767 79 6904 3857 -1204 -52 -26 -1018 2980 -3122 -6214 -5319 -12505 -2643 4329 809 4399 5098 -1085
7994 2210 -3187 2087 -2080 1375 1964 4509 2647 -5685 1541 6297 666 3313 -3737 -1927 -3100 -4767 -433 -4550 4586 3385 234 6231 13294 -2529 -2799 2218 252 -547
-1477 -6536 1781 -155 -844 -6384 2096 2929 -9777 -1559 -4009 -285 -2865 2745 -1990 1050 -3880 -2664 -4379 968 -817 5459 -3745 2917 -252 -3602 -10908 -4284 672 -1397
-6359 4419 -915 7642 2835 6592 4960 -4662 -5721 -5458 -145 -3710 351 -608 2952 6128 1483 -2072 -4934 -4023 -2366 -618 -187 -5665 -1785 -1486 566 4717 308 2689
1095 2714 1114 -3001 -5381 989 -4745 -6845 397 3295 -3603 -2910 -2747 -8032 3012 9394 3372 332 -8266 6015 5193 -1182 -8244 -156 -2216 -321 947 812 -2871 690
5554 -5924 2044 -2437 -214 -6232 3 -8899 -5857 2689 1985 6621 4885 3868 790 -2729 1710 -738 -2580 2140 1160 -2728 -194 -1587 -2061 -376 -962 4553 5068 -2257
-4520 -6704 3852 -8788 -2263 -268 2590 5075 -3124 -4201 -596 -1720 1373 -86 -3657 -1804 4873 5014 3304 -8562 -488 -679 -7498 -17 4293 -4129 -8920 -1272 -325 -815
3281 112 -2142 254 3210 3974 6405 1342 5751 168 -956 6350 1882 5490 2650 4910 127 4529 2325 -8391 -1912 -1300 7029 -2378 2634 -10299 -2428 -1484 -4126 -6356
-216 -1972 -2483 -6211 -3736 -9240 -1146 3111 1011 8629 -1467 424 1516 -563 -1160 -1622 -2309 -163 8254 1385 4091 -2576 -4329 -13439 5904 -5073 -2771 -1484 5759 204
6486 2169 -4778 -2746 -3138 -3681 -4151 2418 -3555 -2658 -1715 -2118 4228 2664 649 2518 -850 -1193 5766 -5941 3790 2488 -1385 -1471 1602 2987 -1606 2213 477 -1071
5340 5523 11 -4481 -4324 20 -5318 -4497 -4653 -277 8548 1108 -3162 209 -3094 -7760 2826 -6147 -6615 4355 9552 1111 4619 -4969 -4919 -5128 2345 -2817 -5966 -1020
3558 -1137 -1607 -1835 967 -7766 2386 677 2589 -3111 -135 -4730 -12372 -4778 -964 4073 -2059 -3095 3037 3517 5472 2218 7754 -309 489 -437 1800 -474 -3435 6115
-3019 2030 3187 -1588 -1845 1321 -2688 5415 -787 911 -4207 -3180 -4798 7977 -3555 -443 3511 4831 -9970 -2348 1589 -3317 -8153 -11678 -399 -5409 1778 -761 -144 92
2046 -1989 -3175 -3549 926 -19 -6180 -2231 -1491 -1139 -1739 3653 3024 2436 -4844 3611 8623 -323 -4714 1340 1989 5746 -1755 1576 1960 2969 9070 -4823 3727 5987
-308 2718 9095 -954 6601 6086 8655 852 3194 3433 1942 884 -3998 -7906 5055 -1709 913 -8427 5016 -2469 2392 588 -3627 3718 6842 3922 -2825 4056 -2803 4594
-2852 -4165 -12088 -2487 1395 -445 654 -2819 -1595 -1099 8082 415 2680 3719 1972 -472 -8328 -2706 551 -1518 -1270 -4550 -1195 1770 624 2430 705 -2989 -796 686
260 5043 491 -2630 2503 -1804 540 -697 6747 4621 6008 -406 -9764 -3622 1022 -3313 -346 -4765 -4441 -1259 -641 -3356 -159 -9417 -489 772 -1258 -1925 -6672 2716
-1100 -82 -4450 1033 -2489 -3311 577 4128 1613 -2273 2244 4321 -520 5844 1281 -4731 -2575 504 5124 3473 896 -2362 961 991 5745 -196 -2688 -5166 -3055 -995
416 -1659 -468 2504 -873 -5338 2771 -3789 1179 -174 -484 4148 594 4139 597 3538 -5785 -1739 -3899 1817 52 5585 -3146 174 -3804 -657 4736 4217 231 -289
1101 5927 4839 1475 -2450 -1704 -2011 4037 5203 87 -4000 2008 5400 -2853 -6069 1606 7191 1503 -709 1528 -2717 1067 -8827 1147 -3978 8628 178 -3373 77 -2629
-5114 -5780 2707 -418 1556 -2628 -6061 -5176 5991 316 -6047 -966 -878 1132 -6455 645 -164 -3126 -4166 6715 -856 1809 707 -6595 -635 -5877 2416 6887 -656 1198
-2182 3132 2074 -2958 -1848 280 1313 6752 -2154 3576 -3741 -8470 1054 -1377 -1344 3102 -1523 2050 -2298 -2069 -1988 -2381 -3563 -6953 -5483 813 -434 4521 5425 4959
-1164 7302 732 1115 885 -1281 2903 -4944 -3239 -3628 907 -1165 2162 -8365 -3745 -2465 -1124 2449 5016 1079 -5873 -3113 4248 -2809 1807 2662 6407 2843 -1736 -1276
-3040 -1951 -2178 -1084 -56 -894 -1557 1949 -2414 -4061 -3985 -6474 -451 -581 3108 5353 -4066 -2773 944 -3212 -7640 -1407 -2979 2999 2821 -944 2078 1929 4667 -3042
99 1751 10452 1312 8867 -3557 -288 7197 1228 -1550 -635 -4246 637 7418 4628 12485 -1733 8132 7394 3219 93 -410 4702 1344 1573 -5132 726 -567 -10722 -909
-668 994 -872 6554 -685 1838 -2807 6596 2099 -5614 -4160 2194 501 7281 -2215 -6061 -904 -8 6161 -565 -3056 -2290 -3848 6317 6936 -1259 -6383 421 1937 5477
-1845 -1912 1910 4935 1244 3639 -232 -6535 -2332 -1736 4393 1360 -809 5903 1605 -2198 -3394 2332 5916 7588 -747 -1331 1919 -1264 3956 4105 -171 329 327 -1399
3710 7276 2914 -4945 2713 4746 -1926 3333 11053 -6590 -1797 3037 1565 2935 -4226 -4119 1471 350 1366 -3640 1023 -790 -12963 -5494 -850 -1628 7177 1225 -6934 7010
2076 1388 7247 237 4074 2309 -2452 2696 314 -3787 -1705 -780 143 1946 3987 -3884 -7062 157 -135 -6317 -1894 6277 -3071 -3084 970 -195 -658 1025 2216 -291
-1064 3560 2481 -1942 -5595 -9503 -11177 2 7110 3294 1633 756 9318 -1575 4937 -5294 1996 4699 808 3385 -9756 2641 1110 8632 -1269 -4097 6415 3005 2255 2829
-2849 -2350 -7017 674 5903 4884 -337 -7365 -2363 954 1642 357 4994 3100 6734 6282 -5712 8 -3875 -995 -1857 -6979 -5047 -1525 -1945 -3630 -1184 -2570 3219 496
-464 -1979 4552 1114 -2911 1189 -1117 -1803 -818 3664 1875 4964 5545 -3553 2029 -6694 -1083 -1890 -572 1489 4680 -3209 -4693 -325 7439 5385 268 -2852 699 -3109
2988 -564 -2342 9393 1650 3650 345 1105 711 1160 1053 4236 -5441 -2801 456 -2846 2043 -1769 573 -1678 -4636 3384 -1601 -3404 7221 1107 -3843 -7305 -1180 655
1906 1035 531 1841 4978 2043 6217 387 703 -8155 6355 2293 -2421 -4576 -7955 6083 2059 -134 -3594 6670 394 -3180 -408 1695 -6685 756 413 -2464 1244 -2324
5517 4444 -1844 989 -1277 -142 -2248 -6065 -2625 -3124 -1105 -7174 -1868 -1027 -5423 -1275 -2533 1358 -2694 3100 -1974 2420 7604 1863 -2169 3043 6169 -8427 4830 4993
-1777 3723 -3170 4428 1575 5512 -2511 -7540 -1228 -5518 -2997 -1150 -1284 -3298 3872 -714 -5723 -174 -5087 -2461 -23 5250 572 -1352 1838 3831 -432 1707 5081 -167
-605 6045 824 -1068 -3580 1633 -2060 3814 -3327 1902 -1729 -4634 2020 -1400 1001 466 -5423 -449 3976 5669 -390 -366 5759 5138 3174 -1520 1172 -7317 7698 8720
-5652 -5074 4917 1084 3240 4917 10223 1266 1254 3208 10279 3053 -1497 5330 -5963 -556 -2522 -3197 2116 -1789 -3306 -377 2237 -1740 -1427 -5730 -1312 5670 -6028 -7186
4419 -1311 -5189 997 -10297 -5026 -6492 -5636 -5796 -157 193 -182 -3540 3420 2199 4967 138 -3044 1031 -5281 1877 529 -1835 1343 -1654 203 6 -3339 -2271 -112
-1978 1804 -1447 -1476 -1111 281 -7115 -3551 -5454 513 -3534 4671 3670 887 -6674 -3485 4468 -4225 -3335 8848 -444 1548 1962 -504 -4089 -517 124 4523 100 -5151
3607 -1353 240 4062 -1105 4263 1097 -2219 2271 -823 -4021 -2771 -2982 -1483 1271 3635 3864 3262 5403 -2760 -5271 1829 -6412 -2458 -6074 1165 -3714 -3196 -2949 -3083
5441 -2633 1598 4287 8990 9077 7892 3975 3683 -7177 4539 -5688 -3811 -6340 -3897 -3198 -928 11385 3637 -2727 -734 -1968 957 2591 -2074 -3612 -3946 4078 -6624 4110
1844 -3396 -3966 -479 4533 -2651 -3472 3083 -563 3795 -642 1353 -2740 -5928 3954 5803 -5848 933 5735 -1301 -1128 -2842 -3980 -417 2433 4477 -1593 -2487 -2034 -5338
-4375 1871 42 -673 -1805 7484 6231 6981 6297 886 -8376 1893 -17 1567 2497 -11518 -3901 3716 3932 4405 6859 -972 -846 -1983 -5616 1411 -1532 -6660 -1569 321
2797 403 2418 939 3382 -3578 -16 7725 3191 5191 -407 -603 4261 -1668 -6120 -4856 -6380 1318 -3762 -71 -861 -2985 1199 -6787 132 -2399 8120 2589 403 -370
1903 1871 1108 -5416 1878 -3168 4487 1285 -4450 -3190 -5368 -1602 5668 3502 -4275 -5618 -1648 1809 1496 4143 -770 2665 -4510 1185 -1989 2609 -3904 3129 -9214 -5306
-3388 -177 2043 -2290 -2456 4288 3604 5711 2119 -4440 5135 8451 2381 2183 -5860 676 404 3600 -387 -3100 3640 -2195 10359 3280 -4510 130 -6768 -4303 6066 -736
-5304 -2257 2857 -2770 2129 -2063 4107 6307 -3603 4411 654 1150 -1751 -3046 -4757 -4417 -175 -1423 -3385 3800 -2379 3107 2779 -1014 -2783 605 1176 1322 -6045 -3496
-501 -620 4385 -1509 2987 416 1622 1598 711 1338 -5715 2559 -2852 -2483 3860 7385 -226 2890 -279 -2165 -5273 -743 2909 -1139 -1825 1788 -2753 -685 -7214 5581
2722 -4168 -4267 -2109 -7262 9741 1710 -5774 -5427 -7635 -5794 -2027 713 1653 -4705 -3645 -6480 -1939 -5578 760 1156 -4149 3399 -1214 2818 1793 -1854 -2940 27 2089
3558 -2367 649 7728 -41 5265 4639 33 4292 3704 -6360 -3619 1170 -3372 78 972 -451 -3397 2263 -508 733 -128 -7444 -896 2714 -1183 5439 -1471 -576 6721
6819 4304 -8074 6 1605 1898 1949 5283 847 3467 -2502 -1562 3214 -2519 6352 1737 3643 3802 -2830 1409 -799 -1575 689 -2249 -3815 -3576 -3179 -2898 -7541 -1337
-2705 3066 563 -3211 -3465 3290 -3716 2525 2429 2188 3632 306 4660 2647 170 -1294 9134 2222 -360 -710 -182 -6518 -2154 -5455 -2007 7517 -1432 -2304 -877 -32
304 -416 231 147 -3569 -754 -8268 2511 -4619 -1810 5532 4549 4185 1987 -1689 -4986 -411 3832 -2145 2140 1939 1450 -2333 4488 -2543 -7579 -281 -2355 -1379 -2648
3321 -8518 -7652 -503 -3276 -1904 23 -2145 611 116 5295 1367 -3572 -43 -7674 -8875 -4203 -1725 -1619 2005 2119 3134 4479 273 -4968 1104 1463 5270 7894 2839
-2205 -1421 -4025 3133 -1847 -5764 -998 -2699 -2627 4096 3379 383 3934 1216 1611 -930 6319 2175 -6729 -3161 -4869 -3073 -3400 551 -3485 950 -5694 524 2017 3721
1203 3364 -356 -1573 -832 -3844 1967 -4784 -1883 -2075 4621 2823 3999 1911 -4886 -2564 3603 794 4154 291 4850 1123 1647 -2530 5564 5260 950 -1248 -1137 -1075
-741 -2937 7708 -5812 -2911 -3303 -4053 -5458 -8905 -3198 6886 1679 1862 296 -3591 7176 4604 -960 -834 -99 2110 2012 4238 -4838 -6265 -5247 -171 1877 -597 2784
1722 -3168 -429 -358 -1005 -941 3718 505 4323 -1640 -3119 -4629 -5413 -7040 -5234 -774 288 251 -6368 2601 -30 4560 1498 1528 -4800 -5493 -6705 -3039 2142 -4835
-3040 6674 -2680 5378 868 2454 2071 2766 -1391 -5488 -6015 -5419 -6744 -1927 -7149 -4053 2118 -4106 -6141 -2607 567 -1514 -3340 -5341 -142 -4518 -7237 -7596 -4933 2117
-320 6336 3515 1913 -686 127 -4597 -739 -1174 3955 -3203 -301 -3464 5137 -4604 -1626 1172 7728 1660 4277 -1081 2422 199 -298 6623 4675 1472 530 -5293 -3431
-3301 -893 -5883 -3977 -614 382 -1727 -1837 -4660 -4485 1282 -2903 1364 -2531 2958 -3945 311 -5626 78 -124 251 -3612 3038 -1438 1244 -6016 3359 293 2432 685
208 1580 -5613 8376 -3203 -665 524 -5058 -2440 6219 2698 3954 8574 -807 6122 -222 -621 -569 8215 403 6030 -325 1871 517 1569 -5641 -812 6642 6564 303
951 707 -465 -299 -2823 1274 -34 2059 3141 -2405 4276 -1464 2215 -1137 -253 -994 -2698 2468 -2017 440 -4792 -1111 233 1043 -2705 2440 -3841 -2546 3635 5756
-2297 -8119 1671 -5061 1493 743 -1179 3042 6276 11 -4969 -1945 -248 -2938 -3547 965 -3915 -4515 1222 1390 -844 -4232 -1683 -1855 1396 3667 -329 2980 709 6709
-5460 5280 -4825 3211 -2323 -3785 -285 -257 2509 3204 4617 -1001 -1356 3113 -484 3417 -4941 6972 10216 5688 3389 963 -2620 3651 1926 -3718 -577 -1088 -6744 -4327
89 1157 -5134 -1713 -632 3131 2721 -2023 2742 2267 112 6620 5152 6773 5119 9067 11768 8555 -1429 -3086 1193 2999 1409 -3872 -889 -526 -1197 -1089 -3742 -3428
1308 1179 922 3153 4827 6955 877 -2261 2538 -1800 475 -1360 5720 3414 -3981 -743 -2415 -1841 -1934 3649 1199 4049 -710 -3412 -2045 215 13 -1374 -6113 -2625
846 3282 579 -2319 555 5684 3626 -4214 1089 937 553 6441 -266 2589 -5533 -6138 -2693 -2181 -1470 1707 366 -1007 -3609 -1431 -4015 -4442 2278 3516 -8597 66
439 -1718 0 -8401 1052 -3918 -1218 -1668 -6836 2116 1300 6520 1024 -1915 1882 4332 5982 -508 1701 5284 4533 -4807 5338 -3540 2702 -355 9014 2927 -3827 -1007
-484 -1438 -4571 4215 1013 -5448 -5972 -6212 -5555 122 -1975 -519 692 2147 2335 7253 1075 1524 2058 1793 -1364 5620 3425 3109 1484 -5104 4013 -4343 -2005 118
-2072 405 -5310 -2964 -3611 -181 4074 -1464 -716 366 1311 -424 6862 1588 -1810 2492 3939 -47 -9521 -2346 988 -3541 -2869 -2312 -4774 -1426 3556 -1032 2203 -612
1071 2982 -788 -5280 4038 -10 4569 7752 879 -5566 -2579 965 1985 918 1421 -1145 -2322 1396 -966 -4230 -573 926 -5583 4630 -4878 -972 4900 1330 5088 -4187
-2463 8284 6114 -2694 6621 1706 8302 -1473 -2843 -3990 1594 2144 568 1291 3199 -1155 -4800 2246 5180 -2179 -1165 -9180 -428 2797 -2380 -3388 -8864 -4815 32 -3228
-2934 -1952 -3 2576 8875 3793 4682 -2209 -212 -1631 5614 -1517 815 -4142 1197 1441 -1450 2452 3384 6753 6630 -3015 2361 443 50 -3865 1841 4991 -2151 -866
-1638 102 2155 338 -7481 1421 2550 -884 -2467 -4541 506 -4292 -1244 249 3689 -5922 -2361 -7031 -1327 -2716 -1366 156 2186 -3224 757 4785 -2315 -2564 -600 1904
4992 1021 3845 621 -552 -3247 270 -17 1651 -2923 -4334 323 -931 4582 -851 -2879 2142 -1625 3002 -6313 -3812 -4940 5352 -4003 -2098 9617 -2613 -3291 -598 3294
-1331 -1359 1493 3897 -136 2072 3040 1513 -2442 9774 4480 -4712 138 -3460 3537 1361 5698 2812 569 -365 -4261 3774 5991 -5141 -1826 -1396 6092 -173 2264 -1990
2613 -2810 356 -1628 -2345 -761 203 -2855 1834 -2400 -2289 -5304 -4661 840 -4227 -8375 -411 1054 860 624 -4080 3505 366 67 93 2156 -467 4354 -4540 -3264
-158 -131 -3430 2595 -1114 7452 -673 4308 -745 -3257 6699 -992 -4169 6881 3188 -1081 140 -314 -3302 -4625 -3528 -2368 -5550 -1088 -11963 2853 1873 -2694 -2476 3678
-3363 -2549 -3210 -5406 -2029 -4212 -4484 -3710 -1656 2207 5205 1861 759 -1562 1929 4043 5569 -1111 4027 2071 -4761 -291 -720 -1739 -2024 -3527 -1544 1586 1362 656
-3166 3635 6201 4257 -2266 2725 -3524 2000 4325 -2071 -54 168 -445 -2582 2310 8005 -3542 -7770 3576 1148 -2996 -3976 -3995 -6276 -790 1246 3195 4582 944 -4575
5067 2232 -1549 1235 5793 498 -5256 -1774 1212 2422 -1887 -6700 -5833 -4096 -4466 5310 688 -2975 -5255 -4579 -576 -2602 -1811 2094 2729 -6501 6386 6730 -3593 -1314
-2540 -594 -636 5022 5485 14 -6111 -3053 7129 541 914 -5423 -1063 2004 3295 -4476 754 5044 3949 -643 -1936 2261 -3777 1367 697 -170 4662 1975 -2898 3399
-1813 3261 -4783 -2761 5768 -1871 3334 -1566 5137 -2914 -5065 818 9376 262 3661 -5724 -4835 4236 4614 11657 617 -3688 -7710 1947 -1687 -3101 -3659 -1132 37 716
1854 3538 -4616 972 205 5920 6216 -4255 -7091 114 2992 -2119 73 -3195 759 -833 1257 1488 -2083 4012 1524 -1977 -4601 -347 6398 1931 -2286 -906 -460 -3054
-3450 4647 3159 9604 -534 -2197 -8452 2775 3926 6195 -3654 7259 -3000 -644 4421 -1257 791 -978 2751 -4305 -3946 199 -3419 -3407 -6004 -3671 -980 1905 -846 584
-253 865 10579 1194 -2173 -4656 1633 10743 -2830 -4257 470 -2034 -1698 1664 2282 -2923 -1280 -563 -2666 1850 -10898 -476 -3646 686 650 6268 3403 595 -1343 -415
-318 5573 -2549 83 -2962 -3360 -7270 -2386 -2424 -958 2716 -1957 5745 2599 -434 183 3327 -1014 -2242 2883 3480 -5176 -7562 1692 -4740 -8668 -4350 -524 -1009 7357
-2268 2844 -3226 -853 -1673 -6937 -3479 3194 4360 3854 -4912 4197 1129 -5750 5086 3272 23 11191 -1208 -3228 -1856 4937 -705 -1302 398 3023 2444 1236 -2324 -4626
-519 2327 797 2364 2391 1285 1013 -3169 -7534 -1267 -1612 3496 -799 -8499 4669 306 -538 -4447 9090 1410 -3296 3919 -5941 34 -1421 2647 -4183 -1071 1477 -2089
-5796 -7411 -2943 6417 -4096 -4162 -7999 3895 11211 8377 -2729 -185 313 498 4813 -1780 6338 -3656 31 -3998 -6015 -164 2627 -2587 2246 6101 -823 -429 -6339 -691
-1194 5921 -2360 907 -4083 1934 564 1387 5191 -7066 -3689 567 -1173 4163 -7253 5133 5376 -1641 -4434 -4642 45 -3130 -2211 -1727 -3895 -3758 514 -2933 -2458 4340
62 -4220 1497 3775 -1786 -2509 -3268 1981 559 -2577 -3855 -1366 -1146 3872 319 571 -1516 -1741 3565 -7304 2612 -3815 5210 6850 2934 -2904 -2025 1368 4218 4696
-3176 -226 5346 5591 2581 8965 1250 4046 -62 -4492 -5126 -228 -3702 5291 -5862 -7844 2429 1909 5495 -4330 -6005 -670 3300 -5435 5598 -3486 -2433 -9162 -7689 810
102 1899 104 555 -3948 1057 -4236 -410 -7711 -4887 5016 3028 -6235 -2649 -339 8595 1871 -3730 -515 369 197 8993 369 -1287 -2297 2559 419 356 2188 3525
2562 -5524 -2592 9551 -2638 -2597 6668 2727 3055 4258 -92 1701 -2280 -2784 5287 -3482 -1211 4746 2145 434 2040 1971 -271 -1522 -1361 -6012 3578 6669 1423 -1523
239 -2660 -3572 542 5689 6054 3666 -126 530 1971 3821 1313 -6444 1971 -3851 4483 3363 -2904 -732 2201 1227 -574 -3566 4683 -4911 -598 2181 2319 1558 3558
-1188 -1405 1937 -1633 -398 4337 -1383 -1312 4579 -6762 -3008 -8499 4179 482 -149 6052 -5651 5819 269 3547 5623 -5185 -992 3241 5129 1404 -3308 -6773 1584 -910
2123 6075 1663 4400 1491 3093 4213 2166 1889 -4719 -265 2706 -1107 4584 -2164 391 -3204 2532 8355 2435 -1218 -4553 -3973 8837 -3614 123 686 -6142 -4637 513
4800 1357 -836 1607 762 -3940 9049 4930 -232 2412 -57 5488 -6856 -4320 3522 2816 -989 -868 6502 -956 -361 6246 -6768 4347 -6863 -2475 -3778 -567 -3450 3014
1690 159 -774 8725 8421 -107 -398 -6805 -4236 -6543 977 1390 -2248 -432 -1189 -9604 -3128 636 128 -3334 -765 -1738 5263 3858 -6940 437 -5686 9315 4827 -3652
-3933 5223 3399 6521 -7420 -4029 -2277 654 -3756 3323 -2058 -2118 -738 2604 3178 2370 207 -278 -3469 -839 -11 -428 4246 3547 -1192 -5861 -5694 1242 -7122 151
-2958 3032 -31 3294 1166 4492 3138 -2450 3704 1983 -5803 2177 -5555 2970 2699 -5713 -4465 9509 -6929 -1392 6315 -85 7678 -3363 -3747 -1809 3813 5012 -2488 -1866
-353 -2512 1258 -2773 -1871 5437 -5077 885 -479 -2615 2826 -240 -4517 6165 -8248 -5028 -2455 -3464 -412 -1603 -1241 929 1503 794 -3115 -5261 2343 -5236 56 -2257
-4597 -662 652 -3301 -2191 3727 459 1931 -1342 -348 -6494 6794 12700 2586 1578 2836 4210 5574 6061 9083 1357 -3044 3038 5807 424 4482 2714 -1456 4848 790
-6144 -2062 -2525 2946 -3893 -1747 3316 955 3852 1939 -1179 3496 2417 -10210 1565 -191 -160 -2921 1153 -5565 679 -6385 3571 2632 -4943 -3505 -648 -4655 1997 1573
-483 1492 -1306 -1946 -3202 1242 7274 -3274 -834 -389 2855 -5973 -1558 -6348 -2988 -3716 -1452 -4976 -2334 -1514 -1834 978 -1108 -3287 3159 8960 -3160 3445 -1990 -5142
-3987 2138 -2497 752 7629 -1405 -4770 -485 -6608 -971 -505 4946 152 -1725 -1523 -1215 1064 -2567 4643 1955 574 -756 669 493 8497 -1406 1543 4385 -1547 208
-4526 6879 -798 -2088 3828 2000 7361 -2895 -4949 -251 -5371 2163 -6386 679 221 151 -49 1310 -5570 -3136 -90 1689 854 6922 2345 2359 -528 -2460 2446 1767
-1276 769 6222 2046 -220 -7600 863 4359 4003 -1183 4746 -9856 -381 -6178 4093 -2560 1927 -4346 6756 1316 -811 3436 1776 2768 6778 -1386 4519 -6855 1047 -3325
-794 -989 -3259 -2645 -1178 5198 -2882 6113 -5891 -10093 2226 4616 2271 3877 -461 484 -2671 3573 6273 -1960 2144 3919 1837 8546 -2547 242 -8338 629 64 2795
1329 316 -458 -980 3693 2817 7526 -849 -1943 -4793 2478 8205 -2336 3952 5894 1282 6167 -2173 7464 -472 -211 4482 2602 4856 -2784 3380 -2440 7085 1465 3210
-2295 7831 -626 -2073 -5226 5054 3805 -6559 -1720 2369 -3226 8424 -1736 -2211 -5727 -901 443 -5102 -411 158 -433 2055 476 -7016 279 -4207 -200 38 1560 -4027
2448 -13 -4782 -2339 -345 -4338 -4689 -6966 43 -1139 6666 2204 -1126 2333 908 6581 396 -1184 -4726 -6552 -6087 5005 -7019 1383 -501 1331 4973 -1541 2878 -5841
1358 -9272 -4647 -5641 4213 -2600 -3855 1254 -436 -1322 5659 4016 -3766 -2329 1192 550 3366 2576 -494 1350 837 -3264 737 4592 -5612 462 4461 220 -4482 3298
-1240 -3057 -4502 -1292 722 -1419 -2149 -5973 1759 7172 -769 2682 844 -4452 6854 -311 -2803 2483 728 2381 4470 8507 1586 -637 -6341 644 -714 3050 3234 1463
-580 -5903 1287 -4553 -3197 833 -4585 3233 -2702 217 -1078 -3123 -2454 -3505 -484 1848 -910 -1811 -3346 -2717 2965 -4610 -4702 -1734 -282 -6855 865 -3161 -141 -908
-4470 2118 -1050 -1690 -4674 4083 5535 2562 534 -523 -257 -353 380 1033 3097 999 3202 -6190 8269 -769 2708 -3560 -1458 310 5564 2101 1816 -5869 -1709 4029
2225 5115 -342 -5883 5882 -5748 8867 7424 -5603 627 48 3016 -2984 -2075 -110 -4845 4322 830 -6166 2127 -5315 -4324 598 994 -1060 -4203 2199 -2311 8877 3591
2232 141 -5872 8989 -2598 -1856 1409 4036 -1559 689 -3441 -1959 5180 1383 6376 -6545 2000 3348 -8371 -1390 673 -1016 -1135 -3604 -5658 3717 -382 7233 4863 -1146
-894 1105 4038 -653 -1783 -1532 3119 3466 579 2510 -2338 2366 -5223 2116 -6707 157 -5946 6965 -263 -3492 -2616 -2755 -254 -1325 -4879 8383 1284 -2658 -1903 4249
-2672 3771 -56 -2112 -364 -1159 -242 1969 2339 1457 1110 219 394 -269 -1106 121 7116 -63 5366 -5529 6235 5366 392 1214 2018 -5979 724 -1320 3444 -933
2350 4608 -54 -3326 -255 -7156 88 -2891 -7623 208 -4841 6429 536 -1154 5275 2168 283 -2780 -2172 -3947 -2867 1508 -2784 329 2597 2483 -6961 2290 -5762 -5852
-1070 -1617 -7352 4264 -2711 526 -1667 -783 -1283 -2178 6933 3865 -7102 1381 6036 718 4274 8390 -5275 397 -284 -3076 -1679 -1055 -217 306 -5973 2442 1763 2934
2575 3230 -2664 2079 -1275 -809 -4347 -906 -6253 5682 -1282 2489 1087 -2829 -3116 -1639 3877 -8334 1295 3692 -227 -464 -2212 -1508 2041 -119 -945 1211 4783 1129
6188 -5484 3995 -1141 -4223 -4735 -393 -896 -4047 -3395 -1190 -235 -4712 -5015 2695 1701 1562 -1657 791 -9043 -867 -5091 3289 -7331 595 7310 -6398 183 1601 487
4046 -4821 -1999 -2331 -2769 5109 -2906 920 4234 99 5011 -1403 -7348 8740 2543 1767 -1173 -1458 3887 -1556 1302 827 -7554 -4148 2171 -2335 -1792 -1077 2683 -3841
4088 -95 149 2144 5575 -713 1988 -14 6517 3001 2592 583 2018 5731 4224 -3695 -5026 3346 -3781 -8009 1349 573 6287 -293 9858 1590 -2040 1903 3167 -3353
-3769 660 -736 1425 5204 -8295 -4064 9398 -369 4863 -883 -5104 -2712 728 -552 -424 -2535 -5274 -2566 -4751 2873 -6353 -3621 5052 1274 1292 2290 3180 -877 4865
3354 479 442 -3451 4450 -1286 -3379 419 2092 2021 3572 -1338 -246 3231 -1150 -1952 -5589 -8991 -140 -4274 5492 -461 6145 -79 5313 6719 -231 -1967 -568 -4524
-3654 -1655 797 -5568 -3321 -5462 2151 -8410 111 -5808 108 2450 814 6877 -5024 2934 3822 544 5298 2474 4668 3023 -1041 -5002 85 4544 4286 -2512 -1962 -2368
1193 -3689 -742 -2214 1337 -1873 -4766 -4470 464 -2074 -1649 5429 4272 271 -2817 3691 1004 1757 -1928 1671 -13 -845 -5586 -1481 -4217 3657 -5458 9429 -5302 965
1351 1010 -3186 926 -1934 -3150 -9183 -1997 -7943 4069 -3229 3166 864 1167 2716 7084 9413 1428 -6130 3376 517 3770 -5164 2815 -642 -1528 -475 1146 2382 2943
-89 -2747 -2873 9052 2801 2166 2701 2105 -444 -7603 -2106 504 -5783 -4097 1768 -6181 -2232 -586 -3760 2064 3413 78 -2614 3695 2955 -1737 460 3284 3427 1221
1038 -4787 4099 -330 6380 -4434 2422 2801 1847 941 351 1762 1827 -5981 7255 -3409 -710 -2815 -2032 628 1940 -3266 466 -2829 4755 -5467 2189 -729 3115 -1063
1619 1791 -1720 -29 4889 2282 1688 -4086 4349 823 3599 4784 -1628 9686 -1089 1768 -350 -1486 -3844 3401 2161 1306 -4174 2059 5079 -1683 -595 2775 9406 1565
2226 2984 -3866 979 9 -1987 1681 -4775 2590 -5549 3062 -381 912 2232 716 6861 1938 801 -885 -5233 5297 656 2012 -564 -3671 -695 -1513 5444 -74 3223
1480 7448 -6251 107 7137 867 -801 -1715 1771 -1967 2027 -2304 3630 -4765 1039 1766 -32 -1340 3370 -3170 1973 -2576 -409 3962 938 1230 -2922 1113 478 -1463
-5573 391 -10591 -4888 751 -526 -297 -2612 6531 3362 4133 6939 907 221 4947 -464 -921 2853 -6926 -9516 -1637 399 -3031 1791 -2629 -810 1591 10321 -6380 2084
-3454 2807 1915 7180 678 -5847 -3237 2333 2631 1357 6762 2592 6432 137 -4160 3653 -1204 655 -820 2639 -2722 6224 -3821 -1942 -531 -793 1022 -1330 2963 -7460
-727 -2691 754 -4359 980 -1410 2713 -1626 -3276 -188 323 -8114 1595 1437 -2152 3961 -1149 -1166 1677 2003 1905 745 2025 10181 -374 -1700 3264 3432 2980 -62
1212 -2391 -6166 -454 2116 -1803 2697 2245 44 -9254 -3174 -4830 -8652 3442 -4461 -444 -1926 -2765 -5183 -5992 521 2754 -4192 7708 -2128 1508 -4902 7298 -742 463
2278 -2021 5426 3441 -4166 4128 -2631 -1634 6617 -2301 4232 1408 3863 6946 -5696 -1920 366 4095 2361 2817 5895 3152 8879 -5597 -1935 -88 -9785 -1383 543 -1955
-5089 4506 -552 4407 1040 5315 1431 3901 2941 1235 -2176 -705 -4019 2847 -154 259 5991 -5795 -2834 -349 -7846 -2289 757 -8574 -4054 -255 1030 -2948 -3689 -746
7205 -3281 -1951 839 798 -83 3347 -2100 3472 -2134 857 -1609 -5720 -210 143 -3164 5045 -3973 932 3552 5092 7874 6628 -2938 -700 2614 3967 64 -554 -259
-716 1175 -5585 -3892 -563 -1865 62 -4303 2549 3417 -5234 2381 -1502 1969 2291 2195 1229 -4441 -3732 -4485 -1849 -3580 725 3317 3487 -4323 -2025 3217 -5961 -746
6096 -5646 -914 1652 1680 -1664 -2628 6045 -451 3177 -1243 4057 -4526 1964 -1610 614 -5299 1341 843 -1492 1438 -4999 34 -1740 -160 7654 -3440 -5628 3033 278
5251 653 -1099 -1569 -2710 833 -4113 -2474 -1052 921 -102 1390 3761 484 -1931 -1240 3173 -5092 5662 -1545 4148 1248 1637 -3770 -88 -633 466 -228 -1627 -4486
-4154 1695 1998 6426 569 305 913 -10766 -117 2233 1209 4756 1361 4254 -2863 2758 2261 -5847 3737 -3858 -3726 1523 -1136 3066 -2961 360 2684 -2001 -680 59
-911 -3190 -3305 -2904 -2824 -1162 -7804 -4130 -85 3723 -724 -3075 5034 -5894 1983 -391 4983 1905 1436 -3289 1116 -4848 7426 -1987 1840 -6804 3200 -4306 8988 -2679
-2152 377 2078 2018 -5126 4332 -5643 857 6202 -2950 -5559 -3364 184 3117 7123 -2996 729 -716 -6646 3784 624 -4220 2640 -2986 -6288 5360 -1318 -6257 -4910 -381
-3678 -2940 1602 -6680 -2916 1463 -1197 1786 27 -4372 5400 -1828 -202 5454 -3979 5540 1575 -5390 -3567 -2657 3268 -7485 -3216 5610 -1593 -1076 -56 -2096 1668 -3738
937 -5160 3154 3396 665 3357 4543 -849 -4380 -748 1587 -3301 1266 3168 -6893 1667 6972 -4918 5394 2708 -1579 4257 3788 4347 3321 -2701 5223 3418 2955 1964
-2413 4234 -3905 4172 5719 18 -3499 -647 2034 -5722 6844 2472 -759 -4703 -5942 -74 -1531 3609 -2509 -2978 800 -6645 614 -6751 -6740 580 608 -4094 2363 -7294
-323 2161 -4931 5373 -10258 -2248 -2980 -2064 -7479 -4541 6563 5966 -1003 2367 4518 7783 156 189 -3914 3120 2348 -1423 -2220 -1727 -2753 -47 4182 -5172 1106 -564
-6898 2579 3806 4984 444 -3261 13244 7803 -1426 4618 3259 -6509 1855 552 -1233 -1042 -1512 -3735 -3803 -1177 1394 -4451 3937 589 -12080 -1134 -1075 2087 4454 1108
1988 -5477 1370 -7411 2218 5015 -4610 670 -991 901 2978 5093 -7671 -5688 -3347 7351 4963 3514 -976 -377 -2960 -5330 31 2882 3331 -6364 4155 3290 2506 102
-3294 -10804 4997 3173 -340 729 8774 -1921 5942 949 -3518 -1560 -3357 1779 85 2043 -1751 6354 1439 6138 3756 3238 4058 1510 9970 -3381 -8044 -4770 5056 1039
-2645 -954 -1590 4164 -8754 -6849 275 -1512 -407 -1689 -4159 1049 4435 6200 -449 -717 5892 142 2353 2892 5105 1411 -7782 -1570 6316 1685 291 -8830 8183 -1764
5338 3217 983 -4726 -1668 2375 1280 7022 2001 4098 -3364 -76 3703 2803 -4174 -4123 -337 -4851 -6962 -58 -1390 1178 1784 -3187 813 -3145 2035 1518 -1751 -3627
753 2097 2022 2048 -1770 1128 1760 -4070 -3527 8539 236 463 1191 -1171 -904 -2086 566 -1946 -2551 2534 -679 9159 -1363 7205 -634 -52 2275 -7680 536 90
2706 -8889 5661 5379 2381 -1236 3301 -1293 1809 -3419 727 -12402 944 4848 -6542 3810 64 -5842 4131 -1151 2590 1685 1019 -4175 2146 -249 -6370 3650 -1490 -1863
-6656 4257 1296 -11450 -799 -312 -7721 -3891 -223 -2417 5370 1444 -792 -6698 -2827 -1860 3654 3910 -7870 -1490 4106 6772 -1047 3654 3150 3757 4691 -732 3456 -2710
-4547 1334 -4540 5971 -1688 -2420 -2826 6446 7804 -6653 -2345 3192 -5117 4934 5260 2411 -1806 -5112 -6923 866 82 -2151 1526 -2064 2224 5860 2793 -3308 6903 -4618
866 -10419 2626 -10137 8105 -2092 2955 -1276 2070 -1607 5763 -1125 3987 -961 8236 587 -1735 -3841 5184 -1512 -2688 -7486 3592 495 1013 -1585 -1497 3379 3532 3689
4643 -2239 1987 -1413 1431 7719 377 1852 -2539 1236 -6064 -5861 -1182 -3966 -993 -2680 532 1918 -4975 4660 3586 -789 -2368 2893 1775 -3046 3631 -3171 -25 2514
-1209 -4568 4130 -2068 -3213 -2018 619 2452 5610 -5936 1854 -2113 -2372 5040 183 21 3366 -973 -1056 4564 6534 -5896 -2705 -947 6837 -1737 -3633 2708 3635 -2020
-3831 2569 1958 -346 -3004 189 241 -4240 3016 3189 1704 4724 -2069 968 3682 -75 458 5645 2815 -711 -2669 6379 8 -1071 -2421 186 2938 -888 6631 2462
2108 -6469 -1549 -3457 -9620 -2340 2131 5343 -2659 2108 -1866 5329 -2854 -3865 -824 5049 6108 -2640 -3303 2166 -2616 -542 -7584 214 -6747 49 -2197 3630 -7009 1288
5463 -2545 2041 -6611 306 481 5292 -4694 3015 -4230 -4263 -2733 1284 1234 -2853 969 2077 -3516 -4425 5637 3212 -15 617 -4014 -1291 1412 -11086 2776 4532 2540
802 875 6640 658 735 3689 2411 -854 4462 -7572 -2499 -18 1779 -587 -1329 -5378 -2468 2371 3970 616 -2269 3451 -2077 266 -2093 -621 1244 540 6333 -8401
637 -4437 3795 1539 2259 -3905 -3416 -4125 2259 238 -1511 298 -1462 -1197 -2846 -1225 439 1609 -2559 1650 1674 -2502 6193 -2525 4317 5564 -5271 -792 -2896 -1563
-5265 -7374 -1695 -8210 -811 3278 -339 1448 910 5493 -2978 2931 -1010 -4451 2539 540 3019 -3244 2605 -3768 -39 -1444 27 -3020 1970 -5632 -3863 846 1743 -2802
6122 3975 6413 1225 4395 1974 -68 1307 5356 -1613 3767 -3152 -1273 6168 5567 5226 -5994 3286 -4049 -963 -2154 -3588 -1340 -409 5270 456 -3318 885 -12207 3182
-7109 -1181 5005 2818 -5502 1000 3593 -1331 -1998 -358 917 3412 2090 -6478 2515 -2528 -7547 1338 -450 -2956 3316 -1931 3063 -1358 7294 72 -428 9034 4494 3244
-3958 812 636 1890 -3540 4332 -1235 -909 -1780 2520 -6338 -6756 1629 2335 2747 -969 961 9683 -1167 -4387 -716 -400 4931 1382 6229 -3204 -2478 -6251 -3079 430
-489 2469 4657 -2498 -2852 2341 4406 576 3085 4513 1725 4692 2354 -6789 -947 -9158 214 -1223 3397 -739 -340 641 -5521 -6103 -6127 -3746 4184 5612 1858 3138
-736 4721 2619 -566 1059 2102 -2251 -6795 3127 -4039 4557 -2713 -1968 -3257 -1794 4186 -5929 7074 -2827 508 -1243 2655 -2161 8930 7687 -3130 -3077 9420 -2525 -6234
120 -3205 5245 -3337 -3192 -2931 -3154 -10229 1994 1411 -268 4358 2341 519 6237 -4753 -7099 9306 3914 3782 -1729 6058 -573 -1190 -2256 -1924 3334 -1738 -2119 -1709
-3889 -2919 -117 -4128 -213 -1643 7488 7526 -721 59 278 -1132 3758 1237 -733 4672 -3318 -6443 -2575 2834 -1710 -1593 -3962 338 514 4147 -3161 -1067 -1484 106
2821 -6243 8333 1432 -826 691 73 -50 -1588 -2043 6403 -2552 -2112 -5972 -6336 2817 2645 4533 -3402 1820 2731 4077 -2653 7533 -1277 7093 -6039 -176 137 1330
-4091 5203 56 -5612 -2128 650 4323 -7014 1869 -6325 -1273 -1740 -3796 5915 -4940 1693 5410 2499 623 1099 2214 1098 -107 -1120 2215 -6516 1460 -2629 -1636 2297
-1063 -19 2136 -892 3698 -1786 4245 -776 2781 -4781 -170 3701 -2698 -1897 3230 609 -5573 4957 2720 -468 2651 2098 -4025 8631 -6621 -6178 3861 -2582 -137 -1195
5523 232 946 -3286 -351 5505 -673 -9610 831 8 2220 -2576 1510 3869 3942 -2202 -1047 -2146 -4278 4426 555 2251 4208 -2947 -3630 2228 6852 4786 9670 2905
643 -3127 -1583 -1082 1047 7604 -1385 -2934 8164 2068 -273 1073 957 -2386 2658 -5429 2298 1972 -2861 2903 472 2895 -356 2890 1010 1079 256 1064 -3424 -57
1528 1643 -2126 3412 -1689 153 620 4138 -3807 4476 -7528 6052 7644 -1218 2658 -9199 -666 2725 7294 4535 -1768 -3415 2541 7144 -3034 -8517 -6402 -3450 5283 696
745 -6246 -1989 -2900 10197 1310 -731 3993 -2093 3828 5068 1145 1544 726 -2711 2355 4782 512 144 4970 -34 -3863 1554 -239 -5081 2383 -2444 3017 -4619 -5025
3505 1591 -6291 3182 -12322 737 191 537 4743 -2157 3595 -1882 1076 4084 -3777 2801 405 -436 -4742 -192 1936 11553 4838 4787 -2692 5187 -3118 3087 -974 2048
-1350 -1971 -7367 -3956 3178 -904 -57 -1270 -4357 -288 -1614 -1829 -852 1129 -4849 -290 4074 -6 -419 2989 -2124 160 -825 -1837 -8007 3427 -397 6042 -1860 -2547
6009 -5615 3271 6803 4148 -734 4331 -5268 -573 2272 992 5859 -1755 -3545 3389 4082 -4749 -3913 132 3011 -9206 6059 1446 3623 1883 -1786 489 1522 -7053 285
3982 -969 1306 -530 -3031 7419 -3274 -2160 -470 -5280 4039 -7880 -4183 -6733 5621 3155 4216 3219 -4282 -4720 -3891 4344 4014 -377 -3933 -2644 1984 -1471 -2569 1626
-2982 617 -4464 1934 7442 5033 -5438 8499 -7420 270 -2874 -11236 8160 -5177 5157 195 -893 -905 3614 3333 -8623 -2555 -7949 1628 455 1541 2945 955 -4208 2067
-1956 3555 -3678 4285 -3231 2548 1401 -1598 3904 -649 -2975 7739 -6613 -1386 -2188 -9005 -6697 361 6949 -499 -2882 3288 -2727 634 -4634 6241 -2818 -5729 -357 -871
-489 -1961 1824 9483 -54 273 -504 -984 -5607 187 -2694 567 1038 7111 -1928 9567 -5897 4279 -390 437 -2107 -4374 -38 -712 9873 6939 6620 -1784 2091 2203
762 -4477 2563 -1606 -10694 -1711 4066 3598 57 5210 -3344 -542 528 -5648 -11037 -1107 -2804 4687 -1642 7239 1600 4318 -6952 2251 -5069 -85 -6700 346 -5430 -422
-197 2181 -67 1624 1504 4461 -6906 7166 -3090 1909 -1905 7118 -2711 -65 -7390 2554 -323 -1282 155 -2209 -4077 2436 -1158 1960 2075 1501 106 -1933 5589 -1033
1163 -1395 3724 3122 -1503 625 1736 2620 -32 986 1887 -7313 -11 5200 -44 358 4890 2804 3439 1875 802 4518 -7703 -2263 -3217 340 -2870 873 -6525 1269
4092 3292 -1945 -3202 61 2809 -6237 6287 -1564 2760 4181 629 3938 -3864 1206 -248 4797 -5167 343 952 5151 -2939 -532 -1253 5962 -3570 -1081 676 1995 -1589
3167 2112 -1111 -290 -3816 -1324 -3714 1353 3947 1252 -73 -1375 6895 -4673 -2307 6125 -3282 -8300 -2452 6647 -1199 333 -4177 -2545 3537 -35 1166 763 -5596 1490
-2032 -4711 -867 595 -2752 -5410 174 -537 1462 1461 -4151 -6110 949 1519 -4742 822 -4822 894 131 1420 -422 -4394 959 -5471 2518 -47 -1067 -1450 869 3700
1183 -2844 -4714 2101 -458 -6597 -2689 511 -1224 465 -6443 -4134 8805 -2421 -3610 -6242 2409 452 1967 3571 -8285 -2218 6507 -8433 1376 2782 3842 -4897 5446 -7454
-1515 6679 -1750 1525 -6482 6110 513 5400 -313 -489 3013 -4084 960 -188 -1331 -2154 2422 1543 -6036 2200 -1614 -2009 -626 3734 949 -2112 -2612 -826 3268 274
-312 6120 4217 -4187 3550 4556 10532 -3597 4471 0 -3738 -1748 -3749 534 4038 -1340 8735 -1674 -942 -7064 3429 1405 2959 -2504 197 3294 -2736 -1608 -3553 -964
-730 3389 -1929 2157 -1689 -3046 -5591 -500 -1125 -645 1441 -1464 -1712 -2964 -523 1417 3406 -5491 616 -3907 -3424 -402 2756 655 -1255 5842 -3226 -1001 2324 -2596
-1734 862 2254 1925 -4473 -623 -2776 1623 5893 -1610 -1937 -4851 782 -3860 3877 71 -2327 2790 -2940 -6674 -5518 2298 5304 309 -1095 1714 1195 -3945 1669 -66
-829 2930 3655 -1603 -5577 -707 -943 -2106 4193 2368 -984 2035 4479 244 5708 -1498 -314 -2023 -4743 1705 -4179 7494 7423 -2224 -5949 795 -3845 5380 7139 -600
-1354 5160 3945 -2903 1765 -4802 2512 -348 -18 383 2809 5071 -4837 -2915 -1957 1067 432 3299 -2047 744 -8188 -662 -3273 3670 2786 -881 5199 3612 -245 -3615
4857 -4384 1819 3628 -1801 -4446 -1224 1781 5469 -5349 -1399 6608 -3558 -2005 -4272 5126 -4964 -780 -433 3861 790 -3148 -6210 -1531 6787 7950 -10118 5843 4559 -386
360 -1012 -2439 4294 -7039 -2414 6700 -3920 3571 -893 -1049 1026 1237 3683 -6113 3153 4875 -1939 118 -3610 2113 5098 -5649 -9886 1088 30 -288 2177 2253 -293
-1200 5703 -851 -4478 6590 -381 -1873 2335 -2006 -668 1446 -1644 1268 -1056 -3360 -2957 828 -4140 -3606 2224 -1550 6896 1229 -7589 8919 -2676 -401 -2791 -6622 1061
3599 -3491 -1110 3321 -673 -614 -1687 2378 5566 991 -4949 -1239 3480 -5002 -2055 -4046 -1167 5997 -3089 -2796 1544 1815 -1623 566 3743 -782 1800 -945 -3974 4915
-1480 -187 4122 3173 -3175 3032 3620 -3298 -3012 4095 -7460 2717 -1088 -1578 -1111 -3580 1799 3515 -3922 -4773 5165 -1991 4398 4166 -258 -3226 2393 7037 -2973 379
6095 -476 -2248 -7262 -2143 -524 -1862 -4991 -1171 7186 4558 -3453 -2302 -4314 3132 3053 452 -6110 -212 -532 -1694 269 -4214 -1589 7853 -2126 1517 1430 -4282 5055
4964 -634 -3885 458 4322 -1772 -625 -1419 1224 5356 -3067 -2088 -1400 2109 5249 -3593 -4998 -410 298 1279 -1255 2952 350 -3482 1237 3815 -2370 -2636 7502 -764
429 2048 382 4170 -6886 3118 2442 -5298 4165 -5810 -2057 -4136 -982 -570 7328 -3640 4871 -325 1704 -3951 4000 -2987 4456 4027 646 2331 -2054 2176 -1302 3457
-3982 3451 -4405 -275 3243 -1048 -41 1511 -1248 -4849 935 1011 -1291 -918 275 10731 2064 3322 2023 2669 -444 1124 -4447 4192 5997 -3019 5048 -1539 -2492 347
-3824 198 -3312 -3453 5129 -5573 -5534 98 8882 626 578 -261 -560 489 1478 -1554 7142 -4184 -1308 824 7170 -3309 -229 4235 -4037 585 -1601 2823 -757 1393
620 4539 -5351 5521 -43 -834 9126 -285 867 -2821 -148 322 2496 370 98 -3786 5920 -2147 106 3891 3770 -3393 -136 4351 -5317 -2303 2060 -1041 2418 3446
2795 -5194 -7082 4044 1358 3395 1700 1195 -6746 728 2207 2089 -5563 -2171 -4598 1021 -343 -3710 644 5048 -657 922 -3879 2236 -1459 -1207 207 2753 3574 166
-1308 1328 -3505 712 -902 4921 -494 700 -5198 5112 -493 2115 -5826 -4479 6888 1005 2535 1036 -3396 1946 -1497 719 1855 -4041 1350 -737 3281 -1773 646 -724
2906 -648 6039 -4016 1564 679 1563 3610 -2331 4502 -2810 -815 81 2345 -3102 3823 -4809 5328 -7848 5342 2525 3543 -6 328 4634 -2830 2258 -1542 4057 -2452
2450 3327 -4279 -3456 1650 -6008 -734 4002 -1786 -596 3032 -3769 -623 1081 -4788 291 -2721 -2449 834 553 5357 2466 2060 2078 2255 -3839 368 -1378 3321 -4901
-2376 4084 -2360 364 -1276 -5885 4296 -2308 2516 -4051 -145 -3385 -202 -3559 4215 3898 -3263 -1398 4850 309 1427 -4489 1104 -4772 -1228 1041 -82 123 -7607 -308
-3172 3611 4057 4019 -2767 1150 -8360 3365 -4853 1933 -2515 7783 890 -3444 6 735 -4760 -1304 5496 -956 1061 -11428 -982 -3302 5909 383 -1394 -4842 -3938 2442
556 818 8203 5928 1472 -1571 437 1818 -360 1255 -6073 3742 -2429 493 -4437 -29 4343 6280 3172 3042 -3413 -1932 1743 -2917 6030 -1300 -9478 6331 -1815 -5127
2218 -2586 3048 -1423 -3976 -6009 -1672 -1154 -2528 4294 -5090 3205 2759 -632 -5985 -4736 5131 1168 3426 4147 -5978 2106 1824 -1615 -4394 4025 -6329 2560 -5081 -832
620 -1192 -698 2584 -1739 -6676 318 2075 -8265 -1322 -1066 -3722 -798 560 -1269 -2626 1553 3532 -696 -2361 -2720 4093 -4990 700 -5010 467 -965 -274 1044 147
2322 -2276 -1426 -2705 445 -1187 -2314 -1544 -964 -2135 -2369 8265 -1307 -1539 1643 582 1887 136 650 1664 -4961 4279 434 2789 -1885 -1661 4267 1330 1178 1892
-14 298 4837 -4415 1837 1919 2633 2201 -674 -4719 -4528 -44 -3911 -531 -971 1442 -9040 -5368 -443 2319 -6830 2369 707 219 5792 -1935 -841 -181 -3755 1162
2285 -3788 3259 -5859 6879 3797 -3241 248 -5071 2122 -4951 4572 5937 -3574 1758 -3145 -2681 1024 1763 -3958 -1334 5568 736 2054 1954 -1430 1544 -3685 1062 -1555
-2091 -4858 241 3550 -4264 1275 1844 -8211 6474 3207 -4289 -2220 1902 -2768 -917 6884 2277 -1903 2284 3116 -5741 -2825 1927 632 1582 4129 -280 -6627 -458 3913
-855 2496 -940 -1581 -2069 161 3149 -3386 -5963 2164 -1969 646 1734 -10033 1963 1209 5044 -4387 2591 659 -6699 4763 -2657 -2607 10881 -6928 818 397 707 -2980
3282 4558 -6191 -5063 1305 927 1426 3104 -12679 6106 5536 -2712 -422 -2178 -4820 3780 4760 -5019 -5041 -8526 -5727 3223 -9578 -4480 135 2327 5997 4238 -2935 -2321
-1311 2786 -366 1612 5521 893 -1371 2774 -4159 939 -813 9390 411 -2020 -2967 10656 -263 -3173 -771 4234 669 1071 -5641 1066 -2355 5101 2113 -466 510 2501
2058 -2867 -5717 2766 -2447 1563 -3308 -324 3553 -1719 -5847 -861 1605 8165 3374 -2899 -6894 -554 -575 -1068 140 1674 1692 2519 5551 -1344 -5059 -263 204 -627
-1847 4560 -1445 -7002 -2247 -219 2425 -3536 -4930 2302 -79 7976 -4319 5805 -1690 -5191 1117 -8938 6021 -186 4417 3516 -184 1994 -3514 -3186 2736 -3467 332 1890
5147 -1039 -3530 638 1308 -8743 -2125 2169 3785 -3695 6456 -714 -3436 -1894 11526 -4380 1932 -504 1219 2833 419 1058 -534 6645 2185 1863 -3621 6152 950 1078
-999 3980 3791 -267 1966 -1953 877 -1775 1681 -6212 -3264 3480 -833 -5033 2552 -2645 3512 -10487 -1535 3236 1384 332 -12817 1321 4640 -2235 -466 2943 -606 276
618 3684 1526 -2284 -1322 -10879 -2795 -377 2996 467 222 3763 -2222 1094 -397 5718 -5537 -5067 -6166 950 1097 -3789 -2433 211 1074 1142 988 923 175 782
6398 856 -3070 -4359 162 666 -5642 491 3696 3413 739 1615 -8375 1268 1801 -2747 9826 -1106 -6227 705 3051 -3219 -3558 320 -3380 3766 -193 2830 1363 1477
-3803 7067 -1579 -1354 -252 1692 -1296 7453 -471 -1416 -1686 4596 3109 3420 -568 -4846 4951 -1619 -1908 119 -1970 3192 8326 -5846 163 -238 2699 1391 -2030 -2315
-9233 -3799 -1307 -392 1384 -8766 6400 -6031 889 3990 3469 3753 2287 2720 3548 -4482 389 1353 -6560 491 -2251 994 3982 -3394 1767 -3227 -1618 -1150 -6677 -1979
5490 3101 -4011 6483 -2377 -5131 4478 4786 -9053 7421 1472 -4689 1190 -4760 9635 419 4924 4726 -629 -4456 -2452 1290 122 -3001 662 -1514 1939 -515 5742 -4270
1584 -199 -2272 6491 1614 -745 -491 6525 2291 5947 -780 -1580 -3269 -3188 1116 -2020 -106 2105 5483 3972 -4188 4154 1419 4364 2412 -765 -687 -1512 -562 -211
1566 -2306 -3105 2005 -1344 4302 2960 -1493 -3804 1560 3460 3052 -4329 1639 -1280 -3867 520 851 -2810 1234 -3481 829 -2172 2061 4775 1352 -8828 -6956 -5205 7214
6525 -74 -4093 2010 2507 -2658 -4555 -4574 -3807 458 1412 -4093 1229 6290 3433 5574 -4824 2026 6233 1617 -6932 2421 -295 -3229 6313 1152 -3667 -157 4149 -1924
-3225 -2484 51 9584 -4717 -702 963 4620 7029 3683 514 4050 -1929 -86 -3159 1297 -1879 -495 1536 -6361 1561 -1522 1232 2708 -4109 2788 -313 1464 -357 -1409
-1987 3777 -2533 -3054 -2688 4851 -3773 -3057 472 -1515 1198 -1658 545 -1188 1538 7084 -148 1247 -1482 -2411 3570 -8265 975 685 1190 1181 -7248 2843 7391 1301
-606 -3463 4547 954 3302 -2031 3630 -2833 -1368 -5003 -7500 13418 -9629 1810 -3761 -1963 1956 -2421 6440 -1599 536 -2865 360 -241 3065 4321 -292 3246 -4556 2392
-3007 -7156 -644 4135 2935 -3603 3444 -2034 716 781 -651 -959 2414 -4209 2417 4145 955 -2261 3101 -2107 7142 -5370 790 -1599 1605 3666 -2590 -2852 -8405 -192
2300 -6313 -8414 4188 -1395 4573 -2162 868 3442 2712 -2154 -5154 1880 -531 1452 1002 -3310 4156 4372 -3950 3355 -2744 4873 -7139 -2703 3583 815 -2634 -1415 -1805
2632 6468 -6911 7825 -155 251 -975 -3505 1358 340 -1523 7939 1028 -2916 -505 -4286 -1515 5722 -6336 2882 -855 -4972 -2203 -5318 1441 -27 -4538 1684 -1904 -4009
2099 -6348 3682 -317 8068 -7960 1991 1130 -3415 1624 -3527 -490 1516 1301 -2770 6751 -3032 3986 -1057 11445 1996 -1575 -1688 -3131 224 1092 -1591 111 1909 -1140
3289 834 6515 885 2331 -6002 4397 2684 -2251 8217 2453 4702 104 -3818 -2109 944 1402 -4985 -350 -3661 1439 -839 -10270 7293 263 -4773 3473 4131 -4620 -1479
-1963 3203 2857 297 260 -3286 -2730 -1316 -3147 -6241 -2459 6389 3966 -214 -1347 -7502 1816 1431 -2685 182 -164 377 -3384 -2037 2588 -3125 -3784 9193 3389 -8521
-3527 7763 -4437 -1842 4765 -6347 1805 -1207 -926 -1886 2666 5519 6418 1505 5936 -3917 6579 -4037 1265 -6021 -5053 3014 2768 -3665 3545 -2751 6697 2104 -5548 599
-5310 -1024 4526 -564 3471 1915 1549 -3656 -121 -4656 -3053 3527 -280 3640 587 -908 2417 1265 4471 -1926 -3500 -921 3068 1994 2144 -2578 -3810 317 -828 -36
-1560 -1016 4854 70 -1033 -468 1493 644 -2311 -2752 -3708 2090 1071 -358 1708 352 6257 14 -2994 695 3441 4140 2561 -2976 -685 1053 939 -807 -596 -39
-7347 4919 -1653 130 -6216 -463 -3719 -1154 8544 -4587 -2858 637 2567 -3955 -4996 -3133 -4726 -12856 -275 3174 -6728 1611 -5393 -1787 3723 -1350 -2338 1345 2063 542
103 986 5760 1560 -2679 833 3168 259 948 -460 -3839 -1583 7490 8816 -312 -3029 147 -3477 2100 -2163 -1610 3049 3615 -106 2495 -3619 6049 -4417 174 2953
-5309 -1174 -9886 3433 3816 -3305 5861 -626 3813 1500 2026 -3615 4264 -452 -5557 5136 -2824 3193 -4593 1925 -161 -4294 2842 3606 -159 3052 3628 3377 -371 3147
-2867 -5624 489 -3756 3357 3807 -482 4206 512 -3909 7008 -1254 -4847 -4739 -1680 650 2460 2102 -1064 -7574 -1995 -1815 -423 3923 -3998 8211 -22 -4342 1337 1046
527 1383 3627 -2787 -3690 -2582 4891 3892 1188 3142 1804 3937 -352 4525 -569 4219 1916 2264 1148 2883 1044 1319 5114 -352 -1362 2019 -295 -1732 3605 3489
-3261 2160 897 2609 2199 -1735 1072 3694 -2603 1257 8660 -1766 1095 5502 -1057 1437 -1839 887 240 -6045 -4642 -2470 599 3436 -4458 3733 -1010 1883 1036 -1945
1242 -5924 3603 -7824 -3998 5477 769 3525 5178 -734 -1257 -1053 -9201 1632 1376 382 736 -1813 -782 2076 -3331 2504 3511 11486 -1939 -8474 -4702 1097 1294 -1489
3562 1241 -1138 -3755 -4975 -4174 2823 2491 6719 1826 -3861 1143 4251 -4551 3287 1955 274 1013 2687 -4861 -6736 -9594 -5760 -1063 3741 3741 1567 -6526 -294 1738
-183 3537 1239 -7802 -2548 -4693 387 -2309 -2722 7079 2895 9412 8081 3352 779 -1597 -2142 -20 -2907 4008 7694 -660 -1922 -2106 5300 1353 12980 6732 1224 671
-1779 8097 -4330 -7509 -134 889 -667 6684 -2679 5416 -4795 7147 2663 6543 2817 -7478 1258 304 4870 1242 999 4380 -2954 -68 -5740 1599 2968 6575 1003 -769
-2744 7398 -5831 4181 7997 1382 8937 -1044 1187 -950 -1003 133 6767 5499 5949 -7512 -1234 -7903 -2157 1149 -6705 -1919 1243 174 -1680 938 2103 -755 6849 -4146
-3373 2251 855 160 -1626 -2568 -3706 -2419 -1425 730 -5341 135 366 583 -395 -4312 7420 -1116 -5653 3730 -17 7456 2964 -4623 1915 3232 102 -2845 -2920 2436
5179 6416 2788 -505 -2826 5933 -8166 -1208 -1764 78 -3031 -4059 1798 -3188 -746 1314 -4147 696 3815 -5731 6677 2697 3244 -99 3780 3363 1590 3208 -2341 2162
1205 -5147 -460 -133 -1643 1264 212 -8835 -1977 -1545 -1295 4685 -3694 8967 -3619 2833 629 -3244 -3381 -4626 366 3955 -2108 -1896 2060 -456 2662 2077 -552 -5780
3564 -2926 -3833 5591 2907 -5394 -6051 -8714 1582 4877 5049 -4259 1651 3336 8334 -1101 -1168 1501 -2259 -4112 4747 3291 7891 -2385 4519 5615 2668 6443 2148 447
4590 5471 -3938 3772 9870 -4870 -331 108 486 -896 4931 1882 -3753 1594 4140 -4511 -888 -359 -5674 -1491 188 -5845 1781 1588 4668 421 1746 2644 2408 2904
-1667 3006 -3058 1522 1297 1279 -6067 249 1332 975 -2385 6441 5944 -95 788 -4615 3207 -1037 1217 1502 -419 -7109 7136 3202 2837 116 6131 -1734 531 -5969
-729 -7777 2637 -1796 5603 -1019 -3813 -307 -4100 -1890 -3032 -2080 4144 -3524 2439 3926 -1437 -1564 60 -1802 -1903 -5440 -834 2984 857 -4910 986 -1766 -3172 -1300
-1705 -5005 1909 1024 -2534 2696 -614 -1297 4744 -5884 -2046 1450 -7147 1014 -1068 -387 5672 5392 2500 -7546 1245 1612 2063 2518 2214 6316 -438 7841 -5095 6958
0 2208 1570 -969 7942 -2352 7171 5420 8561 4509 1901 -2515 792 3847 -7940 -7983 -1054 -3917 903 -1359 48 -4774 884 1085 1810 -1638 1573 -3297 4936 4438
2918 1407 -3847 1895 5027 2245 -2814 5894 -5455 478 1940 -2407 2253 -55 4027 -4297 4173 -4492 -4417 -3963 -88 830 382 -2171 4 2972 341 4660 -6877 -2426
360 1743 -3057 -1463 3476 2827 -880 -1079 -186 3492 -2095 -3039 1307 2949 2103 -453 9593 -223 -4568 1610 6861 3912 19 -4350 2547 3879 7252 -356 -725 4008
2956 -2039 -1020 -3197 -2987 -6787 2018 -10240 -3627 2944 -8807 3204 -3205 -711 230 6707 4071 -401 4295 -5660 -4022 -1769 1566 1500 2373 2619 2688 684 323 1287
3996 2145 -3743 -687 -4141 1482 -2093 5106 -3120 -4427 -155 -22 1748 -1475 -5611 478 -2047 -2357 1291 -418 -3839 513 -2216 -858 -318 1198 -1151 2313 -5337 -570
3903 24 -7879 2985 -1779 -8317 -7233 4276 2013 -2412 2732 1735 -2583 -57 -3853 2571 -4068 3242 245 58 -960 5178 -332 5646 1589 390 3362 -890 1845 -5625
-1857 -3611 -995 -2700 -2792 4822 43 2284 2745 2508 1599 1340 -1316 -4655 2973 -3054 -665 -203 2430 -3241 -2416 -1849 1102 -1713 3380 3837 1731 -6768 -1538 3383
8215 -94 716 370 717 4280 -4086 96 -4005 3334 2195 -2677 5110 -8212 -1787 -7583 -5633 5647 -4027 -2553 4593 -486 8266 2015 -270 -149 -2760 -4290 2930 1656
3124 -46 5165 -3947 -677 -3123 821 -956 -2707 -1465 -7278 -1752 -3813 5496 -2371 -1004 3213 -1418 765 4038 1996 864 -2732 -3717 78 594 -2238 3168 -6584 -6365
-2505 -2663 -956 -3144 -5398 -3941 -1196 -4353 1146 -5288 -2947 -8330 -553 3166 -631 67 -2644 2326 2638 1962 2203 6362 -5072 -1961 -962 -1604 1288 -3954 -2567 -2703
839 -898 1361 -1500 -2384 82 2056 -1555 82 -2158 4146 6871 -7399 -4349 1377 4080 -1160 -1017 3344 -4257 -317 3833 -2470 4277 893 1071 -1243 -167 -3723 5180
1199 2444 -3564 -2121 376 -260 1045 -213 206 -7687 351 3156 809 -3612 -1811 -529 -2334 3134 -320 5437 4669 766 -1645 -5378 1691 -856 -8883 4670 3667 -834
787 2207 498 -5583 5276 -3442 3189 8010 -528 2691 -1102 -802 -1805 -552 2906 -4201 2089 -4683 1352 -292 567 -366 -4996 -1635 -416 5756 -444 -1 5269 267
125 -2281 1096 -203 6422 -2590 1495 -1522 2102 -3662 -2298 -4067 -635 4298 834 4935 -1307 1622 -5094 3998 -223 -1828 2508 -5406 -127 -7877 -458 858 -2406 -453
-1932 -4397 4722 -6329 3494 -6285 156 -3375 3473 3798 338 -5921 -1229 1089 3691 -3479 2873 -6541 1720 -4516 -323 -3483 -1230 -731 -2376 2403 4851 -3381 1417 -91
1866 865 2582 -2104 -4872 1548 -3910 -4843 -3701 1058 949 3436 -4645 640 -4228 -2066 -6304 2927 71 5329 -1299 940 -3645 -3870 -2737 -3660 4439 1748 2958 1349
-4740 7639 -687 -615 1246 3898 550 -4128 3444 453 -2392 2103 -7543 -2705 938 -7676 145 -1109 6014 1746 585 975 1594 -1100 439 5625 2657 4147 -1393 30
810 -4394 1388 3253 309 -2063 -3702 -617 4327 2215 -6874 64 -7187 -2992 -890 1080 1482 -3023 -3695 1295 -9479 -3691 1243 -769 -7257 -2869 2931 -2969 -3754 3215
6627 674 -3505 4400 -1455 -2441 5856 -2669 3445 2710 134 -3087 -2669 -2134 -322 -70 -3261 5148 527 -6438 4426 2764 -1772 716 4315 -725 4267 2846 -7573 -1478
1844 -2496 3860 -5735 -1262 1566 -556 -2782 -1459 6076 8083 -3257 4881 -10379 -174 -2986 1126 -886 1521 2354 1165 72 7091 -2835 -7875 -617 1933 193 -1201 -715
556 -2331 5637 -3555 660 2861 -2170 -343 4727 1667 -4422 -5835 -4122 -8449 -1279 23 -487 54 6030 -1287 -990 -2113 748 3897 876 -278 670 -4623 1551 -4775
-759 -3474 -1015 4363 628 -787 6914 -4843 -10097 -7365 -2042 982 -2228 -6646 -1172 -1037 317 -3770 -1362 608 -5360 -1040 -7065 -2206 2343 -2096 -4518 -6460 -4264 -34
5152 -848 2593 -4991 -1041 -10067 3143 -3909 -930 -4142 1105 1347 2425 1543 -5209 -431 6258 6539 -753 2940 -134 -587 1404 664 4307 -389 3182 -8407 -2839 1141
-4580 -1117 -471 -3012 -1516 2354 3767 1630 -5399 -4522 1294 -65 2665 1187 -4300 -4262 2892 7496 -8647 -3857 1650 168 7666 -3303 -445 -3259 1477 7979 2130 1611
-759 2630 5816 1715 -4131 5675 4649 -1976 -868 -529 482 140 6204 916 -6325 -4494 -5851 1163 -967 5577 6179 -2089 976 -5472 1088 -3086 5407 7162 1790 -483
-534 -1995 233 -4261 4753 -8060 2378 -3514 -1995 4850 -1165 -590 -8699 692 482 -2651 -6173 2079 -3799 7230 -2987 4832 -8555 3295 -1601 -3037 -3032 352 4287 -3878
-662 5321 -729 450 -5337 3556 2824 1811 1523 -4043 1664 -1635 -1698 -4047 -3560 872 1171 3533 2016 -30 2387 -1764 1830 -1854 -873 -1240 -2213 -1994 7296 1577
-3761 6042 -5876 2235 -5497 -3129 1667 -1428 1445 7678 4062 773 -2513 -2277 -123 4061 -4394 4298 2159 7201 -41 9026 -213 2020 -2116 -4168 3328 -4449 -3612 -292
-307 -5100 587 5806 3124 1736 2869 4614 -5651 2763 3482 -2622 1970 2201 7250 -523 -245 -742 1578 -2473 878 6349 -1294 2133 -1621 1166 244 -773 -7169 1097
-3888 3150 -4330 2050 -3794 5662 -1422 1146 -1461 -700 -6494 -1103 3353 -3555 -6167 5091 -719 -450 4962 -1059 3930 3940 -2528 -2787 -2053 2029 2560 1187 1319 -834
1750 -3885 6966 2265 1642 -1552 -2518 -7996 2847 678 -623 4283 -4519 1420 -3189 -927 -2915 4768 -4427 1036 3383 4820 338 44 -474 1672 -2055 3482 994 -1678
-398 -651 -2498 2712 642 -1898 -4937 -2766 -1018 -5694 3697 6076 3545 4737 4785 -2335 2868 5344 -1181 127 -1918 3687 -2431 -2721 -3900 3931 33 -4232 6477 4747
-2824 -7497 -4780 9645 3442 -4267 701 6814 -2890 4763 -3256 -3062 -662 -1393 821 702 495 1666 -3664 6789 -911 3306 2999 6422 2179 -2773 -4129 624 4539 5551
997 -3010 2925 6162 -5710 640 5613 17 -2712 36 -724 -7574 6174 -6533 -2493 -639 1061 -978 -1588 -7447 -2630 -5180 1990 995 546 -2353 -764 -4031 718 1584
6796 61 -6214 521 115 5447 -3349 859 4070 -3607 5247 -8400 279 3135 426 6396 -657 3643 -6938 557 553 -384 2404 -4052 -1151 -2924 209 650 -960 4769
-7610 1642 -1626 -1482 8758 -1437 -512 3379 543 4572 474 8017 -8533 -501 -6751 1749 -3668 -2460 -4016 2322 -4209 -193 -5303 793 3040 1585 -7858 -9645 -2073 -2718
-4781 633 3129 -2080 6268 -433 -1034 -2013 4055 560 2730 -4728 -2570 -4978 1612 6687 573 -686 4766 4193 1375 1659 -1991 186 -3854 5421 -6314 1890 827 1390
3102 -3663 3675 2403 -953 -7455 -2514 1778 2644 -618 -1490 -6141 698 -7143 693 3633 -1403 2753 5384 -35 5446 -2021 -8388 7166 -2591 -110 624 447 -1029 1628
3110 -1104 3955 3547 -1282 -4540 1317 3613 -786 -5077 671 2149 -1008 3594 -1820 -4460 5753 2631 -1722 1202 -1307 -3070 5197 -103 -4054 3330 -3279 -3806 4900 -1637
1033 2465 -1847 -115 4013 -3260 997 209 -116 1043 4357 2286 -850 2961 2439 -1552 1187 1490 -3612 -323 1684 159 1758 -6315 538 1099 6047 -3258 762 2665
-2064 -1946 980 475 -1689 -2736 916 753 -3041 248 1460 3508 -6949 -8586 -1974 3080 -822 -407 -3327 517 -2339 2365 1007 1308 -268 -5615 -6380 -3051 -3249 2305
1651 -1773 1162 -4030 2083 -429 4370 5917 9390 167 2628 -46 -7221 -3831 1437 248 -8639 1931 4060 2877 1050 314 5758 3456 2634 -438 -1301 -5228 1837 4756
